40 768
amazing -0.029074 0.009731 -0.014725 0.012896 0.012855 0.028081 0.051840 -0.023211 0.063707 0.049532 0.013615 -0.005007 0.032654 -0.006122 0.047434 -0.020986 -0.074956 0.073097 -0.007823 0.027293 0.062877 0.037680 0.044701 0.054374 -0.002163 0.069819 0.014099 0.000954 0.040103 0.040899 0.007754 -0.006351 0.003817 -0.014822 -0.025131 -0.042670 0.063300 0.029905 -0.027112 0.017468 0.058105 0.008560 0.015256 0.038083 0.030958 -0.013719 -0.033452 0.035488 -0.036487 0.021924 -0.003776 -0.007580 -0.011639 0.003754 -0.015610 -0.021847 0.021657 0.030293 0.011000 0.013642 -0.023118 -0.020069 0.037687 -0.004844 -0.068702 -0.010096 -0.072319 -0.025628 -0.030633 -0.006142 0.049184 -0.047313 -0.007045 -0.028872 -0.007200 -0.094510 -0.006646 -0.020741 0.004219 -0.011299 -0.007154 -0.009190 0.018507 0.021834 -0.016407 0.008223 0.022357 -0.011958 0.011073 -0.005740 -0.032777 -0.024880 0.042130 0.040579 -0.034393 0.033004 -0.041159 -0.022656 0.043003 -0.061832 -0.035217 0.002432 0.004761 -0.022553 -0.011394 -0.052818 -0.002566 -0.067075 -0.035576 0.035012 0.006658 0.003921 0.060527 -0.056269 -0.081105 -0.032569 -0.006819 0.005047 -0.044590 0.004210 -0.056744 -0.010124 0.000420 -0.032778 -0.002475 0.024325 -0.013863 0.015070 -0.003107 0.007888 0.030208 0.071939 0.060669 -0.005921 -0.044217 0.009628 0.020013 -0.010962 -0.031883 -0.028251 0.024739 -0.023598 -0.059342 -0.048642 -0.039300 -0.002133 -0.031356 0.052949 -0.014705 0.043614 -0.016113 0.032119 -0.008428 0.061380 -0.017303 0.018806 -0.038820 -0.019578 0.105876 0.023666 0.065303 -0.026783 0.022836 -0.055734 0.021582 -0.058714 0.098206 -0.002635 -0.024667 0.061541 0.041419 0.028456 0.044348 -0.050700 -0.009868 0.034640 -0.104668 0.020413 -0.087556 -0.026973 0.028172 0.026464 0.006811 0.001110 0.029955 -0.025054 0.050780 0.028944 0.018404 -0.000559 0.013811 0.020242 0.000091 0.012372 -0.004211 -0.000844 0.055618 0.009265 -0.014704 0.002496 -0.030753 0.008510 -0.010421 0.028404 0.073044 0.042517 -0.030795 -0.020469 0.027641 -0.007250 -0.007664 -0.015180 -0.030393 0.000606 -0.088230 -0.063482 -0.009067 0.036081 0.038054 0.046383 0.017048 -0.008542 0.033813 0.009326 -0.050955 0.001933 0.001384 -0.028542 -0.009335 0.003234 0.017218 0.040895 0.003436 0.014814 0.022828 0.065278 -0.046875 0.002772 0.034726 -0.031771 0.018873 0.065824 0.005539 -0.037649 -0.068480 0.003689 -0.027368 0.006208 -0.013196 -0.052731 -0.042628 0.010567 0.028895 -0.024045 -0.026969 -0.021568 0.016973 -0.044228 -0.012799 0.011391 -0.002716 -0.008460 0.053978 0.014888 -0.011730 0.023825 0.014691 -0.015328 0.008198 -0.006793 0.014112 -0.053379 0.001901 -0.048925 -0.077743 0.021653 0.038420 -0.074010 -0.021075 0.004714 0.068311 0.039481 0.033700 0.009495 0.001880 0.004294 0.012631 -0.015217 -0.011604 0.028260 0.014007 -0.004567 0.018749 0.051318 0.001359 -0.044087 -0.088210 -0.072151 0.005480 0.016107 0.017586 0.012460 0.002287 0.015261 -0.008383 -0.006679 -0.045260 0.047781 0.034059 -0.070442 -0.035958 0.012984 -0.036947 -0.027875 0.004963 -0.023015 0.001432 -0.044021 -0.010507 0.033412 -0.025000 0.019317 0.025290 -0.020181 -0.004066 0.067545 -0.020541 -0.001957 0.029981 0.019679 0.041509 0.011189 0.021049 0.031975 0.006781 0.032958 -0.023811 0.003293 0.011415 -0.074523 -0.034635 0.055972 0.002473 -0.064559 -0.015098 0.072682 0.034487 0.032339 0.009567 0.052448 0.063931 0.021786 0.019270 -0.004064 -0.050137 0.022607 -0.001630 -0.001959 0.015054 -0.044634 -0.003272 -0.032248 0.033265 0.049111 -0.010929 -0.004354 -0.006089 0.027564 -0.011409 -0.034951 -0.022898 -0.032094 -0.053288 -0.002607 -0.004577 0.045320 0.017268 0.025875 0.036012 0.026907 0.040496 -0.011562 0.000238 -0.035263 -0.032199 -0.033622 0.014134 0.078704 -0.061956 0.005222 0.057991 0.007196 0.091787 -0.031380 -0.007380 -0.020769 -0.035613 -0.022249 0.038563 0.006334 -0.009895 -0.013412 -0.034657 -0.099458 -0.023963 -0.015715 -0.006322 -0.026383 0.055249 -0.006908 0.062067 0.069773 -0.010641 0.082890 0.072045 -0.026115 -0.041891 0.081491 0.039997 0.014824 0.002310 0.007102 0.016930 0.008639 0.021764 0.046090 -0.007613 -0.070570 -0.050242 0.027836 0.028964 -0.009542 -0.023833 0.037155 0.015821 -0.068147 -0.011381 -0.015230 0.037033 -0.064282 0.020389 -0.077645 0.012168 -0.023732 0.014937 -0.025693 -0.054425 -0.038475 0.064965 -0.011413 -0.045667 -0.008541 -0.042552 0.047063 0.005593 -0.006240 -0.027194 -0.007591 0.066175 -0.005003 -0.082558 0.043052 -0.008609 0.003068 -0.018363 -0.036643 -0.015112 -0.018264 -0.003379 -0.043607 0.004117 -0.022479 -0.054610 -0.034254 -0.032017 -0.042397 0.003486 -0.027822 0.011766 -0.005400 0.001459 -0.012327 -0.013570 -0.026452 0.010596 -0.004191 -0.041776 -0.043577 -0.037443 -0.009478 0.001280 0.009755 0.023764 0.017344 -0.002926 -0.020896 -0.056401 -0.005523 0.023160 0.020350 -0.020731 -0.009677 -0.044793 -0.043591 0.066956 -0.066125 -0.003595 -0.012784 0.007904 0.043290 0.054812 -0.013687 -0.091185 -0.072873 0.003142 -0.028594 0.013580 0.021348 -0.041500 0.009204 -0.018491 -0.001886 -0.035748 0.007496 -0.013973 -0.004618 0.006163 -0.030649 -0.012840 -0.070315 -0.069611 -0.010010 0.083327 0.008254 0.005860 -0.079047 -0.003992 0.023016 -0.070195 -0.005929 -0.052512 0.031609 -0.009412 0.011842 -0.010378 0.012219 0.021466 -0.021057 0.001821 -0.021480 0.060866 -0.020960 -0.034152 -0.053299 0.051976 -0.025275 -0.009047 0.004396 -0.051541 0.023856 -0.036890 -0.009678 0.008791 -0.013569 -0.040819 0.003631 0.013543 -0.006920 -0.038651 0.031780 -0.005515 -0.014210 -0.016670 -0.002562 -0.041685 -0.019015 -0.040621 -0.026519 -0.016444 -0.017691 0.021062 0.127036 0.006287 0.039794 -0.014512 0.044408 0.016662 0.016800 0.006751 0.018472 0.033608 0.013605 0.042399 -0.012861 -0.043085 0.036198 0.019965 0.052082 -0.016444 -0.081127 0.010227 0.006047 -0.026273 0.021020 -0.002155 -0.016468 -0.002444 -0.063567 0.002982 0.015622 -0.031773 0.077076 0.026430 0.032728 0.079150 -0.041917 0.006030 -0.036417 -0.003161 -0.012047 -0.048488 -0.006468 0.059689 -0.027544 -0.046300 0.041865 0.020010 0.026302 0.009499 -0.008182 -0.008686 -0.035958 -0.026598 -0.021676 0.009458 -0.041064 0.015644 0.006244 -0.085830 -0.037263 0.011141 -0.014337 -0.075469 0.075020 0.042725 0.024420 -0.024210 -0.002222 0.009705 -0.007397 0.014130 0.063069 -0.063867 -0.031553 -0.054780 0.021160 0.037832 -0.000315 0.020938 0.009451 0.037555 0.025528 0.033445 0.052543 -0.006403 0.018357 0.078191 -0.008704 0.017939 -0.019583 0.046148 0.043849 0.036696 -0.027162 0.011729 0.042517 0.013607 -0.072446 0.030659 0.019231 -0.029266 0.020284 -0.037603 0.034057 0.001791 -0.029881 -0.037149 0.023830 0.009933 -0.023035 0.080341 0.034330 -0.009938 0.006665 0.006308 -0.039462 -0.032208 0.019226 -0.038671 0.032214 -0.016417 0.050954 0.049350 -0.030269 0.016599 0.043644 -0.074275 -0.023870 0.071318 0.015698 -0.013986 0.035646 0.002186 0.001017 0.002485 0.070936 -0.063382 -0.000712 -0.058093 0.021284 -0.048140 -0.017058 0.022379 -0.016772 -0.055887 -0.059392 0.042565 0.013931 -0.025386 -0.086895 0.056985 0.018270 0.017340 0.004199 0.053346 0.064486 0.027133 -0.018716 0.034578 0.034920 0.022923 -0.023514 -0.027776 0.014303 -0.017917 0.051957 0.001271 0.005619 0.000326 -0.042301 -0.016027 -0.053147 0.082507 0.065884 0.004653 0.018024 -0.021977 0.013410 -0.012440 0.011739 -0.017885 0.036503 0.020862 0.048263 0.025925 0.074122 0.031371 0.044608
appalling 0.005699 -0.003348 0.043958 -0.035582 0.045948 -0.050018 0.046384 0.025184 0.005454 -0.003533 0.050604 0.049539 -0.018213 -0.026651 0.036680 -0.026898 -0.076521 -0.027752 -0.024662 0.051372 0.039748 0.070404 -0.033835 -0.015428 0.034014 -0.042656 -0.003961 0.008021 -0.054106 -0.013371 0.050103 0.017929 -0.025404 -0.015476 0.029723 -0.019896 -0.009312 -0.018104 -0.021498 -0.033281 0.019829 0.007258 -0.017926 0.007400 0.000543 -0.004874 0.012356 0.005605 -0.012716 0.083029 0.042285 0.004769 0.032506 -0.075348 -0.001035 -0.005123 -0.012555 -0.024902 0.034212 0.022905 0.017326 -0.035430 -0.014792 0.024508 -0.033813 0.052021 -0.048052 0.040368 0.006974 -0.005802 0.060831 0.004858 -0.006793 -0.003138 -0.007447 -0.034320 -0.021039 0.014177 0.007795 -0.006906 0.047382 0.043894 0.000697 -0.004091 0.008290 0.008686 -0.002662 0.035309 -0.011936 0.098213 -0.019461 -0.082676 -0.014769 -0.067517 -0.059801 -0.006786 -0.031297 0.016499 -0.031190 -0.065367 -0.002991 0.001623 -0.039069 0.038651 -0.012011 0.066359 -0.051259 -0.023019 -0.088844 -0.059570 0.011979 0.001764 0.016419 0.049767 -0.048011 -0.053409 -0.012789 0.017113 -0.066823 0.009483 0.115314 0.078505 0.013574 -0.031812 0.044596 0.001105 0.017074 -0.041322 -0.000732 0.011688 0.002385 0.089387 -0.009057 -0.020503 -0.024633 -0.024246 -0.034954 -0.016751 0.042066 0.022334 -0.022197 0.019519 -0.034622 0.005133 -0.053025 0.000925 -0.016802 0.039896 -0.011190 0.014108 0.076990 -0.001720 -0.069172 0.015697 -0.000747 0.040595 0.126884 -0.009047 -0.003024 0.014089 -0.001566 -0.021538 0.039110 0.081133 -0.027231 0.014914 -0.035335 -0.013026 0.000661 -0.043301 0.059011 -0.045344 0.005671 -0.025976 -0.051957 0.034671 0.030887 -0.027174 0.025279 -0.003149 -0.040014 -0.072447 0.048149 0.048281 -0.013315 0.024224 0.037233 0.088383 0.031751 0.008088 0.049839 0.036810 -0.054649 -0.046189 -0.005497 0.025928 0.015767 0.002017 0.034654 0.000482 -0.039214 -0.054789 0.046910 -0.029621 0.050152 -0.036253 0.054102 0.030598 -0.028895 0.011565 -0.022312 -0.061373 0.040062 0.011991 0.008422 -0.079022 -0.002346 0.043595 -0.001715 -0.077520 0.013383 0.042083 0.071849 0.037128 -0.046818 0.010494 -0.020098 0.008499 0.029885 -0.016189 -0.006060 -0.041790 -0.028910 -0.006179 -0.020850 0.000943 -0.013847 -0.030665 0.003412 0.007762 -0.068432 0.044756 0.005148 0.050928 -0.047281 0.090026 -0.007448 -0.017763 -0.021689 -0.012342 0.013179 -0.015776 0.025569 -0.052133 -0.025384 -0.026096 0.006820 0.006312 0.030931 0.056607 -0.039869 0.054677 -0.003950 -0.036198 0.050772 0.031668 0.036036 0.015237 0.039804 -0.007158 -0.002543 0.043864 -0.033581 0.008323 -0.043727 -0.010890 0.049148 -0.028910 -0.003284 0.007667 -0.039722 -0.020763 0.045461 -0.116925 -0.042735 -0.022833 -0.032964 -0.025285 -0.045781 -0.021340 0.059796 -0.017477 -0.000231 0.002793 -0.074583 0.021569 0.013779 0.048868 0.010925 -0.006562 0.084881 0.010836 -0.009515 0.021975 0.095943 0.047397 0.028715 0.007797 -0.031560 0.040331 -0.007342 -0.024174 -0.021350 -0.020674 0.012392 0.042115 -0.055786 0.009161 0.019731 0.000134 0.021168 -0.060770 -0.000359 -0.010592 -0.034588 0.036595 -0.013215 0.022894 0.016381 0.026159 -0.036757 0.030392 -0.060252 0.007544 0.084285 -0.038047 -0.025767 -0.028876 0.061829 0.011193 -0.027497 -0.027469 0.035394 0.000631 0.021402 -0.020146 0.001652 0.027271 -0.016106 0.008235 0.026700 0.020059 -0.023368 -0.033769 -0.045640 0.002604 -0.019119 0.067397 -0.027748 0.017531 0.059554 -0.010188 -0.000128 0.033382 -0.023146 -0.048006 -0.014556 -0.042501 0.009500 -0.002956 0.001845 -0.020852 0.011526 0.050010 -0.024752 -0.022372 -0.020354 -0.012215 0.000797 0.009636 -0.008350 -0.023567 0.050698 -0.008007 -0.049986 0.023265 0.050803 0.038373 -0.057731 0.030300 -0.091268 0.002814 0.055902 -0.005834 0.011118 0.008183 0.034051 -0.013652 0.012137 -0.014219 -0.004715 -0.022853 0.011821 0.022954 0.021558 -0.010486 -0.019843 -0.043856 -0.043141 0.028449 0.038613 0.028967 0.013392 0.042042 0.040592 0.063396 -0.006765 0.005031 -0.007876 -0.021575 -0.012369 0.005930 -0.006796 -0.033685 -0.023466 -0.004759 -0.030849 0.043395 -0.006448 0.033307 0.050757 0.043268 0.002262 -0.023592 0.022177 -0.003841 -0.005628 -0.039631 -0.016253 -0.003974 -0.008428 0.044781 -0.024002 0.000180 0.067535 -0.051078 0.015787 -0.018682 0.026511 0.015537 0.001246 -0.028644 -0.029581 0.010885 0.018961 0.010798 0.039058 -0.001878 0.005104 0.011321 -0.057978 0.018443 -0.019869 0.074516 -0.035991 0.055197 -0.013233 0.055138 -0.015687 0.010207 -0.004298 -0.021359 -0.019006 -0.034847 0.061816 0.005785 0.045724 -0.015440 0.038767 0.022409 0.054163 0.004203 -0.053137 0.023886 0.038422 0.048947 0.032289 0.032461 0.064928 0.088354 0.015524 0.011426 -0.040489 -0.080907 -0.036524 -0.006277 0.031058 -0.095341 -0.018550 0.001117 0.062462 -0.032247 0.000767 -0.038282 -0.049450 0.011063 0.057229 0.008694 0.000307 0.030350 -0.056497 -0.002217 0.050408 0.012541 0.039425 -0.022280 -0.015100 0.026806 0.038018 -0.022458 -0.038593 0.027342 -0.027286 0.064288 0.010123 -0.033424 0.020781 -0.000580 0.017713 -0.045680 -0.026688 -0.010405 0.041697 -0.029505 -0.035845 0.069408 -0.032225 -0.088817 -0.030940 0.006938 -0.031175 0.006444 -0.033325 0.032072 0.008834 0.001492 -0.013269 -0.026774 0.020879 -0.040091 -0.044237 0.037031 0.060415 0.015887 0.018641 -0.015211 0.010918 -0.063066 0.028297 -0.010064 -0.050881 0.010339 -0.034770 0.025037 -0.004635 -0.005833 0.054640 -0.051671 -0.028506 -0.009319 0.007756 0.040470 -0.037659 0.029484 -0.033284 -0.054239 -0.020109 -0.055494 -0.014271 -0.036354 0.041010 0.010779 0.018783 -0.035899 0.044867 0.013636 0.004559 0.008992 0.036654 -0.023738 0.030393 -0.063084 -0.018752 0.035950 -0.023875 -0.017637 -0.005905 -0.055345 -0.003547 0.025412 0.069906 0.009105 0.023616 0.011736 0.027976 0.004415 -0.011327 -0.024523 0.061139 0.046301 -0.022964 0.008672 -0.004551 -0.018519 -0.030815 -0.004474 -0.013754 -0.014821 0.078612 0.007416 -0.062937 -0.041179 -0.006455 -0.009953 0.064932 -0.044212 -0.026179 -0.051404 -0.047570 -0.025599 0.100835 -0.018676 0.020698 -0.016709 0.022740 -0.009226 -0.002687 -0.019640 0.010330 0.020016 0.050918 0.013240 -0.046497 0.054081 0.015882 0.008276 -0.063698 -0.010489 0.026920 0.024391 0.037101 0.059003 -0.013638 -0.012239 0.048535 0.010325 -0.050721 -0.051256 0.081392 -0.026458 0.009090 0.050521 -0.049486 0.016792 -0.035533 0.018340 0.035190 0.023307 0.019578 -0.018728 0.025699 0.028285 -0.034672 -0.009444 0.080597 -0.001668 -0.044387 0.046598 0.001715 0.041155 0.011359 -0.043208 -0.002869 0.024754 -0.002993 0.004978 -0.010250 -0.009566 0.032409 0.005662 0.023569 -0.010410 -0.024462 -0.062981 0.034575 0.099490 -0.042036 -0.000245 0.037546 0.020524 -0.001401 -0.006746 0.038541 -0.043719 -0.004168 0.067614 -0.000848 0.009146 -0.010210 0.015361 0.009346 -0.002130 -0.039273 0.043580 -0.043584 -0.020522 -0.034009 0.054923 0.005898 -0.065464 0.039935 -0.073805 -0.003479 -0.035147 -0.007716 -0.008307 -0.009859 -0.021562 -0.030825 -0.005088 0.019796 -0.004409 0.035615 0.017230 -0.009530 -0.038579 -0.017912 0.063456 -0.060803 0.069787 0.020819 0.000055 -0.019409 0.011996 -0.035317 0.033759 -0.031182 0.008056 0.012599 -0.038009 0.033438 -0.036177 -0.009507 -0.038322 -0.009453 0.033094 -0.026881 0.034300 -0.084839 0.018402 0.030038 0.028699 0.010443 0.050483 0.024837 -0.007349 0.048837 -0.062835
awesome 0.013679 -0.009597 -0.015524 0.034477 -0.019535 -0.039573 -0.062588 0.056073 -0.054490 0.025934 -0.017445 -0.012082 0.055822 -0.021285 -0.001552 -0.051119 -0.020059 0.034222 0.008404 -0.027793 0.051735 0.054087 0.024772 0.016052 0.063853 0.014977 -0.018249 -0.008765 -0.013033 -0.019656 0.053771 0.024834 0.057752 0.009413 0.038437 0.038816 0.039708 0.041416 0.073047 0.000079 0.001775 0.002841 -0.053933 0.026123 0.089575 -0.004352 0.024778 0.018424 -0.034710 0.063498 0.029605 -0.037771 -0.032547 -0.055765 0.048759 -0.011112 -0.052670 0.009073 0.041639 -0.028676 0.024908 -0.050910 0.042604 0.006980 -0.002637 0.075021 0.006287 -0.004186 -0.006363 -0.064837 0.007851 0.044067 0.038506 0.035551 -0.035499 0.028703 0.018982 -0.009723 0.105638 -0.038896 -0.002643 0.017311 0.043740 -0.016555 0.034043 0.010754 -0.034881 0.006197 -0.009641 0.060772 -0.062923 0.025207 0.051860 -0.000932 -0.040830 -0.005818 0.028940 0.046870 0.034285 -0.080358 -0.004549 -0.015150 -0.009797 -0.019917 0.046938 -0.068281 0.016848 -0.028141 0.001108 0.017980 -0.045704 0.010845 -0.021910 0.016367 -0.013856 0.001855 -0.064605 -0.004418 0.024010 -0.044083 -0.051276 -0.059409 0.020183 -0.018762 -0.007259 0.008668 -0.031700 -0.020726 -0.007161 0.022801 0.048587 -0.037212 0.041734 -0.030674 0.009372 -0.006137 -0.001258 -0.062269 -0.036655 -0.006954 0.025031 -0.006771 0.073032 -0.002785 -0.021575 -0.077011 -0.034417 0.068405 0.010826 -0.015787 -0.000121 0.005476 0.061049 -0.000695 -0.003635 -0.026720 0.049257 -0.012945 0.035011 0.005978 -0.009397 0.022242 -0.038072 0.012881 0.053025 0.022909 -0.074419 -0.011412 0.029346 -0.040175 0.041153 0.005917 -0.008475 0.004881 0.011194 0.091773 -0.027899 0.013177 0.017930 0.055739 -0.038125 0.090285 0.005611 -0.039186 0.012935 0.030518 0.024505 -0.031814 -0.030868 0.039944 0.012548 -0.015811 0.043180 -0.016018 -0.000959 -0.033680 0.034787 -0.045601 0.021759 -0.025101 -0.024957 0.029399 0.018608 0.015706 -0.041615 0.050659 -0.083789 -0.017440 0.016392 -0.010186 0.041414 0.027386 0.010447 0.088513 0.020519 0.007440 0.048916 -0.031431 0.012574 -0.018191 0.046188 -0.058724 -0.100705 0.015553 -0.003948 0.050556 0.000356 0.076099 0.045897 0.079978 -0.006484 -0.024210 0.073489 0.033303 -0.016600 0.043259 0.003797 -0.011211 0.006472 0.033526 -0.012180 -0.019387 0.027470 -0.002009 -0.004184 0.013685 0.016628 0.001306 0.026108 0.002735 0.007472 0.092763 -0.056707 -0.025600 -0.027365 0.034803 0.002011 0.000871 -0.037187 -0.012221 0.008359 -0.078993 -0.017385 -0.044324 0.016560 0.049478 0.046384 -0.005067 -0.007180 -0.010923 0.042370 0.010336 0.000105 0.052929 0.020741 0.026940 0.007075 0.025585 -0.052769 -0.038301 0.010029 0.012052 -0.010366 0.026892 -0.053208 -0.045396 -0.019353 0.000585 0.043182 0.023261 0.045111 -0.039740 0.006411 -0.012398 -0.051142 -0.040059 -0.021858 0.020699 0.047335 -0.061384 0.021637 -0.004305 -0.028485 0.006069 -0.006349 0.073706 0.003426 0.038288 0.030018 0.006082 -0.005126 -0.008621 -0.020590 0.066298 -0.032193 -0.032969 0.004972 -0.026576 0.059932 0.048570 0.035186 0.043072 0.058441 0.005589 0.023634 0.005368 0.003906 0.017249 -0.009146 0.061227 0.027617 -0.029853 0.031767 0.009256 0.021191 -0.080927 0.002861 0.045088 0.005544 0.007608 -0.049798 -0.046246 0.018288 -0.023302 -0.020353 -0.016660 -0.028816 -0.016136 0.048495 0.062303 -0.017934 0.051002 -0.023827 -0.030895 0.012526 0.057340 0.004169 -0.035446 0.057368 0.069364 -0.025555 0.049526 -0.003691 -0.045912 0.026709 0.002937 0.011849 0.014728 -0.015164 0.020575 -0.003450 -0.057706 -0.016669 -0.017042 -0.071259 0.073112 0.016504 0.027965 0.011162 -0.049000 -0.002366 -0.053293 0.004333 0.026514 -0.035926 -0.049578 -0.029580 0.023775 0.023606 0.025077 -0.012288 0.015783 0.050887 0.008582 0.025757 -0.014351 0.019916 -0.045223 0.019569 -0.039386 -0.029016 -0.028908 -0.058608 0.010659 0.062414 -0.003201 -0.000140 -0.018558 0.036848 -0.053246 0.031981 -0.046413 0.028904 -0.021910 -0.038108 -0.018523 -0.030484 0.015181 -0.030128 -0.048227 -0.023798 0.000330 0.011362 0.009688 -0.031503 -0.000769 -0.008805 -0.028491 -0.034550 0.050522 -0.013210 -0.032331 -0.022824 0.014378 0.048442 -0.013905 0.006462 0.055738 -0.028403 -0.015943 -0.016115 0.037715 0.014225 -0.003422 -0.017681 0.048722 -0.091871 0.011750 -0.045852 0.009887 0.029968 -0.035087 0.052077 0.005864 0.023513 0.040287 -0.046570 0.023859 0.006516 -0.023187 0.046795 -0.048813 0.005666 -0.033634 0.012126 0.016409 0.000865 0.027684 0.034765 -0.013813 0.014581 -0.012867 0.056118 -0.013059 0.033623 -0.014258 -0.046814 0.013768 -0.047692 0.039983 -0.022700 -0.005848 -0.027582 -0.020649 -0.004748 -0.020477 -0.021413 -0.006612 -0.056256 -0.009055 -0.028414 -0.035862 0.014224 -0.005830 0.021704 -0.037216 0.048965 0.011867 0.073594 0.017701 -0.024476 -0.038843 0.035685 0.065143 -0.022182 0.018873 -0.052385 0.006308 0.049982 0.029700 -0.057282 -0.034607 0.027289 0.073427 0.005698 -0.037856 0.010786 -0.040767 -0.078358 -0.050292 0.001919 -0.061115 -0.007199 0.104992 0.027479 0.019394 0.034833 -0.016368 0.031493 -0.052171 -0.004077 0.010856 0.018269 0.010063 -0.026748 0.071390 0.033179 0.003877 -0.035269 0.012218 0.038291 -0.069494 -0.012002 -0.019108 0.038283 0.050353 -0.024564 0.053953 0.013207 0.041759 -0.058290 0.017555 0.016186 0.031534 -0.026191 0.025794 -0.017891 0.005929 0.029766 0.058126 -0.029617 0.015597 0.051808 0.011568 -0.029928 0.021774 0.051133 -0.013012 0.027437 0.001627 -0.045622 0.034453 0.006302 0.009779 0.005198 0.040799 0.044491 -0.057714 -0.052024 -0.027106 -0.010375 -0.021626 -0.021448 -0.006436 0.058073 0.056928 0.000146 -0.047403 0.053239 0.034424 0.045639 -0.025418 0.055596 -0.039390 0.038485 -0.064253 0.005323 0.008603 0.020062 -0.047753 0.031442 0.037511 0.014545 -0.012427 -0.014827 -0.038669 0.034809 -0.024499 0.013049 -0.079453 -0.037908 -0.027382 -0.015615 0.050463 0.024551 -0.043469 -0.031109 0.035475 0.044698 -0.019674 -0.046197 -0.019582 0.005748 0.042357 -0.023255 0.049454 0.017801 -0.021780 -0.005449 -0.070472 -0.019781 -0.007102 -0.034022 0.035793 0.026819 -0.072529 -0.050283 0.017496 -0.060893 0.023298 0.019155 0.032015 0.008073 -0.019256 -0.011282 -0.036287 -0.023201 -0.039970 -0.033898 0.049447 0.017930 -0.028818 -0.021939 -0.031242 -0.013423 -0.062842 0.016147 0.036686 0.059370 -0.000318 -0.021776 -0.083673 -0.017783 0.064513 -0.056646 0.013361 -0.000075 0.019904 0.014864 0.032146 -0.016761 -0.032004 0.005626 -0.078060 -0.012588 -0.005353 0.013528 0.061518 0.025544 -0.013250 0.014427 -0.004049 -0.038708 0.052622 0.025482 -0.061067 0.032416 0.081888 -0.020830 -0.023614 -0.061380 -0.035732 0.004255 -0.021199 0.013801 -0.013059 0.011049 0.008960 -0.010506 -0.019135 0.024336 -0.021616 -0.017768 0.053543 0.050887 0.059269 0.024581 0.053014 -0.064153 0.070836 -0.002059 0.018909 -0.017483 0.043595 0.006440 -0.011558 -0.015464 0.026546 -0.025605 0.034222 0.003242 -0.024872 0.024852 0.076382 -0.069853 0.011324 0.011223 -0.069712 0.012630 -0.082805 -0.019509 -0.058039 0.039243 0.047388 -0.038708 0.045041 0.012332 -0.050418 0.011036 -0.012442 -0.019136 -0.005536 -0.005991 0.041513 -0.049573 0.006482 0.006566 -0.038287 0.009827 0.000537 -0.010825 0.001658 0.022835 -0.038481 0.013525 0.003334 -0.000064 -0.038293 0.034542 -0.034877 0.013645 -0.104781 -0.015161 -0.000481 0.030870 0.007620 -0.039236 -0.029132
awful 0.008545 -0.045960 -0.011967 0.027381 0.029972 -0.004355 0.044644 -0.011419 -0.052639 -0.034152 -0.036778 -0.085179 -0.077314 -0.053141 -0.030946 0.006204 -0.019868 0.069722 -0.006347 0.026134 0.004236 -0.012184 -0.030766 0.002634 0.033732 0.044425 0.050464 -0.011066 -0.007162 -0.039395 0.036891 0.033603 0.011213 0.035269 -0.016504 -0.022415 -0.014356 0.008368 0.029679 0.046683 -0.040292 -0.030843 -0.014076 0.010191 0.006858 -0.050783 -0.021807 0.020553 0.053274 -0.023049 -0.016250 0.092406 -0.037743 0.092391 -0.037986 0.021107 -0.018256 0.007712 0.051104 -0.018953 -0.012010 -0.013683 -0.021732 0.014652 0.019542 -0.062448 0.013814 0.047183 -0.009109 0.038190 0.023400 -0.012291 0.025454 0.015829 -0.000521 -0.022638 0.001115 0.014697 -0.011417 -0.016139 0.057821 0.011869 -0.016358 0.036153 0.014973 -0.003484 -0.041519 -0.019305 -0.010501 0.055750 -0.007344 0.020283 0.045883 -0.008159 -0.045997 0.005612 -0.057917 -0.053730 -0.005679 -0.039401 -0.028135 0.002629 0.054764 -0.010128 -0.050251 0.054236 0.023919 0.032325 -0.052330 0.039178 -0.009975 -0.021955 0.040965 -0.003811 0.022274 -0.050271 0.057844 0.024237 0.008200 0.025474 0.040564 -0.002831 -0.022384 0.015177 -0.025322 -0.040827 0.003539 -0.053970 0.058167 0.064616 0.056862 0.031962 0.023636 0.041022 -0.008738 -0.014703 -0.000742 -0.034125 -0.069456 -0.028741 0.040663 -0.025987 0.034499 -0.002746 0.019789 -0.027478 0.029908 -0.005703 0.008157 -0.012296 0.071872 -0.001213 -0.023281 -0.058649 -0.051253 0.005542 0.001615 -0.003147 -0.004084 -0.006232 -0.029072 0.048503 0.029474 -0.040112 0.019098 -0.038863 0.013167 -0.035706 -0.001495 0.001479 -0.002748 0.061123 0.032174 0.015821 -0.006723 0.020142 -0.037330 -0.022038 -0.025258 0.105071 -0.020682 -0.036125 -0.037652 -0.036040 -0.034093 0.018821 -0.044450 0.004444 -0.035074 -0.016550 -0.008960 0.016862 -0.008719 -0.006268 -0.019435 -0.014833 0.020760 0.061333 0.035496 0.066446 0.006146 -0.068664 0.007742 -0.066855 -0.023128 0.026832 -0.017468 -0.113203 -0.018531 0.081551 -0.050156 -0.053499 -0.014546 0.039007 -0.012482 -0.013206 -0.011109 -0.005727 -0.041194 0.054204 -0.007604 -0.040153 -0.051180 -0.002560 0.066869 0.007393 0.019053 -0.021363 0.008941 -0.002658 0.001706 -0.060580 -0.005166 -0.009511 -0.007569 0.022350 0.004955 -0.033362 0.022660 -0.068447 -0.005201 0.018812 0.038965 0.043436 -0.023667 0.011526 -0.062877 0.071520 -0.064800 -0.017891 -0.018936 -0.040013 -0.060652 0.040232 -0.026753 0.038298 0.050815 0.001222 0.064205 0.021624 -0.033226 -0.018309 0.029183 -0.015534 -0.022130 -0.067549 0.017039 0.045608 -0.011829 -0.013390 0.014143 0.034183 0.031155 -0.031993 0.049562 -0.074812 0.027403 0.002345 -0.000218 -0.019476 0.036129 0.078780 -0.007983 -0.012712 0.017635 -0.024031 0.045994 0.028796 0.022004 -0.015773 0.056304 0.003771 0.014719 -0.041285 0.012501 -0.061330 0.025406 0.024251 -0.037562 -0.010027 0.059072 0.015151 0.004619 -0.057072 -0.013513 -0.047604 -0.026310 -0.011201 -0.075699 -0.007475 0.005643 0.019040 -0.016690 0.019103 -0.024510 -0.086528 -0.019725 -0.012159 -0.028029 -0.026645 -0.029569 0.041520 0.002958 0.054928 -0.014636 0.020813 0.032816 0.029225 -0.017715 -0.063129 0.038089 -0.054651 0.037673 -0.020130 -0.050720 -0.006618 0.041998 -0.019373 -0.027345 -0.028978 0.022507 0.031027 -0.016424 0.035497 0.008523 -0.038346 -0.022369 -0.035555 0.069492 -0.010020 0.036861 -0.016772 0.048211 0.064730 0.018799 -0.002390 -0.042107 -0.016598 -0.000323 -0.010889 -0.017906 0.063113 0.061295 -0.025547 -0.014969 0.007950 -0.019696 -0.060144 0.001760 -0.030650 0.081963 -0.002247 0.012265 0.024228 0.032292 -0.006733 -0.063676 -0.029137 -0.014878 -0.065997 0.024475 -0.029458 0.027984 0.012156 0.029970 -0.004207 -0.005630 -0.010834 0.045046 0.030578 0.033229 -0.000962 0.015560 -0.063335 -0.058399 -0.019141 0.011042 -0.075930 -0.021498 -0.002927 -0.008170 -0.047039 0.011119 0.019100 0.032016 0.029528 0.055228 -0.072134 0.067247 0.055001 0.057782 0.029479 0.033213 0.019957 0.000536 -0.001510 0.031626 -0.066099 0.033208 -0.057684 -0.001373 -0.032647 -0.005418 -0.016325 -0.008204 0.040067 0.054247 0.010226 0.012491 0.008623 -0.059093 0.000505 0.073737 0.034598 0.056351 -0.010172 0.000717 -0.004078 0.065793 0.010597 0.033198 -0.020535 0.016131 0.063075 0.026280 -0.025457 0.014747 -0.026889 -0.058493 0.028428 0.011913 0.006681 -0.008650 0.013997 0.079664 -0.016131 -0.024030 -0.010055 -0.116482 -0.006522 0.015604 -0.010124 0.034532 0.074328 0.012638 0.033050 -0.037630 -0.028381 -0.034056 -0.023173 -0.030057 -0.020185 0.048527 0.008449 0.010580 0.043390 -0.006079 0.004192 -0.056222 0.028544 -0.069662 0.045185 -0.018743 0.027225 -0.060420 0.057030 -0.049408 -0.053028 -0.011422 -0.030707 0.043171 0.038179 -0.002969 -0.026294 0.025721 0.002060 0.027780 -0.002153 0.009874 -0.014757 0.008001 -0.047483 0.067347 0.042618 0.087560 -0.013939 -0.050555 -0.036599 0.053341 0.025083 0.003169 0.066938 0.005418 0.046294 0.018247 -0.000976 0.018943 0.026013 0.023103 -0.089059 0.010871 0.052577 0.027642 -0.022152 0.005922 0.012323 -0.032176 -0.030956 0.055204 -0.023781 0.024527 0.063134 -0.036036 -0.026734 0.049064 -0.028244 -0.011916 -0.060778 0.075320 -0.018882 0.069946 -0.021901 0.001637 -0.023737 0.015781 -0.048400 0.032477 -0.056110 -0.022292 0.013698 0.036819 0.022039 0.040909 -0.015802 0.022080 -0.009700 0.012302 -0.001915 0.017657 -0.068654 0.006886 -0.039442 0.050063 0.046275 -0.037083 0.034906 -0.006278 0.017735 0.051812 -0.023414 0.025982 -0.022524 -0.003951 -0.020882 -0.025339 0.048102 -0.028814 0.001556 -0.023067 0.040683 -0.035235 0.045876 -0.016888 0.024648 0.029997 0.048675 0.064593 0.005005 -0.041327 0.058958 0.048133 0.021560 0.044039 -0.003486 0.000816 0.088140 0.049092 -0.018869 -0.002159 0.031128 -0.038230 -0.045044 -0.046568 0.039613 0.031717 -0.039020 -0.056435 -0.006561 0.026854 0.041706 0.058281 0.049639 -0.034343 0.042120 0.003878 0.075062 0.022867 0.017711 0.036045 -0.000206 -0.032823 -0.023757 -0.062838 -0.001652 -0.021630 0.034578 -0.042883 -0.010196 0.026801 0.047512 -0.013822 -0.039011 -0.047702 -0.037418 0.001985 0.016221 -0.013434 -0.032611 0.073724 0.008189 0.001695 0.027329 0.025006 -0.049899 0.037433 -0.017001 -0.083144 -0.027748 0.030679 -0.023959 0.001793 -0.022759 0.017344 0.009567 -0.010108 -0.035230 0.003296 0.066348 -0.000308 0.038903 -0.034588 0.014993 -0.036712 0.028569 -0.025269 -0.032635 0.075287 -0.011440 -0.015556 -0.039807 -0.012418 0.098659 0.012863 0.031517 -0.038113 -0.007207 -0.007209 0.036633 0.004408 0.050066 -0.003938 -0.028079 0.027030 -0.000039 0.019117 -0.018807 -0.003772 -0.002749 0.102860 -0.035124 0.046925 -0.009378 0.022377 0.032643 0.033207 -0.038056 -0.014871 0.030448 0.017382 0.005035 0.053209 -0.053967 -0.031628 -0.038726 0.041757 0.019887 0.023858 -0.020346 -0.002768 -0.051587 0.001495 0.008870 0.007006 -0.004952 0.032322 -0.020807 0.022902 -0.030300 -0.075429 -0.040170 -0.026308 0.003191 0.005565 0.010032 0.040765 0.038537 0.011866 0.052526 0.047847 -0.018635 0.001434 -0.011984 0.022038 0.028491 0.020332 0.005892 -0.064674 0.018939 0.019533 -0.058856 0.021842 0.021069 0.019433 -0.026012 -0.015595 0.064157 -0.047805 0.006253 0.055263 -0.053081 -0.008774 -0.020706 0.009670 0.013787 -0.025709 -0.008275 -0.007846 0.006617 0.033898 -0.018135 -0.036648 0.013457 0.001486 0.020508 -0.010113 -0.011021 0.055813 -0.006639
bad 0.010269 -0.034488 -0.003248 0.038224 -0.026406 -0.057260 0.044800 0.047885 0.014938 -0.006846 -0.029161 -0.093426 -0.051578 -0.017258 0.023109 0.040275 -0.014527 0.029344 -0.003979 0.034109 0.017839 -0.038173 0.001376 0.026547 0.029504 0.039161 -0.034205 0.030843 0.027992 -0.029606 0.033739 0.005018 0.009249 -0.003451 0.018778 -0.003584 -0.014136 0.016436 0.059796 -0.033951 0.031513 -0.020134 0.007031 -0.069936 0.006598 0.004146 -0.029928 0.004477 -0.018437 0.007437 0.067202 -0.013883 -0.030793 0.052328 0.005411 -0.067645 -0.053566 -0.014731 0.000558 0.027478 -0.069070 0.008282 0.004559 -0.008781 0.011114 0.062090 -0.000145 -0.044540 0.018633 0.050650 -0.055023 -0.049847 -0.060822 -0.056938 -0.020806 -0.038589 0.005175 -0.026285 0.026596 -0.071096 -0.009634 -0.010806 -0.008907 -0.015826 0.054704 -0.016306 -0.051554 0.035786 0.056080 0.003893 -0.039846 0.035926 -0.008503 0.046816 -0.001945 0.018436 -0.017805 -0.024935 -0.028117 0.049038 0.038280 0.015893 0.000181 -0.029570 0.053804 0.027376 0.035916 0.025140 0.031155 -0.066252 0.012166 0.039810 0.032621 0.033385 0.064903 0.090478 -0.063705 0.017825 0.044822 -0.023181 0.030431 0.004303 0.040187 0.009962 -0.023461 -0.013102 -0.025882 -0.014307 -0.023345 0.082848 -0.037024 -0.044464 -0.073058 -0.006854 0.009848 0.027677 0.019861 0.021520 0.034848 -0.020619 0.009159 -0.021497 0.018440 -0.048212 -0.000410 -0.048812 0.014038 -0.070429 0.024644 -0.040738 0.003322 -0.020592 0.012888 0.018754 0.058394 0.013044 0.056370 -0.003580 -0.002200 -0.025219 0.004655 0.047639 -0.023802 0.057578 -0.012408 0.040325 -0.059372 0.019552 0.055808 0.003309 0.037058 0.001275 -0.061643 0.018794 -0.010483 0.035491 -0.004677 0.023110 -0.002489 0.060436 -0.009642 -0.066913 0.006791 0.017217 0.015984 -0.041802 -0.048051 -0.000967 0.046072 -0.024919 0.006414 0.023036 -0.017065 0.014489 -0.002977 0.025663 0.053439 -0.065912 -0.009606 -0.040852 0.027311 0.064919 -0.038936 0.077997 0.061023 0.020802 0.005295 0.030834 -0.035003 -0.023529 0.025456 0.041071 -0.009510 0.025857 -0.001305 0.038059 0.055257 0.023298 -0.050418 0.004669 0.037307 0.031718 0.017535 0.045104 -0.057591 -0.013195 -0.009005 -0.026779 -0.069531 -0.005665 0.010223 0.004656 -0.013545 -0.063038 0.013502 -0.023802 0.021170 -0.042206 0.001287 0.049120 -0.013496 0.037034 0.006836 0.005508 0.020047 -0.027656 -0.007011 0.005172 -0.000014 -0.011150 0.022395 -0.016469 0.015454 -0.020703 -0.014056 -0.054678 0.011253 -0.028741 0.004981 0.031574 0.002934 -0.017367 -0.021833 -0.011320 -0.024313 -0.035085 -0.044059 0.008725 0.034922 -0.000934 -0.041845 0.022261 -0.025121 0.061600 0.042354 -0.021124 -0.033324 -0.060805 0.001660 -0.038305 0.003279 -0.023533 -0.026594 0.029600 0.035466 0.015400 -0.063496 0.018020 -0.022481 -0.018008 0.019767 -0.031005 -0.013010 0.050811 -0.021987 -0.016382 0.058315 -0.002748 -0.010052 -0.000947 0.059113 0.022037 0.000014 0.009410 -0.007295 -0.034741 -0.004157 0.063701 0.040115 0.044303 -0.045431 -0.008606 -0.022556 0.066602 -0.040636 -0.024958 0.014138 0.016590 -0.000605 0.029898 -0.020700 -0.005292 0.085795 0.054791 -0.024303 0.057559 0.050953 -0.039000 0.007071 -0.037059 0.013508 0.016471 0.043038 -0.040888 0.010582 0.086533 0.019275 -0.064284 0.020418 0.063857 0.062482 -0.041899 0.037940 0.000074 -0.080131 -0.047625 0.060452 -0.079172 0.014127 -0.040466 0.015213 0.027050 -0.052972 0.020815 0.023623 0.037407 -0.022070 0.032799 0.050146 0.020451 0.060563 -0.031810 -0.017491 0.007463 -0.002324 0.017033 -0.014683 0.058757 0.030408 0.004581 0.047582 0.031282 0.013333 -0.025732 0.054520 -0.025206 0.034349 -0.001055 -0.015164 0.009551 0.022643 -0.015055 -0.032024 -0.044864 -0.044918 -0.047170 -0.000722 0.001307 0.040905 -0.004752 -0.064899 0.063201 -0.033109 -0.031331 -0.060603 0.007586 0.006539 -0.004232 0.004368 -0.015328 0.024868 0.022573 0.042118 -0.039306 0.012958 0.054126 -0.054059 0.044408 -0.027415 -0.029631 -0.029371 -0.077459 0.025319 0.044968 0.064397 -0.051069 0.002874 0.014239 -0.007128 -0.026073 -0.033147 0.005329 -0.018405 0.018828 0.001370 -0.015445 -0.028089 0.106022 0.018458 0.029085 -0.025624 0.066840 -0.046173 -0.002100 -0.006614 0.001548 -0.062893 0.025447 -0.027859 -0.062424 -0.012029 -0.012116 0.021202 -0.045072 0.036287 0.021056 -0.011901 -0.019019 -0.049619 -0.018422 -0.013458 -0.005081 0.023652 -0.006853 0.032833 -0.006065 -0.015471 0.000409 0.044975 -0.025846 -0.019555 -0.015016 0.034148 -0.047075 0.012976 0.007103 -0.000225 -0.006755 0.002443 0.000515 -0.064384 0.032169 0.005073 -0.052204 -0.034428 0.024593 0.009651 0.010386 -0.068271 0.046660 -0.010234 0.003698 -0.030057 -0.054985 -0.016390 0.024658 0.033573 -0.024451 -0.038763 -0.037910 -0.011582 0.013413 0.059234 -0.042787 -0.025854 -0.041150 0.016267 -0.003396 0.031247 -0.041501 -0.015010 -0.003961 -0.031246 0.015976 0.006303 -0.052994 0.019602 -0.021922 -0.051961 -0.006373 -0.067712 0.006832 -0.020035 -0.003248 -0.023867 -0.012054 0.017542 0.015306 -0.030991 0.029271 -0.019828 -0.004597 -0.028854 -0.036711 0.045354 0.031724 -0.065476 0.012697 0.006147 0.081214 0.011051 -0.011860 0.006584 -0.058888 -0.055809 0.129637 0.007793 0.004646 -0.021800 0.040407 -0.026703 -0.050955 0.022443 -0.043397 -0.053412 0.036010 0.016243 0.039175 -0.029125 0.014846 0.052411 -0.006406 0.057938 0.033764 0.023209 -0.063017 0.022942 -0.054175 -0.026637 -0.018946 -0.023632 -0.005530 -0.088537 -0.022558 0.022300 -0.041655 -0.022279 -0.030292 0.017937 -0.013685 -0.004027 -0.004401 -0.027844 -0.053537 -0.033474 -0.047902 -0.042424 -0.056093 -0.004242 -0.013574 -0.032237 0.027915 0.049239 -0.085571 0.011377 -0.036381 0.008350 0.052435 0.001171 -0.000723 0.028146 0.014990 0.001136 0.000284 0.010837 -0.000614 -0.035471 -0.008492 0.058750 -0.023891 0.002114 -0.081473 -0.027419 0.030253 -0.034988 0.006423 -0.081910 0.003078 0.021559 0.007774 0.046807 0.021672 -0.018239 -0.008195 -0.004036 -0.049063 -0.046442 -0.027507 0.026592 0.017372 0.010513 -0.005380 -0.027332 0.064579 -0.009853 -0.071575 -0.004561 0.073323 0.037490 0.083648 -0.005158 -0.051431 -0.014879 -0.036897 0.016541 0.044663 -0.037222 0.017518 -0.034716 0.024707 -0.059620 0.073865 0.064884 0.016889 0.049222 -0.037119 0.017906 0.089692 0.028678 0.054523 -0.019915 -0.009197 -0.025318 0.074681 -0.017227 -0.041391 0.061247 0.047694 0.051312 -0.050957 0.044178 -0.003037 -0.017046 0.014888 -0.001978 0.003759 0.068648 -0.053198 0.068949 -0.012431 0.049376 0.026562 -0.021943 -0.009072 0.055973 -0.063077 -0.030892 -0.059713 -0.016112 0.016809 -0.008116 -0.030499 -0.038815 0.015900 -0.035247 -0.028999 0.016191 -0.056116 -0.028914 0.026236 0.031482 -0.057490 -0.057857 0.010086 -0.004972 -0.027812 0.022694 0.029444 0.051138 0.053428 0.008671 -0.039891 0.061964 -0.022387 -0.007563 -0.060944 -0.020201 0.072983 0.022881 0.031878 0.038722 -0.043650 -0.033239 -0.023876 -0.036335 -0.054103 0.027752 -0.033613 0.020583 0.003977 0.014986 0.000393 -0.031708 -0.021105 0.055756 -0.021040 0.022315 0.006979 -0.015706 -0.005955 0.058169 0.035189 -0.026791 -0.028046 -0.035737 -0.055521 -0.026909 0.032148 -0.046726 0.065091 0.000286 -0.019744 -0.034902 -0.003496 0.027321 0.041796 -0.008533 0.011844 0.023527 0.012768 0.029046 0.008987 -0.016494 0.003028 -0.051951 0.013881 -0.014930 -0.037285 0.005825 -0.066963 -0.009226 0.089685 0.041472 -0.006990 0.001319 -0.004680 0.029337 -0.012383
beautiful 0.007525 -0.005931 0.049216 0.027841 -0.059339 0.076141 0.041688 0.020354 0.012611 0.075099 -0.029175 -0.037966 0.053152 0.060476 0.060647 0.020523 -0.004353 0.044559 0.042149 0.063874 0.018177 0.063975 -0.003671 0.014958 -0.054397 -0.054506 -0.007106 0.006488 0.029176 -0.002169 -0.008198 -0.017692 -0.000046 0.082627 -0.003010 -0.015020 0.032999 0.027588 -0.050684 0.015981 -0.090635 -0.025616 0.024958 -0.064790 0.001601 -0.003288 -0.095860 -0.074816 0.019075 -0.012557 0.010793 -0.070130 0.013765 -0.025224 -0.011302 0.031470 -0.044823 -0.053899 0.039306 0.029469 0.065164 0.047758 0.018106 -0.002514 0.006866 0.039133 -0.002912 0.004716 0.034104 0.024841 -0.000472 0.044223 0.019071 -0.004853 -0.011284 0.026512 0.008944 -0.096613 -0.019965 0.011588 -0.018942 0.045731 -0.021213 -0.015686 -0.007680 -0.043021 0.011871 0.008696 -0.023672 0.032836 0.038501 -0.004445 0.008886 -0.052113 -0.010852 -0.020298 -0.023205 0.038519 -0.000027 0.006996 0.005591 0.056178 -0.066122 0.010198 -0.046187 0.014926 0.002653 -0.014962 0.001363 -0.006961 -0.015934 -0.024879 0.050711 0.056686 -0.020878 0.042913 0.031245 0.025408 0.032545 -0.036993 -0.007390 0.034562 0.032276 0.030373 -0.057148 0.009370 -0.014924 0.045386 -0.005796 -0.032652 -0.012295 0.005354 0.031251 -0.016824 -0.014842 -0.010683 -0.011953 0.012261 -0.042746 -0.063621 0.022687 -0.025530 -0.008845 -0.005452 -0.039408 -0.037034 0.054850 0.003632 -0.002889 0.040227 0.005732 0.024054 0.005730 -0.005801 0.027027 -0.003363 0.027674 0.009198 -0.034925 -0.025258 0.004121 0.007371 0.037689 0.033684 0.029892 0.008067 0.009301 -0.049659 -0.015295 -0.040972 -0.012426 0.050513 0.026354 -0.057902 0.058291 -0.020415 -0.011313 -0.002137 -0.048583 0.032743 -0.004433 0.052826 -0.034020 -0.022426 0.037761 -0.047474 -0.000532 0.020362 0.002550 0.074202 -0.041242 0.006934 -0.007234 -0.000242 -0.047879 0.013004 0.024322 0.031543 -0.019342 -0.013036 0.000677 -0.019146 -0.022735 0.010507 -0.034965 0.015717 0.043413 -0.017132 -0.031328 -0.091136 -0.055989 0.045819 -0.031606 0.022041 -0.039992 0.004232 0.015663 -0.005671 0.041165 0.018019 -0.044219 -0.020280 0.049710 0.030644 -0.010524 0.023756 -0.045090 0.002942 0.011888 0.031655 -0.018901 -0.056049 -0.027608 -0.021295 -0.011641 -0.023212 0.016413 -0.017509 0.072282 -0.021489 0.078755 -0.020191 0.059491 -0.078996 -0.020825 -0.073787 -0.042912 0.077839 -0.043875 -0.032957 -0.014788 0.023844 -0.064403 0.017573 0.035299 -0.000535 0.025957 -0.012467 -0.029240 0.079076 0.002503 0.000383 0.005520 -0.043686 0.013193 0.007121 -0.045027 0.030247 -0.000253 0.026171 0.004933 -0.009509 -0.019076 0.041419 -0.027320 -0.006699 0.009073 0.003031 -0.025013 -0.031501 0.021004 0.030355 0.087627 -0.071095 -0.004794 -0.049740 0.017202 0.003111 -0.011505 -0.040560 -0.026536 -0.034951 -0.036527 -0.013378 0.028123 0.004558 -0.028829 -0.033963 -0.028643 0.020363 0.031169 0.039806 -0.032902 0.001300 -0.010465 0.015193 0.003315 0.079287 0.009057 0.054636 -0.028754 -0.015608 0.051837 -0.003842 -0.021797 0.007472 0.001508 -0.031216 -0.012207 0.021675 -0.046329 -0.036453 0.025711 -0.029996 0.019909 0.039695 0.016944 -0.041815 -0.047604 0.038245 0.072699 -0.068502 0.018277 -0.000690 0.012839 -0.007994 -0.022858 -0.033385 0.006913 -0.032459 -0.019547 -0.039464 0.020996 -0.026981 -0.058803 0.019979 0.000466 -0.061993 0.037627 -0.041285 -0.059269 0.047484 0.010765 -0.008484 -0.009545 0.042284 -0.081111 -0.004174 -0.012919 -0.027003 0.020431 0.007368 -0.003118 -0.012646 -0.072467 -0.008303 -0.066302 -0.010242 0.028694 -0.059430 -0.002269 -0.016840 -0.028517 0.015716 0.029943 -0.002482 0.012130 0.035388 0.018194 0.012876 0.014265 -0.028380 0.058918 0.005120 -0.028114 0.013735 -0.010884 -0.043206 -0.003993 -0.032066 0.035731 0.018632 0.024095 -0.036416 -0.007962 0.069209 -0.033424 0.032706 -0.038958 -0.031312 -0.024706 0.013699 -0.017427 0.017557 0.056229 0.005562 0.035409 -0.029931 0.114923 -0.001000 0.044831 0.000802 0.000028 0.011193 0.000428 0.080675 0.036395 0.051368 0.083659 0.050530 -0.015027 0.033926 0.059115 -0.007872 0.000881 0.047838 -0.001099 0.018862 0.008576 -0.080524 -0.039116 0.024098 0.061488 -0.068406 -0.049741 -0.009975 0.035925 -0.003226 0.004234 0.010709 -0.057189 -0.034433 -0.032837 -0.029741 0.035035 0.030064 -0.003380 -0.006792 0.016310 -0.055001 0.117823 -0.042792 0.000529 0.066943 0.051926 -0.019085 0.022990 0.052375 0.071922 0.010365 -0.033707 -0.004800 -0.012711 0.002331 -0.014033 0.005334 -0.014684 -0.066638 -0.029252 -0.042502 -0.011172 -0.027714 -0.042671 -0.017855 0.031356 -0.001442 -0.006121 0.080226 -0.019597 -0.013840 0.021569 0.035224 0.026394 -0.007509 -0.052364 0.013688 0.000309 0.051134 -0.039605 0.033751 0.002704 0.045116 0.040271 -0.011270 -0.034336 0.033964 0.025344 -0.030623 0.022074 -0.089515 -0.027717 0.009044 0.006611 0.029504 -0.047475 0.022195 -0.024573 -0.012660 0.045215 0.053166 -0.053507 0.081466 -0.027836 0.011528 -0.016972 -0.032122 -0.036517 0.026614 -0.009243 -0.018059 -0.001419 -0.006673 0.034641 -0.028921 0.033072 -0.001568 -0.019949 0.019551 0.005120 -0.021924 -0.047002 -0.000429 0.017043 -0.037076 0.075998 -0.014883 -0.024011 -0.047727 -0.054838 0.003616 0.036000 0.027964 -0.037487 0.002193 -0.067755 0.028522 -0.015548 -0.000369 -0.022429 0.023919 0.004637 0.034857 -0.031152 -0.006370 0.008722 -0.015249 -0.028302 0.004716 -0.012323 0.052996 -0.015234 -0.012507 0.040353 -0.049977 0.000433 -0.002526 -0.073455 0.023843 0.077250 0.004344 0.018324 -0.005139 0.009382 0.025541 0.011075 0.034733 -0.090490 0.024307 -0.037161 0.060915 -0.017801 -0.011635 0.015421 0.007196 -0.009507 0.059960 -0.022339 -0.035126 -0.001813 -0.045012 0.028998 -0.030024 -0.061328 -0.005999 0.042984 -0.006312 0.033692 -0.016818 -0.017978 -0.062149 -0.044313 -0.023753 0.018533 -0.001487 -0.024560 -0.025330 0.064164 -0.033251 -0.081990 0.067376 0.052289 0.027737 0.012407 0.050020 -0.056831 0.046141 -0.099610 -0.026968 -0.025801 0.022884 -0.040917 0.011023 -0.058799 -0.010013 0.002808 -0.010018 -0.038119 -0.020500 -0.041163 0.006995 -0.014352 -0.011282 -0.023235 -0.006299 0.031451 0.053595 -0.032236 0.013693 0.031982 0.016314 0.036226 -0.015678 -0.005416 -0.028631 -0.043565 -0.030751 -0.032076 -0.037385 -0.035651 0.033838 0.021834 -0.012558 -0.071726 -0.013102 0.033073 -0.030715 -0.021995 -0.000982 -0.008098 0.005503 0.065612 -0.015379 0.039854 -0.027769 -0.035466 -0.007952 0.064935 0.053873 -0.009840 -0.019512 -0.043637 -0.049658 0.050502 -0.024972 0.056741 -0.032269 0.033264 0.026721 -0.006074 0.014038 -0.011327 0.027816 -0.002651 0.049586 0.061526 0.032980 -0.053202 0.001374 -0.032814 -0.044034 0.024915 -0.036885 -0.019546 0.025566 0.057855 0.019079 -0.012606 -0.014924 0.019419 0.061289 0.040183 0.020873 0.081793 -0.041728 0.063530 0.057156 0.008976 -0.049368 -0.054372 -0.052062 0.047208 -0.028384 0.015105 0.051288 -0.015899 0.005569 0.060505 0.002246 0.024854 0.017561 0.039947 0.006503 -0.025041 -0.009198 -0.045915 0.027881 -0.040726 -0.045593 0.030570 -0.011498 -0.015505 0.032830 -0.015609 0.032038 0.027940 0.016745 0.021613 0.047279 -0.036705 0.038669 -0.051465 0.007022 -0.047170 0.008861 -0.006339 0.019753 0.060135 0.036246 -0.048030 -0.012660 0.038581 -0.025067 -0.068815 -0.058601 0.029797 -0.014464 0.015093 0.018023 -0.045179 0.048673 0.073888 0.010921 -0.040430 0.000215 0.058043 0.040999 0.061557 0.029570
best 0.000667 0.044330 0.016225 0.011640 -0.061544 0.040254 -0.015513 0.009558 0.009995 0.018699 0.100417 -0.008298 -0.010193 0.034028 0.017323 0.032831 -0.020609 -0.004906 0.046819 -0.002024 -0.009426 0.022163 -0.025842 -0.040441 -0.027170 0.051982 -0.015492 -0.017114 -0.027101 -0.036504 -0.028994 -0.015124 0.025450 -0.005819 -0.028235 -0.071638 0.013970 0.038609 -0.018938 0.006016 -0.017788 -0.009147 0.017854 -0.048527 0.027472 0.010313 0.005913 0.008376 -0.011096 0.054354 0.034015 -0.032345 0.002449 -0.027115 0.033008 0.026373 0.024928 0.090141 0.071032 -0.024624 0.028860 0.029414 -0.020172 -0.019339 0.041018 0.005862 -0.054666 -0.048326 -0.055206 -0.007601 0.069896 0.016976 0.017626 -0.024796 -0.013898 0.026165 0.056323 0.012446 0.008679 -0.065217 0.023547 0.024591 0.005885 0.003169 -0.025360 -0.029954 -0.023741 -0.022319 0.010290 0.063699 0.063658 0.021898 0.025486 0.010387 -0.017513 0.050835 0.016969 0.068258 -0.009521 0.034881 0.061838 -0.053552 0.013054 -0.032071 0.040841 -0.034425 -0.015883 -0.011297 -0.028721 0.078359 0.016542 0.025159 -0.070542 -0.011888 0.015142 -0.066713 0.001835 -0.053986 0.019174 -0.004912 0.024092 0.019119 -0.035879 -0.039066 0.008044 -0.022200 -0.028786 -0.056737 -0.005844 0.026097 0.020940 -0.013698 0.002721 0.007280 0.007088 -0.007819 0.014348 -0.027444 -0.044377 0.020037 -0.040638 0.007093 0.015541 -0.023587 -0.074363 -0.014450 0.086509 0.019443 0.027771 -0.047856 0.004835 -0.051892 -0.021838 -0.013795 -0.054640 -0.001173 0.058342 -0.011265 0.030912 0.010046 -0.073392 0.002065 0.025020 -0.018855 0.020161 -0.040265 -0.009002 0.051627 -0.007677 0.026499 -0.021097 0.038469 -0.021320 0.076993 -0.013678 -0.004452 -0.037527 -0.033933 -0.007720 -0.046907 0.010530 0.018297 0.024394 0.009607 0.016363 0.034320 -0.010774 0.036476 0.006142 0.018876 -0.030034 -0.036491 -0.089737 -0.019036 0.044756 0.031732 0.005269 0.012806 0.006701 0.037114 -0.011154 0.026592 -0.043358 0.086937 -0.031823 0.027007 -0.072689 0.014484 0.015538 -0.050307 -0.054916 -0.011954 -0.047762 -0.007330 0.002125 -0.008657 -0.060967 0.028126 -0.014483 -0.027712 -0.016908 0.017426 -0.054111 -0.027354 0.026884 0.002391 -0.010500 -0.011621 -0.029501 0.031351 0.019412 0.067855 0.000682 -0.034797 -0.004905 -0.067499 0.017277 0.007704 0.053402 -0.010315 0.048811 0.008314 0.013203 -0.029312 0.039723 -0.051474 -0.054744 -0.028091 -0.012084 -0.093053 0.004888 -0.019577 0.027355 0.010148 -0.060295 0.013434 -0.007438 -0.059474 -0.004820 -0.050280 0.062190 -0.044617 -0.023993 -0.003516 -0.050896 0.014283 0.067312 0.026529 -0.008402 -0.001162 -0.059099 0.028993 0.050347 0.041454 -0.011025 -0.004408 -0.011983 -0.012031 -0.057784 -0.027649 -0.047256 -0.023079 -0.023817 -0.002283 0.010636 0.018347 0.006264 -0.034671 0.032406 0.021826 -0.013351 -0.016782 0.057235 -0.036989 0.021146 0.021846 -0.043188 -0.031979 0.023067 -0.051693 0.029850 -0.020538 0.016178 -0.057574 0.046436 -0.048370 -0.022082 0.035490 0.043447 0.008241 0.021589 -0.017483 -0.046549 0.030494 -0.004227 0.057571 0.043306 0.020375 -0.021706 0.026959 0.007211 0.073684 0.024999 0.048127 0.019431 -0.022939 -0.024160 -0.003380 0.038140 -0.033435 -0.029201 0.105154 0.037482 -0.020333 0.018978 -0.034561 -0.015471 -0.029665 -0.008017 -0.000129 -0.036231 -0.041957 -0.015886 0.056210 -0.085409 0.009738 0.018643 -0.046207 0.038941 -0.001903 -0.031502 -0.030470 0.020757 0.098821 -0.012217 -0.012039 -0.001585 0.001242 -0.027158 0.012484 -0.033401 -0.064141 -0.033487 0.048555 0.035629 -0.035683 0.027249 0.058312 0.000336 0.031965 0.007827 0.025186 0.018951 0.005222 0.001623 -0.034015 -0.027448 -0.038719 -0.038043 0.000300 -0.050272 -0.052604 0.015525 -0.024160 0.089963 0.026475 -0.022477 -0.017952 0.029527 -0.013435 -0.018155 -0.014742 -0.069782 -0.064956 -0.013636 0.009481 -0.022663 0.020116 0.060347 -0.096846 0.000674 -0.045532 0.080470 0.009632 -0.003635 0.025515 -0.009349 -0.027686 -0.020913 -0.018001 -0.043870 0.023778 0.008351 -0.001253 0.042496 0.060449 -0.018645 0.052902 -0.058776 -0.002293 -0.008817 0.009651 -0.056615 0.076843 0.044876 -0.031565 -0.021514 -0.006823 -0.049797 0.003587 -0.012163 0.002088 0.002246 0.008361 -0.005861 -0.015843 0.014341 0.042957 0.035554 0.023693 -0.022798 0.020896 -0.000763 0.015133 -0.032022 0.008376 -0.039337 0.002499 -0.006155 0.052098 -0.053394 0.010613 -0.043863 -0.018791 -0.070698 -0.050448 0.046742 -0.012383 -0.042991 -0.013198 -0.058049 -0.004854 -0.013764 -0.004007 0.011389 -0.014561 0.069163 0.012055 -0.008715 -0.066970 -0.036424 -0.005670 -0.022881 0.013818 -0.050733 -0.032419 0.055538 0.032921 -0.061480 0.012339 0.059080 0.045959 0.014244 0.013261 -0.030044 -0.071448 -0.034565 0.016368 -0.017973 -0.019440 -0.042045 0.005453 -0.002204 0.006060 -0.018220 -0.025483 0.062481 -0.004792 -0.015871 -0.024851 -0.058751 -0.002144 -0.042106 -0.033589 0.047635 0.032606 0.009342 0.002009 -0.046735 0.023671 -0.041800 0.059127 -0.015097 -0.051548 0.015392 0.012683 -0.047004 0.010944 0.029696 -0.027392 -0.026872 -0.120999 0.043258 -0.030549 0.023664 -0.043439 0.014041 -0.019634 0.025368 -0.049552 0.016269 0.041938 0.037284 0.059242 0.053954 0.081767 -0.007518 -0.043388 -0.038499 -0.058240 -0.056805 0.009287 -0.051031 -0.053279 -0.040228 0.029010 0.030191 -0.079634 0.026407 0.016403 0.006446 -0.000980 0.098629 -0.055696 -0.016569 -0.001538 -0.026787 0.002360 -0.057175 -0.043398 -0.008763 -0.046050 0.046423 0.040820 0.037432 -0.044231 -0.041679 -0.011060 0.005479 -0.007462 -0.020657 -0.027864 0.053471 -0.061760 -0.011422 0.007698 -0.001080 -0.014946 0.037890 -0.019306 -0.029587 0.072910 -0.006187 0.086160 -0.053036 -0.005042 -0.013021 0.013188 -0.038797 0.006551 0.050035 -0.064184 -0.036802 -0.039399 0.032425 0.033438 0.000132 0.026668 -0.022309 -0.028572 0.000129 -0.056883 0.062421 -0.011393 0.014153 -0.044206 -0.035579 0.008384 -0.017541 0.010596 0.073293 -0.024353 0.039970 0.042086 -0.094738 -0.017976 0.044602 -0.063786 0.041018 -0.045293 0.009782 -0.014658 0.062607 0.014643 0.015793 -0.026118 -0.014015 -0.038438 -0.009769 0.051169 -0.028931 0.033639 0.037605 0.044778 0.010743 -0.000129 -0.013875 -0.018113 0.057526 0.017002 0.041803 -0.009364 0.001433 0.000748 -0.034713 0.021460 -0.014287 -0.056885 0.003186 -0.016532 0.045580 0.012526 0.028849 0.011928 0.014777 -0.018760 -0.046607 -0.000097 -0.037539 0.062271 -0.062918 -0.014553 0.045431 0.046441 0.003965 -0.042514 0.051199 0.063372 0.041782 -0.022302 0.037132 -0.027059 0.019656 -0.018187 -0.006633 0.006134 -0.027686 0.017775 -0.006613 -0.011207 -0.032974 0.038452 0.022262 0.038555 -0.003583 0.014055 -0.033690 0.002941 -0.072454 0.007091 -0.022253 -0.027895 -0.032901 0.029107 0.020249 -0.001627 -0.035957 -0.041642 -0.028571 0.025478 0.031376 0.029051 -0.007042 -0.009950 0.013659 -0.051889 0.035129 0.017943 0.016150 0.016405 -0.026096 0.041102 -0.026155 -0.005173 -0.004034 0.028469 0.014928 -0.028223 0.008571 0.017662 0.012309 0.040104 -0.013872 0.036870 0.031774 0.012065 0.014514 0.014259 -0.024713 0.062768 0.023351 0.017381 0.017451 -0.032791 0.023456 0.040179 0.021646 0.009159 0.050981 -0.001454 0.024722 -0.075840 0.013991 0.034248 -0.029291 -0.050967 0.046610 0.019862 -0.002284 -0.041017 -0.000015 0.001681 0.052591 0.050928 -0.017922 -0.015719 0.028418 0.047242 -0.048565 -0.014090 -0.075815 -0.029583 0.065746 -0.020254 -0.035173 0.026329 0.003264 0.107917
brilliant 0.097991 0.011439 -0.007863 0.002724 0.020844 0.009112 0.031373 -0.033776 -0.007035 0.043815 -0.002093 0.022922 0.008661 0.013649 0.039038 0.007449 -0.004957 0.075513 -0.013177 0.020027 0.006616 0.005457 0.026234 0.061600 0.019320 -0.045637 0.030604 0.003042 0.022208 -0.061385 -0.028046 0.083400 0.027992 -0.019161 -0.017449 -0.021075 0.013200 0.082168 -0.011659 -0.118806 0.012730 0.086593 0.036608 0.016361 0.057130 -0.049543 -0.053043 0.032249 -0.016720 -0.006910 0.006135 -0.015962 0.041352 -0.028792 -0.017068 -0.005748 0.084013 -0.037111 0.008593 0.004995 -0.003812 -0.024055 -0.017420 -0.065809 -0.020917 -0.066014 0.051378 0.001110 -0.036651 -0.031439 0.034047 -0.036525 -0.026801 -0.001320 -0.006623 0.004219 -0.008337 -0.003760 0.037037 -0.051632 -0.061155 0.022560 0.030860 0.011583 0.084018 -0.009263 0.051861 0.017004 -0.007389 0.042522 0.038353 -0.068457 0.014514 0.035928 -0.026927 0.097933 0.076166 -0.030750 -0.004799 0.017494 -0.016763 -0.021316 -0.018428 -0.032136 0.031683 -0.112918 0.055154 0.002365 0.011272 0.024629 -0.008000 0.008998 0.048387 0.011713 0.019004 0.003762 0.004017 0.048177 -0.012739 -0.040241 -0.047145 -0.043703 0.031099 -0.014657 0.028911 0.010828 -0.025069 0.002442 -0.013222 0.035366 -0.081455 0.066399 0.004607 -0.062621 0.018017 -0.029991 -0.008035 -0.005964 0.043025 0.050023 0.012573 0.012270 0.048440 -0.000445 -0.026887 -0.025720 0.051281 -0.007720 -0.044575 0.026135 -0.003705 -0.042280 -0.011608 -0.010074 0.017693 0.031048 -0.023357 -0.058534 -0.011771 0.032057 0.028963 -0.006122 -0.036667 0.044311 -0.059607 -0.019493 -0.062267 -0.074274 -0.039204 0.003700 0.013273 -0.019968 -0.017287 -0.047176 -0.065385 0.060912 0.046220 0.031984 -0.023987 0.047097 -0.032467 0.038927 0.056151 -0.029904 -0.029925 0.122937 -0.031952 -0.018114 -0.004623 0.009824 0.046971 0.005615 -0.032314 0.052356 0.028285 -0.049303 -0.023779 0.037974 0.000995 0.057573 -0.027511 -0.042954 0.062017 0.022616 -0.031150 -0.061044 -0.037648 0.000282 0.063839 -0.007768 -0.038039 0.011727 0.010819 -0.025558 0.047907 0.010744 -0.033421 0.001556 0.099557 0.032692 0.049702 -0.021434 -0.023799 0.001231 -0.021958 -0.011905 -0.028927 0.021537 0.017620 -0.042247 0.020761 -0.008817 -0.021533 0.009695 -0.036878 -0.007411 0.054700 0.009172 0.008732 0.011852 0.038019 -0.020011 0.029931 -0.073781 -0.032014 -0.005314 -0.011578 0.017509 -0.004418 0.013806 -0.041613 -0.011389 0.058426 -0.010897 0.037764 0.037227 -0.053365 -0.032715 -0.006965 0.062875 0.007454 0.049705 -0.036362 0.037984 -0.020974 -0.016287 -0.074011 -0.028136 -0.002530 0.063087 0.023796 -0.058034 -0.036783 0.002062 -0.076748 0.017435 -0.035838 -0.034846 0.013814 0.036229 -0.014169 0.020141 0.037675 0.013924 -0.044854 0.032996 0.014395 0.005569 -0.021071 0.005953 0.075494 0.019198 0.003562 -0.006626 -0.070440 0.058971 0.005191 -0.013255 0.047997 0.002353 0.009168 -0.004874 -0.011272 0.008464 0.014237 0.014283 -0.016250 0.038123 -0.022640 0.027324 -0.094344 -0.044504 0.035418 0.008981 -0.008674 -0.044275 0.013016 -0.009259 -0.058713 0.021914 -0.025951 0.000817 0.028805 0.038410 0.044292 -0.020258 0.018020 0.037279 0.031871 -0.030807 0.005966 -0.071021 -0.024520 -0.029637 0.024888 0.004333 0.046967 0.016231 -0.005729 -0.003595 -0.021073 -0.023688 -0.048073 -0.078868 0.029309 -0.019131 0.031476 -0.047066 0.009030 0.002261 -0.088875 -0.018100 -0.001777 0.003568 -0.002963 0.048901 0.050617 -0.006528 -0.065716 0.066146 0.004229 -0.015507 0.035059 0.023884 -0.038041 -0.032009 -0.005891 0.020862 0.020928 0.007443 -0.004312 0.026429 -0.026979 0.034247 0.025933 0.012526 0.034698 0.019480 -0.023713 -0.005078 0.029307 -0.059030 -0.003266 0.066666 0.024577 -0.013519 0.005217 0.036943 0.014767 -0.009999 -0.021438 0.027713 0.009812 -0.052491 0.002828 -0.041985 -0.033636 -0.022184 0.026524 0.027558 -0.028945 -0.005763 -0.031883 0.012032 0.014072 -0.004916 -0.014703 -0.027356 0.008046 0.005370 0.024575 -0.053267 -0.032558 0.055568 -0.016265 0.005940 -0.046544 -0.028770 0.016641 -0.099769 0.000166 -0.011097 0.044951 0.121355 0.021693 -0.041067 0.022036 -0.019521 0.012771 0.019968 -0.054258 0.004313 -0.023231 0.043245 -0.027812 0.037176 -0.024439 -0.016166 0.026143 -0.030175 0.055140 0.051781 0.068309 -0.048366 -0.018989 0.040082 0.075561 0.040383 0.037094 0.009342 0.024357 0.016227 0.054271 0.026442 0.051937 -0.039689 0.067039 0.080364 -0.001419 -0.039865 0.094092 0.013830 0.039336 0.042393 -0.027159 0.008561 -0.013282 0.015962 -0.056000 -0.027638 -0.018897 0.052852 0.021929 -0.041160 0.039510 -0.019182 0.030764 -0.033867 -0.007290 -0.005451 0.053707 -0.002119 -0.069672 -0.019827 0.062521 0.019136 0.005423 0.015044 0.024601 -0.008682 -0.019000 0.038422 0.011149 0.043925 -0.024515 -0.003380 0.002941 0.057192 -0.071803 0.005183 0.003918 0.019246 -0.008107 0.005570 0.007209 0.010566 0.012020 0.035143 0.046771 -0.010451 -0.051712 0.034137 -0.056435 -0.012817 0.095497 -0.031470 0.012575 0.024187 0.014533 -0.037357 0.046759 0.036400 -0.036735 -0.024713 0.012613 0.025963 0.005586 -0.023228 0.078928 0.017530 0.017839 -0.008263 -0.028637 -0.008939 0.072752 -0.014326 -0.010453 0.052479 -0.004635 -0.048714 -0.022307 0.005022 -0.076664 0.021690 0.046324 -0.030146 0.039348 0.015261 -0.017061 -0.067564 -0.040802 0.024078 -0.028353 -0.027442 0.048386 -0.047244 0.084710 0.004951 -0.006029 -0.040533 0.024403 0.022523 0.062124 0.029106 0.052989 -0.030049 0.009704 -0.006128 -0.000472 0.040184 0.013440 -0.062971 0.003826 0.016955 -0.015555 -0.026416 -0.006345 -0.054771 -0.009996 0.005766 -0.043033 -0.040757 0.048002 0.028192 -0.000477 -0.032342 0.082747 0.018837 -0.023924 -0.015581 0.017979 0.007421 0.055650 -0.002662 0.036524 -0.037548 -0.004191 -0.005905 0.009201 -0.051383 -0.026321 0.016232 0.003696 -0.028561 0.029344 0.036929 -0.001809 0.001253 0.012593 0.023766 0.057804 -0.045688 -0.006773 0.003663 -0.030036 -0.009877 0.026863 0.020404 -0.001166 -0.054504 0.047891 0.064254 0.006969 -0.026766 -0.004887 -0.024753 -0.026833 -0.000168 -0.052756 -0.024016 -0.030527 0.042028 0.026547 0.021056 0.021752 0.018516 -0.017661 0.008972 -0.044402 0.018450 -0.016018 0.006499 -0.018624 0.002839 -0.029024 0.004019 -0.011028 0.050046 -0.052994 -0.046164 -0.037182 -0.011913 0.003320 0.034880 0.025531 -0.014564 -0.025928 0.016057 0.002713 0.007686 0.000682 -0.008211 -0.021351 0.031603 0.020284 0.021996 -0.043715 0.017217 -0.066434 0.014857 -0.065528 0.054083 0.032170 -0.009838 0.016698 0.068543 0.047091 -0.015433 0.040451 0.012114 0.005778 0.005009 0.001176 0.001671 -0.006584 0.008924 0.043605 -0.018735 0.010523 -0.008612 -0.025211 -0.016712 -0.048321 0.005991 0.011951 -0.009575 -0.007022 -0.053939 -0.009996 0.101490 0.091509 0.037591 -0.000187 -0.031428 -0.016379 -0.025188 -0.012691 -0.010325 0.053339 0.012880 -0.014908 -0.000876 0.026256 -0.014651 -0.058367 -0.049633 0.048681 0.060181 0.017094 0.008134 -0.036500 -0.018230 -0.012855 0.035603 -0.010657 -0.003064 -0.036100 0.005706 -0.035727 -0.033389 0.073048 0.012729 -0.012860 0.016885 -0.001376 0.061276 0.019809 -0.032203 -0.008080 0.021684 -0.046068 0.011869 -0.055438 -0.001103 -0.038106 0.007574 0.020192 0.059507 0.016730 0.040231 0.024455 -0.012653 0.021366 -0.004617 0.002794 0.000270 0.091649 0.003310 0.054462 0.012644 -0.031243 0.007125 0.014138 0.030173 -0.036410 0.037317 0.024651 0.015977
delightful -0.028458 0.021492 -0.073085 0.004140 0.019042 0.041973 -0.028718 -0.000240 0.050017 0.044603 0.076406 0.051724 -0.002424 -0.031960 0.070074 -0.024205 0.006355 -0.002128 -0.042618 -0.002386 0.056924 -0.015605 0.008833 0.010390 -0.023241 0.011290 -0.032652 -0.031271 -0.002957 -0.025175 -0.034625 0.006522 -0.061965 0.069888 0.037221 0.042090 -0.003820 -0.028960 -0.053019 -0.046721 0.011817 -0.059892 -0.038970 0.029128 0.020149 -0.037140 -0.039248 -0.010024 0.027653 -0.011496 -0.016654 -0.037521 -0.040665 0.030300 -0.056031 0.016720 -0.068794 -0.022870 -0.005779 0.016436 -0.005579 0.034152 -0.020861 0.012741 0.059194 0.037107 -0.022234 -0.044649 0.005971 0.069208 0.071115 -0.006155 0.113989 -0.015908 -0.042730 -0.014976 -0.011821 -0.025501 0.004430 -0.041935 -0.026853 0.019567 -0.067836 0.016905 0.001856 0.006412 0.027859 0.031435 -0.025380 -0.016377 -0.045149 0.029406 0.009663 0.001746 0.027001 -0.012143 -0.024308 0.024801 -0.000498 0.072033 0.020290 -0.074102 0.054901 -0.045541 -0.028023 0.053971 0.032015 0.098578 -0.024432 -0.047987 -0.032791 -0.028533 -0.049951 -0.083052 0.001762 -0.005649 -0.053889 -0.034272 0.042239 -0.035789 -0.023339 0.047500 0.008545 -0.060724 0.064184 -0.046212 0.010652 -0.004826 0.034183 -0.067226 0.009584 -0.007699 -0.012478 -0.028721 -0.019709 -0.015572 0.003348 0.076904 -0.002189 -0.036339 -0.028390 -0.013566 0.029233 -0.006103 0.028205 -0.002276 0.023539 0.037820 -0.061076 -0.017088 0.029307 -0.000700 -0.000772 -0.013075 0.012868 0.000171 0.006546 0.024625 -0.015849 0.066486 -0.042570 0.019402 0.035918 0.008429 -0.014365 -0.023693 0.012230 -0.000015 -0.009510 -0.030912 0.050915 -0.060988 -0.032929 0.125144 -0.035918 -0.034170 -0.001568 0.018084 0.025851 -0.032171 0.048895 0.025822 0.000526 0.007504 -0.036101 0.099267 0.024956 0.011229 0.045036 -0.012095 0.020540 -0.076222 0.041355 -0.000114 -0.027637 0.062585 -0.024729 -0.003915 0.008767 -0.030701 -0.008035 -0.056711 0.030363 0.039988 0.029351 -0.001602 -0.030951 0.030787 0.006726 -0.019958 0.007414 0.005480 0.006646 -0.018190 0.014947 -0.035173 0.035684 -0.037434 -0.022202 -0.021173 0.007311 -0.010432 0.072485 -0.034900 0.029972 -0.009202 -0.024413 0.042762 -0.017087 0.011977 0.045405 -0.041425 0.064693 0.003532 0.040725 0.067567 -0.012209 -0.052618 0.071805 -0.038630 0.034872 -0.029531 -0.061068 -0.021489 -0.013913 -0.032122 -0.040441 -0.013271 -0.038703 0.045445 0.017982 0.001892 0.054285 0.018044 0.037611 -0.000041 -0.021722 0.063836 0.000491 -0.016471 -0.067587 -0.020598 -0.032282 -0.052133 -0.039799 -0.023430 -0.004627 0.002426 -0.014300 0.044486 0.010607 0.003455 0.011874 0.078262 0.057096 0.032113 0.001149 -0.043236 -0.012838 0.017923 -0.010539 -0.053166 -0.068422 0.012843 -0.063781 -0.045941 0.059193 -0.043570 0.013845 -0.035797 0.032240 0.005673 -0.017816 -0.035572 0.028413 -0.031974 0.019570 0.040279 0.004260 0.039011 -0.012667 0.000465 -0.021162 -0.019660 -0.017823 -0.054650 0.012292 -0.015355 0.014618 0.082832 -0.012737 -0.036410 -0.033085 -0.004626 0.005504 -0.029932 -0.024660 0.080184 -0.004592 0.012200 -0.016072 -0.010008 0.013595 0.050553 -0.067017 0.012652 -0.002232 -0.000832 0.004007 -0.008083 -0.029768 -0.046281 0.038989 0.009416 -0.022838 0.003066 -0.024850 0.014701 0.006127 0.049951 -0.033005 -0.040675 0.013995 -0.011203 -0.126896 -0.033292 0.012913 0.030591 -0.059805 0.008777 -0.050812 0.047121 -0.000847 -0.053019 0.038379 0.010108 0.027462 0.020260 0.022512 0.029706 -0.067347 0.075500 -0.021052 -0.000227 0.055874 0.030646 0.016698 0.050805 -0.041856 -0.000210 -0.041937 -0.008452 -0.008825 -0.018763 0.017867 -0.038545 0.042447 0.031165 0.043323 0.045131 -0.020468 0.046535 -0.003157 -0.019516 0.045544 0.017917 -0.044522 -0.014295 0.050271 -0.007565 0.006188 0.057730 0.031541 0.033623 -0.078605 -0.043501 0.028561 0.032243 -0.007515 -0.009846 -0.034684 -0.012657 0.046432 -0.005350 0.075243 -0.005377 -0.019336 0.000902 0.011957 0.033392 -0.017357 0.017363 0.033815 -0.007381 0.008372 -0.011791 -0.011905 -0.026504 0.026825 0.050633 -0.024440 -0.079285 -0.026463 0.043858 -0.076559 -0.017841 -0.018067 -0.017225 0.049558 0.061178 0.046085 -0.038836 -0.031549 0.049242 -0.027707 -0.035103 0.023783 0.012272 0.037443 0.034882 0.016001 -0.074857 0.015292 0.023945 -0.022780 0.034975 -0.055177 0.021966 -0.013562 -0.002653 0.003183 -0.048358 0.078758 0.078977 0.013292 -0.029367 0.020731 -0.034752 0.009989 -0.039878 -0.053297 0.026983 -0.034781 0.048034 -0.044042 0.002557 0.050073 -0.000820 0.000281 0.017935 -0.013694 -0.096440 -0.004775 0.036795 0.051392 -0.050589 -0.006301 0.020805 0.012279 -0.003377 0.028733 0.047527 -0.055876 0.013801 -0.033761 0.004379 0.019920 0.040598 0.003855 -0.052412 -0.038351 -0.000213 0.067492 0.019341 0.030605 -0.013689 0.015667 0.000421 -0.026256 0.019084 0.030891 0.079749 -0.016129 0.056806 0.028621 0.030138 0.010590 -0.076395 -0.019609 -0.039132 -0.012944 -0.006529 0.013489 -0.020963 0.064387 0.063283 -0.015291 0.044673 -0.004312 0.002312 -0.004996 -0.012325 -0.017110 -0.044727 0.032549 -0.005985 -0.046076 0.072330 0.006046 0.046726 -0.014426 -0.015816 0.050974 0.041693 0.026859 0.006383 -0.010879 0.070881 0.030430 -0.010771 -0.034562 -0.061527 0.025269 -0.026109 -0.029323 0.001146 0.010396 -0.019091 0.072974 -0.020330 0.004134 0.022332 0.021438 -0.017515 -0.049572 0.003338 0.001111 -0.015363 0.014055 -0.028526 -0.011587 0.003754 0.020463 0.041070 -0.005744 -0.002262 -0.003840 -0.025111 0.009282 0.042055 0.009521 -0.070032 -0.056817 0.050677 0.019701 -0.005001 0.000396 -0.011446 0.020110 0.005253 0.013923 0.019497 0.010379 -0.020519 0.039159 0.012129 -0.016586 0.032721 -0.013872 0.007543 -0.006132 -0.040469 -0.017766 -0.027088 0.013058 0.027705 0.014413 0.037895 0.038337 0.058555 0.057864 -0.011066 0.045924 0.029054 0.018167 0.004141 0.020432 -0.030238 -0.032721 0.027611 0.019881 0.030001 0.001267 -0.072706 0.025326 0.068469 0.043098 -0.062255 0.000701 0.044438 0.024193 -0.032175 -0.005924 0.039502 0.001035 0.024684 -0.022515 0.025107 0.063190 0.044033 -0.024866 -0.021735 0.018854 0.005074 0.029088 0.021296 0.046535 -0.001414 -0.032494 0.024276 0.002504 -0.020730 0.013249 -0.029239 0.010857 -0.016787 0.100388 0.047874 0.016627 -0.009527 -0.011873 0.002631 -0.014372 -0.055842 0.010107 -0.006380 0.076170 0.009716 -0.012344 -0.006475 0.002815 0.069386 0.029522 0.007864 0.063905 0.037730 0.022867 0.036221 0.001403 0.016539 0.025227 -0.014100 -0.034664 -0.007701 0.039959 0.049210 -0.004546 -0.028495 -0.024502 -0.022049 -0.018464 0.058967 -0.023240 0.038995 0.056158 0.020212 0.015528 -0.072165 0.032263 -0.013668 0.005386 -0.034526 0.033632 -0.081864 0.012853 0.003555 0.022144 -0.006968 0.065722 0.004566 0.037850 -0.047835 0.013071 0.033802 -0.048354 0.069017 -0.028019 0.050001 -0.009866 -0.013842 -0.014390 0.067396 0.015879 -0.010705 -0.053562 -0.043080 -0.029080 -0.031877 -0.037390 -0.027545 0.033214 -0.010123 -0.065634 0.000390 0.047512 -0.029920 -0.033873 0.056864 -0.062593 -0.023228 0.005984 0.009938 0.030990 0.029645 -0.048604 -0.038531 -0.048363 -0.036303 0.013575 -0.025381 0.042516 0.011918 0.056327 -0.015858 0.005661 -0.079058 0.062191 0.011223 -0.022829 -0.050323 -0.023097 -0.037180 -0.014418 -0.006598 0.003764 0.037875 -0.058407 0.053964 -0.018887 0.000978 -0.010952 -0.001270 -0.005186 0.024757 0.008171 0.020921 0.003023 0.041229
disappointing -0.005485 -0.014651 0.003417 0.002761 0.033487 0.008883 -0.043182 -0.048006 0.026750 0.013373 -0.015010 0.067275 -0.029073 -0.036345 -0.017108 0.060698 -0.035975 0.013158 0.041096 0.035540 0.010577 0.009793 0.003007 0.027035 0.040067 -0.055369 0.009876 0.029087 0.022578 -0.016492 -0.015671 -0.040279 -0.029226 0.069271 -0.041768 -0.019900 0.008851 0.008429 0.085895 0.005781 0.056969 -0.045008 0.023724 -0.041886 -0.058560 -0.021862 0.042135 0.002137 -0.013446 0.042627 0.030118 0.007295 0.010039 0.016244 -0.032459 0.032831 -0.016073 0.015875 -0.046992 0.006506 0.055602 -0.041866 0.023517 -0.018061 -0.017983 -0.040224 0.006350 0.038712 0.023044 0.018230 0.013880 0.021542 -0.020064 0.030606 0.039657 -0.011091 -0.011572 0.013083 -0.019512 -0.058264 0.004071 -0.013583 0.007250 -0.000762 -0.050058 -0.019969 0.002200 -0.029901 -0.041469 0.053469 -0.005305 0.052364 -0.024460 0.009575 0.051976 -0.028524 -0.101662 0.041036 -0.024363 -0.019728 0.010241 -0.078748 -0.041120 0.018192 0.012812 0.012759 0.070958 0.031150 0.012528 0.016721 0.011289 0.043890 -0.015456 0.001156 0.001698 0.003789 -0.016618 0.021063 -0.024660 -0.030929 0.027903 0.022557 0.019528 0.030080 -0.011530 0.074762 -0.026219 -0.016675 0.007862 -0.010926 0.068372 0.001302 -0.008490 0.000855 0.018553 0.043666 -0.030395 -0.053225 0.003228 0.073803 0.041701 0.046167 0.004704 0.025829 -0.050680 -0.055075 -0.041208 0.015949 0.008757 0.015062 0.035119 -0.004230 0.073092 -0.037502 -0.038024 0.013260 0.030007 0.004363 0.027929 0.069577 0.049055 0.006461 0.029366 0.003227 0.028129 0.021736 -0.032156 0.024915 0.001979 -0.041675 -0.012356 -0.019808 0.008686 0.003570 -0.062404 -0.020850 -0.009772 -0.022925 -0.014481 -0.023046 -0.004050 -0.015475 -0.013715 0.068972 0.050575 0.011104 0.017758 -0.046911 0.002022 0.054177 0.005584 0.024128 -0.001461 0.027891 0.088164 0.012657 0.015204 -0.024334 -0.002849 -0.009089 -0.022356 0.008003 -0.002953 -0.005874 0.059651 -0.051825 -0.018443 -0.044058 0.022440 0.002518 -0.051703 0.082442 -0.050002 0.041554 0.042283 -0.018763 -0.082948 -0.005323 0.086804 -0.011934 -0.015344 0.018897 -0.047026 0.015430 0.017407 0.044707 -0.011029 0.014377 -0.036580 -0.045442 0.024484 0.036693 0.025495 0.015772 0.033022 -0.042011 0.094222 0.045133 0.009168 0.057187 -0.026980 0.038245 0.038780 -0.000589 0.071252 0.002828 -0.000225 0.025751 0.033898 0.015955 -0.014841 0.017702 -0.004696 -0.012102 -0.040532 0.032138 -0.036280 0.011196 -0.037675 -0.023014 0.046132 0.001100 0.069881 -0.022417 -0.012725 -0.005236 0.000169 -0.032461 0.007077 -0.026892 -0.017942 0.077507 -0.021632 -0.021196 -0.001890 -0.037180 -0.038789 -0.036940 0.003018 -0.004156 -0.065666 0.016257 -0.041884 -0.058055 -0.014849 0.029689 0.018899 -0.010497 -0.012165 -0.000706 -0.033503 0.003463 -0.050604 -0.065816 -0.020079 -0.035909 0.066707 -0.034006 0.020891 0.042918 -0.035599 0.053139 -0.022799 0.009442 -0.090286 -0.013785 -0.046009 0.018168 -0.030186 0.034278 0.025765 0.037559 -0.000214 -0.096464 -0.022140 0.024668 -0.019242 0.013742 0.002684 0.083825 0.033461 0.037922 -0.094895 -0.014369 -0.025430 -0.065254 -0.083650 -0.033579 0.047441 0.003212 -0.062248 0.079444 -0.006166 0.015948 0.000984 0.012182 0.026514 0.039731 0.020303 -0.044394 0.013622 0.022594 0.106713 0.010711 -0.010585 -0.001522 0.054098 -0.067245 -0.031177 -0.005148 0.026290 -0.043576 -0.015814 0.009372 -0.023646 -0.055705 0.008802 -0.000157 -0.004778 0.028196 0.013512 0.050921 0.023651 -0.041751 0.033363 -0.020078 -0.008673 -0.002226 -0.077508 -0.036842 0.032499 0.083473 0.006259 0.049565 0.022061 -0.030456 0.029720 -0.004523 -0.057674 -0.055613 -0.030918 0.029585 0.066954 0.049007 0.006124 0.073889 0.000571 -0.026400 -0.000933 -0.020974 0.028774 0.034789 -0.046807 0.062852 -0.003911 0.006795 -0.001889 0.031577 -0.063735 -0.024900 -0.042286 -0.000176 0.011410 0.028959 -0.010836 0.013683 -0.066906 0.003982 -0.017270 -0.050982 0.027040 -0.003160 0.025970 -0.025640 -0.009296 -0.015736 -0.063395 -0.023961 -0.019719 -0.015650 0.008810 0.042366 -0.027173 0.003938 -0.001315 -0.084989 -0.066282 0.005782 -0.043823 -0.041245 0.044458 0.010203 -0.030619 -0.064472 0.024402 0.024731 0.023596 -0.006702 0.024588 -0.007763 -0.032321 -0.045712 -0.026697 -0.019317 0.012211 0.004441 -0.019166 -0.046730 0.017900 -0.028226 0.019430 0.023018 0.058893 0.019045 -0.003907 -0.011045 -0.062824 -0.010851 0.002872 0.016491 0.007330 0.040390 0.032490 -0.010933 -0.046044 0.023944 -0.000753 -0.010753 -0.085899 -0.068899 0.008012 0.003494 -0.048741 -0.012469 -0.012175 0.004540 -0.023836 0.014926 0.008417 -0.034488 0.071474 0.104417 0.019924 -0.021937 0.015494 -0.044931 0.031741 0.047199 0.001597 -0.026995 -0.043308 -0.039047 -0.016194 -0.029111 0.019010 -0.013677 0.021399 0.021901 0.042863 0.026512 -0.027449 0.014079 0.005097 0.040431 -0.029463 0.014509 -0.027284 0.054545 -0.001151 -0.006834 -0.024819 0.009580 -0.036355 -0.067366 0.086769 -0.011849 0.047502 -0.005998 0.041435 -0.009590 0.014796 -0.041906 -0.033692 0.047562 0.029159 0.020714 0.015651 -0.017415 0.012097 0.000405 -0.039533 0.041447 0.006350 -0.007096 -0.005980 0.027633 -0.063245 0.015074 -0.003208 0.009616 -0.039038 0.015502 0.089975 -0.002224 -0.002590 0.072464 -0.034995 0.015441 -0.002909 -0.009897 -0.005712 0.014970 0.014254 -0.028838 -0.054643 0.002758 -0.012024 -0.053803 -0.066096 0.024222 0.010588 -0.059316 0.055035 -0.030821 0.074370 -0.054284 0.066744 -0.007387 -0.015604 0.002423 0.045514 -0.005394 0.035991 -0.020092 0.009146 0.006313 0.013183 0.031019 -0.024874 0.023262 -0.008367 0.057998 -0.016187 0.018566 0.019915 -0.008031 0.049906 -0.054046 0.043388 0.075003 0.042948 0.042229 0.034131 0.032303 0.022886 -0.015327 0.002653 0.027059 -0.040874 0.039652 0.018833 -0.015407 -0.016109 -0.007573 -0.009033 -0.000260 -0.044030 -0.006475 0.000199 -0.025639 0.032714 0.028033 0.072398 -0.058190 -0.000066 -0.006399 0.013162 0.029110 -0.007921 0.129635 0.027434 0.048463 -0.020170 0.007036 -0.078054 -0.069067 -0.023804 -0.090144 0.001794 -0.012900 -0.036412 0.042895 0.040652 0.025688 -0.018968 -0.018479 -0.033465 -0.010298 0.026394 0.001866 0.026005 0.016162 -0.016232 -0.001948 0.058265 -0.012850 -0.002208 -0.003135 0.083184 0.003468 0.041060 0.001210 -0.006803 0.039662 -0.009147 -0.025541 0.001544 -0.086564 -0.015198 0.009395 0.020310 -0.003404 0.003991 -0.049555 -0.074347 -0.022416 0.039028 0.000336 -0.019493 -0.025905 -0.080773 0.020954 0.060973 -0.026790 -0.053040 -0.054403 0.017788 0.027220 0.000495 0.050996 0.013940 -0.046647 -0.033982 -0.010597 -0.052598 -0.039584 -0.015505 -0.061617 0.010733 -0.015771 -0.049022 -0.047774 0.006622 0.000679 0.021831 -0.027000 0.001190 0.027289 0.005407 0.017890 0.010520 -0.004488 -0.062609 0.005772 -0.039590 0.008881 -0.011922 0.015940 0.022874 -0.016772 0.042166 -0.026578 -0.003319 -0.063267 -0.026376 0.008425 0.002922 -0.016147 0.021464 -0.042903 -0.031491 -0.006295 -0.058211 -0.031552 0.059139 0.023738 0.008910 -0.045844 0.010610 0.040627 0.011593 -0.005015 0.030189 -0.002071 -0.014333 -0.017629 -0.000147 -0.010461 -0.099542 0.000387 0.002753 -0.062609 0.009962 0.050377 0.073440 0.037685 0.062371 0.002371 -0.046817 0.053507 -0.001594 0.042011 -0.004941 0.030770 0.022182 -0.034691 0.033917 -0.002681 0.023270 0.048707 -0.028270 0.079605 0.011055 -0.049062 -0.011163 0.042509 0.013440 0.014630
disgusting 0.004079 0.080312 -0.073889 0.007712 -0.042681 -0.007948 0.057957 -0.057232 -0.039120 0.031759 -0.060077 0.044914 0.016135 -0.034875 -0.053064 -0.059325 -0.001645 -0.017613 -0.016528 0.048710 -0.089990 -0.018727 0.017099 -0.037510 0.018204 -0.014549 -0.062930 0.012362 0.048039 0.031231 -0.008786 0.024417 0.030495 -0.039157 -0.076581 0.007982 -0.024072 0.042132 0.048524 0.035554 0.013128 0.069306 -0.070070 -0.041281 -0.000129 0.020478 -0.024341 0.012338 0.000403 0.041415 -0.021645 0.016125 -0.006855 0.002835 -0.011903 0.017033 -0.014033 -0.028518 -0.065759 0.055014 0.009306 0.004921 0.026546 -0.033439 0.019285 -0.027322 -0.002662 0.040412 -0.056994 -0.016883 -0.025425 -0.034544 0.005032 -0.011378 -0.016299 0.034626 0.037530 -0.021271 -0.014410 0.019642 0.040364 0.043570 -0.013030 0.025625 0.010347 -0.018656 -0.000068 -0.071835 0.055587 0.023465 -0.001753 -0.061411 -0.009938 -0.026918 -0.032044 0.037660 -0.052406 -0.062132 -0.010420 -0.017088 -0.050792 0.008075 -0.073379 0.026832 0.002261 0.037178 -0.039361 -0.001987 -0.030367 0.024659 -0.036001 0.012673 0.035833 0.025356 -0.032446 0.007651 -0.005773 0.046221 -0.012106 -0.010319 -0.088716 0.008610 0.043520 0.010961 0.009786 -0.026114 -0.025177 -0.010417 0.011306 -0.061027 0.030286 -0.038299 0.070015 0.045092 -0.040838 0.042658 0.047332 -0.008922 0.021502 -0.006824 -0.021543 0.037258 0.026524 0.006385 0.023421 0.038663 0.050398 0.016570 -0.040072 -0.032482 0.011006 0.012213 0.045324 0.057764 -0.092423 0.009747 -0.031682 -0.020431 -0.009602 0.051775 -0.013590 0.026634 0.015004 -0.065179 0.052465 -0.049882 0.031697 -0.001189 0.038761 -0.018285 0.016978 -0.044401 0.021221 0.024536 -0.078688 0.011938 0.021227 -0.015930 0.003192 0.015073 -0.043098 0.020922 0.022340 -0.050026 0.051489 0.031592 0.015075 0.037344 -0.008786 0.033787 0.014665 0.012499 0.046679 0.082657 -0.035395 0.030957 0.008719 -0.006753 -0.036792 -0.016349 0.037728 0.024238 0.025207 0.020783 -0.009071 -0.011647 -0.033333 0.006665 0.069556 -0.017588 -0.001495 0.025315 -0.059855 0.014739 -0.040988 -0.040083 -0.023946 -0.025256 0.009796 0.003537 0.001619 0.009937 0.021031 0.058787 0.067043 -0.054656 0.063278 0.013246 -0.017732 -0.002451 0.033388 0.042787 -0.007130 0.020970 0.045897 0.045633 0.009848 0.026214 -0.030720 -0.031754 0.000627 -0.067667 -0.006479 -0.026021 -0.053767 0.068167 -0.016241 0.037121 0.066088 0.055510 0.064531 0.009022 0.030335 0.023570 0.095674 -0.013149 -0.086256 -0.030304 0.007505 0.004761 0.018221 0.008400 0.029023 0.001948 -0.027244 0.010199 0.014015 0.012421 0.022021 0.009511 0.008754 0.000858 -0.016840 -0.021520 -0.054842 0.062802 -0.052487 -0.022929 0.022654 -0.020580 -0.018335 -0.015343 -0.014420 -0.004765 0.041632 -0.037458 -0.051081 0.062651 -0.003634 -0.022212 0.025623 0.027397 0.017140 0.012721 0.018831 -0.020542 0.007804 0.032278 0.028442 0.047414 -0.002941 0.078423 -0.077815 0.067383 0.014568 -0.012102 0.036373 -0.054333 -0.037189 0.046068 -0.074336 -0.041994 -0.043107 -0.027561 -0.054902 -0.015261 0.087260 -0.027256 0.071211 0.029137 -0.014550 0.055050 -0.052402 -0.039676 -0.008832 0.029028 0.018279 -0.009868 -0.004640 -0.012279 0.007603 -0.015905 0.007713 -0.057804 0.040520 -0.036592 0.036880 -0.050474 0.028281 0.015917 -0.022283 -0.017613 0.008432 0.007366 -0.017495 -0.018772 -0.042275 -0.021295 -0.006197 0.000342 -0.037483 0.057781 -0.004376 0.017500 -0.010842 0.054861 -0.006169 0.011510 0.030842 -0.029431 -0.012294 0.031650 -0.004096 -0.033664 -0.070610 -0.013693 0.005709 -0.079872 -0.071584 0.010473 0.040195 -0.012081 0.026606 -0.019273 -0.019883 -0.041486 -0.053079 0.068631 0.013343 0.061490 -0.032792 -0.023855 0.011796 -0.077573 0.033429 0.039834 -0.042632 0.006715 -0.054098 -0.049291 0.020457 0.001468 0.031468 0.039352 -0.008231 -0.010683 -0.047991 -0.026067 0.011992 0.054970 0.015889 0.009020 0.002202 -0.030816 -0.026919 0.059326 -0.016100 0.001164 0.046949 0.016359 -0.061648 -0.024545 -0.075009 0.021583 -0.073876 0.079193 -0.028512 0.003421 -0.058638 0.017032 0.000927 0.038225 -0.073148 -0.005805 -0.032962 -0.012177 -0.013342 0.002574 0.060667 0.004023 -0.022438 0.034161 0.029923 -0.075852 -0.017579 -0.028244 0.033775 -0.035482 -0.032856 0.014558 -0.017547 -0.044486 0.002306 0.099020 0.040855 -0.022607 -0.014873 0.072064 0.014849 -0.015421 -0.060790 0.000126 0.036911 0.047969 0.038173 -0.085685 -0.000961 -0.055878 0.033457 0.013022 0.044552 -0.006045 -0.027340 0.023407 -0.009851 -0.034893 0.013905 -0.017252 -0.047509 0.011585 -0.007075 0.029836 -0.026459 -0.015673 -0.013154 -0.012211 -0.056656 0.019549 0.008246 0.016835 -0.081417 -0.031101 0.022785 0.037343 -0.001799 0.019884 0.012215 -0.007162 0.002825 -0.020505 0.021900 -0.068856 -0.029638 -0.032272 -0.047607 0.047335 0.038020 0.043532 -0.023252 -0.018922 -0.011385 -0.038301 -0.037729 0.025363 0.020695 -0.002836 0.035338 0.063471 0.007412 -0.061769 -0.005756 0.018042 0.012675 0.006000 0.004621 -0.020824 0.048834 -0.047350 0.032063 -0.019401 0.030254 -0.019435 0.005554 -0.012259 -0.028128 0.039135 -0.067193 0.011207 -0.019219 0.063789 -0.036162 0.001495 -0.019365 0.071135 0.007914 -0.031659 0.095491 -0.008960 0.004670 0.077261 -0.043499 -0.001087 -0.000209 0.013048 -0.022553 -0.019503 -0.005112 0.029971 -0.011868 0.015599 0.002186 -0.009146 -0.030336 0.014688 -0.040433 0.019803 -0.022462 0.028320 0.028828 -0.038821 0.014551 -0.020068 -0.057685 0.002970 -0.011197 -0.037503 0.014149 0.063531 -0.014952 -0.028610 0.011955 -0.001466 0.090256 0.016657 0.057314 -0.031125 0.012434 0.061907 0.016278 0.025073 0.015260 0.055507 0.014256 0.052780 -0.086075 0.021909 0.044005 -0.019302 -0.019666 0.018878 -0.005763 -0.035034 0.001751 -0.023278 -0.037752 -0.006772 -0.003930 -0.054004 0.032466 -0.007724 0.034719 0.024149 0.065496 0.078798 0.010293 0.025571 -0.047154 -0.021952 0.005877 0.018879 0.033208 -0.032320 0.036291 -0.027102 -0.012567 -0.040272 -0.016176 0.009513 -0.034240 -0.012764 -0.019843 -0.008780 -0.029076 -0.005046 -0.023899 0.021417 0.033333 0.026803 -0.036869 0.013550 -0.101527 0.029814 -0.000284 0.002937 -0.013543 0.005979 -0.032843 -0.051902 -0.009138 0.005195 -0.007248 0.014809 -0.059730 0.006074 -0.001836 0.009930 -0.049411 0.057330 -0.044749 -0.046660 0.039584 -0.019037 -0.019942 -0.074036 -0.014158 -0.010085 0.068648 0.000779 0.006905 0.029179 -0.007826 -0.020677 0.069723 0.021471 -0.059874 -0.005470 -0.027359 -0.005780 -0.003051 -0.061432 0.003630 0.013496 0.023966 -0.026812 -0.021011 -0.000492 -0.007202 -0.044456 0.045766 -0.024706 -0.041770 0.038385 -0.019123 0.020679 0.032405 -0.023194 0.004473 -0.048114 -0.036211 -0.018614 -0.002221 -0.027037 -0.015453 -0.056736 0.105677 -0.031326 -0.020607 -0.048815 -0.000248 -0.016294 0.040788 -0.026659 0.006776 0.024986 -0.049641 0.007559 0.041582 -0.049205 0.046076 0.037333 0.008265 0.053517 0.009322 0.068556 -0.003576 -0.011895 0.014769 -0.049563 -0.054997 -0.010585 0.000826 0.041963 0.013999 -0.063793 -0.003835 0.005274 0.026236 0.024530 0.020953 0.036592 -0.028449 -0.001209 0.045012 0.006906 0.036843 -0.014480 -0.045233 -0.015208 0.012529 0.007803 -0.016741 0.051431 0.049360 -0.029887 0.043923 -0.030458 0.028250 0.032893 -0.005529 -0.024180 -0.073647 -0.003970 -0.053113 0.074133 -0.017037 0.025942 -0.022732 0.012569 0.025541 0.023614 0.009105 -0.003928 0.050242 0.002276 -0.026414 -0.015539 -0.028438 0.028550
dreadful -0.017906 0.024264 0.041991 0.073038 -0.051182 -0.040294 0.005424 -0.078071 0.003750 0.004149 0.007382 0.051622 -0.001062 -0.066810 0.050172 0.059885 -0.017975 0.049750 0.027807 -0.041424 -0.003299 -0.038497 -0.003370 -0.001026 -0.003312 -0.079991 -0.017295 -0.033730 -0.022396 -0.034132 0.060388 0.057184 -0.032668 -0.058204 -0.047065 -0.025002 0.023414 0.019378 0.045176 -0.015515 0.014830 -0.022569 -0.062518 -0.023158 -0.051323 0.062949 -0.002571 0.007742 0.006080 0.027013 0.035855 0.014533 -0.065073 -0.010365 0.003937 0.040963 -0.030637 0.010145 0.090257 -0.024175 0.030449 0.019935 0.001197 -0.014321 0.042326 -0.049856 0.047491 0.032611 -0.002220 0.032191 0.025829 0.002911 0.101810 -0.016029 -0.004114 -0.050590 -0.029741 0.019974 -0.004449 0.053737 -0.018108 -0.043607 0.048074 0.034951 0.016198 0.059627 0.026370 0.033283 0.002547 0.023597 0.041591 0.035902 0.027508 -0.041655 -0.013107 -0.016319 0.019818 0.025127 -0.001310 0.009831 0.002520 0.016781 0.024542 -0.009876 0.011181 0.023671 0.076626 -0.003009 0.023370 0.032848 -0.011149 -0.031444 -0.099598 -0.001127 0.027457 0.011506 -0.020037 -0.027354 0.011252 -0.039883 -0.000628 -0.035637 -0.016862 -0.018994 -0.001193 -0.015360 0.001079 -0.018474 0.011966 -0.007446 0.022895 0.101392 0.015191 -0.014621 0.015316 -0.001098 0.019924 0.030559 -0.010714 -0.015167 -0.028881 -0.016340 0.049467 0.016480 0.015066 0.020103 0.057734 0.014429 -0.011929 -0.046574 0.020164 -0.010951 0.039340 -0.026003 -0.012521 -0.025072 -0.001111 -0.029607 -0.040641 0.126604 0.047156 0.040154 0.009045 0.054830 -0.015119 0.079637 -0.015644 0.017432 0.013150 0.015976 -0.003042 -0.003882 -0.013018 0.036333 0.020494 -0.039216 -0.014134 -0.024096 0.063475 -0.042027 0.029679 -0.043776 0.014801 0.017524 -0.040230 0.013117 -0.063029 0.031874 -0.003207 0.035448 0.074556 -0.007591 0.008255 0.021811 0.057240 -0.032990 0.041227 -0.011724 0.006662 0.012895 0.026289 0.035827 -0.094564 0.007093 -0.043387 -0.009649 -0.029329 0.016731 -0.013859 0.005167 0.037362 -0.025740 -0.030482 -0.078201 0.000744 0.134629 0.007538 -0.001608 -0.024730 0.074295 -0.009322 0.048797 0.019974 -0.035948 -0.021595 -0.010722 0.021274 -0.001205 0.043470 0.004712 0.055099 -0.011275 -0.033852 -0.003131 -0.083711 0.000468 0.012038 -0.006490 0.020348 -0.019286 0.010884 0.017523 -0.032784 -0.020538 -0.040534 0.004115 -0.026981 -0.062154 0.014645 -0.029029 0.008462 0.008196 0.006035 0.041155 0.003279 0.013354 -0.033665 -0.012243 0.013880 0.016599 -0.038026 -0.055575 -0.017630 -0.003526 0.040763 -0.012046 -0.038489 0.041618 0.043344 0.031263 0.001515 -0.000335 -0.050027 -0.033292 0.052000 -0.046564 -0.006172 -0.001826 0.014825 -0.077884 0.012434 -0.039379 -0.011464 0.003220 0.024700 0.076928 -0.076179 0.008196 0.045066 -0.021814 -0.013146 0.007824 -0.009828 0.017286 0.054485 -0.077406 -0.007281 -0.013177 -0.031058 -0.025576 -0.056283 -0.020383 -0.023143 0.004499 -0.031988 -0.028815 0.071396 -0.030646 0.043572 0.047997 -0.002186 0.003224 0.044889 0.002645 -0.010141 -0.037156 -0.000159 0.008484 -0.063927 0.018240 -0.056675 0.021161 -0.027575 -0.020745 0.002655 -0.017814 0.014397 0.027708 -0.071286 0.067382 0.029581 0.063721 -0.003119 -0.018751 0.046471 0.016340 0.052563 -0.018084 0.012498 0.023165 0.035527 -0.009652 -0.035332 -0.034623 -0.031467 0.048952 -0.010612 0.012151 -0.018587 -0.009990 0.019614 0.002557 -0.037016 0.028363 0.053115 0.006210 -0.009896 -0.066315 -0.018794 0.064273 0.031411 -0.028872 -0.007387 -0.055566 0.004593 -0.010878 -0.028213 -0.115899 -0.026902 -0.044524 0.014790 0.032845 -0.008593 0.050682 -0.019675 0.030381 -0.081078 0.014314 0.009749 -0.033582 0.010885 0.058997 -0.043250 -0.017881 -0.055423 0.072495 0.032888 -0.019052 -0.025471 -0.009714 -0.022141 0.001551 -0.031395 -0.031064 -0.063806 0.010297 -0.000469 -0.037753 -0.018831 -0.032612 -0.000689 0.069840 -0.034425 0.002273 0.042350 -0.003775 0.056269 0.092035 0.009161 0.029261 -0.079258 -0.023685 -0.001039 0.046513 0.039142 0.008341 0.010879 -0.008758 -0.009616 0.053723 -0.023699 -0.022415 0.003888 -0.043149 0.012595 -0.029358 -0.017782 0.058699 0.008044 0.032383 0.002149 0.024196 -0.006546 -0.019028 0.088201 0.028228 -0.026351 -0.043902 -0.055905 0.050053 -0.009028 0.010047 -0.012324 0.053847 -0.070742 0.011718 0.011497 -0.110809 -0.036956 -0.002304 0.000802 0.013647 -0.013745 0.004721 0.056584 -0.004309 0.050443 0.034220 0.030079 0.011297 0.024412 0.030941 -0.022718 0.077381 -0.000126 0.015227 -0.049874 -0.076492 -0.038746 -0.011369 -0.029826 0.019388 0.028257 0.002893 -0.021257 -0.029933 0.021500 -0.025523 -0.050387 -0.008148 0.003583 -0.033472 0.001264 0.051796 -0.032261 0.011860 0.005407 0.014906 -0.012004 0.001400 -0.036838 -0.032097 -0.049849 0.003403 -0.037176 0.088001 -0.042560 0.011419 -0.005033 -0.012428 -0.021481 0.008858 0.005117 -0.051729 -0.043873 0.043683 0.006700 -0.061048 -0.051902 -0.039453 0.044265 0.002981 0.049074 0.021617 0.001801 -0.018064 -0.029252 -0.026200 -0.009059 -0.060911 -0.023340 0.099405 0.062074 0.041832 -0.040757 0.046261 -0.045600 0.027447 -0.035057 0.033580 0.023312 -0.000200 -0.006360 -0.066558 -0.001221 0.013009 -0.038068 -0.007182 0.010801 -0.015684 -0.055318 0.018359 0.011082 -0.014327 -0.018009 0.005595 0.082798 -0.010555 -0.020841 -0.012409 -0.005750 -0.027445 0.029637 0.077772 0.023520 0.033914 -0.007050 0.032586 -0.007903 0.013489 0.009450 -0.019775 0.032460 -0.029224 -0.047434 0.008543 0.106048 -0.007975 0.065730 0.044023 0.003746 -0.012715 -0.049056 0.018997 -0.001922 -0.027766 -0.000840 -0.003765 -0.039469 -0.014577 -0.029875 -0.032921 -0.034193 -0.017043 0.012433 -0.001578 0.030199 0.019574 -0.045666 0.009067 -0.029535 0.024658 0.012326 0.039906 0.035873 -0.044427 -0.014228 -0.034743 0.069534 -0.061407 0.030175 -0.053130 0.021632 -0.001528 0.052300 0.009592 0.001248 -0.014836 0.010189 0.038308 0.006921 -0.037832 -0.029210 -0.017815 -0.023871 0.001308 0.007140 0.017226 -0.032135 -0.083647 0.034355 -0.062068 -0.020386 -0.051902 -0.014659 -0.008053 -0.026758 -0.019835 -0.007783 0.028639 0.033250 0.014074 -0.027423 -0.039193 -0.033166 -0.009105 -0.043170 0.013516 -0.022838 -0.042837 -0.015976 0.005362 0.013243 -0.019092 0.054254 -0.028001 -0.029161 0.008593 0.027378 -0.012066 -0.083350 0.023930 0.001695 -0.067793 -0.028852 -0.063299 -0.003157 0.036059 0.016292 0.037292 -0.000430 0.007012 0.069353 0.024680 -0.046844 0.063904 -0.050452 0.027647 0.025583 0.032753 0.013329 -0.040014 0.034186 -0.017304 -0.011113 0.006181 0.007092 0.015270 -0.015466 0.015833 0.019462 0.013101 -0.028638 0.022103 -0.000145 0.046847 0.022588 0.064433 0.015108 0.053725 -0.025460 -0.055930 -0.080317 -0.047060 0.019015 -0.030881 -0.013156 0.035157 0.007544 0.049467 0.006144 -0.039561 0.056923 -0.037251 0.005148 0.005544 -0.015868 0.050383 0.015768 0.036585 -0.002532 0.002772 0.043511 -0.022943 -0.008082 -0.008778 -0.032204 0.022196 0.028400 -0.016958 0.008338 -0.020270 -0.023632 0.014651 -0.026217 -0.004565 0.015120 0.016475 -0.005027 -0.101588 0.019531 0.007862 -0.048717 0.115774 -0.023435 0.026700 -0.012096 -0.034215 0.025462 0.076118 0.013002 0.007591 -0.018301 -0.030252 -0.000029 0.007723 0.011949 -0.013076 0.038963 0.031073 -0.014848 0.013037 0.004972 0.042281 -0.089849 0.034994 -0.038169 0.029196 -0.028604 0.010856 0.005445 -0.001189 0.011169 -0.023137 0.001090 -0.001758 0.073743 -0.017387
excellent -0.020653 -0.088272 -0.033469 0.014695 -0.023641 -0.001391 -0.001196 0.011231 0.019952 0.001498 -0.028192 -0.048563 0.024916 0.013038 0.019996 0.005001 -0.034569 -0.031135 -0.072932 0.050798 0.056171 0.007829 0.089252 -0.040616 -0.015430 0.109423 -0.020023 -0.076927 -0.021713 0.012231 0.023385 -0.003518 0.003045 0.033740 -0.010760 0.006596 0.024294 0.000121 -0.005619 -0.002857 -0.035140 0.035096 0.068216 0.004784 0.009118 0.003914 -0.083376 0.081416 -0.009806 -0.061348 0.015667 0.000897 -0.018295 -0.007981 -0.036390 0.005444 0.005804 -0.007139 0.000100 0.022422 0.035848 0.051612 -0.036034 -0.044493 -0.047406 -0.014515 -0.019759 -0.014211 -0.022588 -0.089345 -0.050164 -0.029776 -0.000566 0.000975 -0.011904 0.030070 0.003894 0.012776 -0.037099 0.040344 0.040228 0.021347 -0.026931 0.060756 -0.037618 0.023207 -0.042571 0.072400 0.033052 -0.004477 -0.036650 -0.067557 -0.020141 -0.090893 -0.002952 -0.040519 -0.013255 -0.022050 0.031158 -0.004509 0.003640 0.014211 -0.016127 0.014535 0.076591 0.001730 0.039970 0.003075 -0.061071 0.047531 -0.045832 -0.021126 0.021882 0.034514 -0.036860 -0.017045 0.067844 0.039630 0.013164 0.044883 -0.045248 -0.016878 0.040696 0.058461 0.010926 -0.007143 0.064655 0.009174 0.012095 -0.053274 0.044077 0.021887 0.038491 0.032483 -0.075379 -0.038865 -0.012937 -0.029423 0.011224 -0.009108 -0.058664 0.024050 -0.005115 -0.039958 -0.006174 -0.023515 -0.006102 0.030555 -0.028896 -0.059519 0.024572 0.035812 0.042814 0.009473 0.010826 -0.014020 0.020357 0.036309 0.039120 -0.011544 -0.005844 0.033930 -0.029128 0.003135 -0.036568 -0.060565 0.043448 0.026299 -0.011300 0.078750 0.099066 -0.053112 0.068641 0.036503 -0.017906 0.042600 0.031349 0.035005 0.038531 0.005232 -0.011967 -0.014288 -0.048711 0.048836 -0.020671 -0.006147 -0.003593 -0.045862 0.054966 -0.000771 0.050018 -0.020019 -0.051418 0.070689 0.019502 0.000809 0.000992 -0.056292 0.018122 0.009295 -0.039287 -0.028505 0.063262 -0.034597 0.022951 -0.017237 0.004411 -0.013195 -0.050223 -0.034486 0.000574 0.006141 0.077197 -0.004864 0.002412 0.020059 0.014665 -0.022250 0.051327 -0.023295 -0.016194 -0.064345 -0.038576 -0.033128 -0.000160 -0.027184 0.099128 -0.041930 -0.018487 -0.024049 0.019501 -0.028904 0.047444 -0.056718 0.001966 0.043574 0.012563 0.013641 0.011244 0.006136 -0.050077 -0.010472 0.002972 -0.035630 -0.018632 -0.071757 -0.002336 0.005071 0.022944 0.030793 0.004736 0.004849 -0.004921 -0.043843 0.000219 0.028868 0.011634 -0.011723 0.003521 -0.068836 -0.006820 0.023911 -0.012183 0.056928 -0.015789 -0.037893 0.016330 -0.051912 0.000251 -0.025643 -0.003608 0.017267 0.039274 0.025433 -0.007763 -0.023747 0.061425 0.042533 -0.035200 0.017845 -0.010223 0.005251 0.003165 0.016620 -0.064944 -0.012481 -0.024808 -0.043003 0.012907 0.034970 -0.014553 -0.021735 0.083231 0.005438 -0.030975 0.012790 0.078996 -0.003927 -0.000910 0.040443 -0.069218 -0.033592 0.122535 -0.049576 0.056572 0.010455 -0.031242 0.067173 0.027625 0.047354 0.033382 0.003033 -0.009327 0.015056 0.028549 -0.025765 0.048956 -0.016453 0.040791 -0.021500 0.034795 -0.009992 0.049983 0.038845 0.001842 -0.006851 0.011482 -0.010923 0.026780 -0.008969 -0.016974 -0.025757 0.026253 -0.034016 -0.019950 0.032799 0.065005 0.017251 -0.001139 -0.038710 -0.017012 0.025001 0.030109 -0.030169 -0.015100 -0.065212 0.037521 -0.001688 -0.040863 0.024260 -0.048231 -0.047146 0.006998 -0.003707 0.025131 0.024175 -0.031587 0.015875 -0.031866 0.098308 0.011124 -0.042534 0.008221 0.082475 -0.002919 -0.007671 0.030230 -0.012772 -0.029788 -0.000708 0.028032 -0.001644 -0.098048 -0.038753 -0.053859 0.015362 -0.001253 -0.002767 -0.007337 -0.059269 -0.041956 -0.025496 -0.031758 0.032147 -0.005040 -0.046965 0.016991 0.041416 -0.052102 -0.038700 0.020866 0.028967 0.004515 -0.008436 0.039532 -0.009675 -0.045301 -0.071500 0.075998 -0.004454 -0.021686 -0.030719 -0.003735 -0.004580 -0.003416 0.025020 -0.036586 0.027571 0.043990 -0.008753 0.025763 -0.040546 -0.021628 -0.021105 0.016583 -0.014322 -0.006191 0.021279 0.007430 0.039325 -0.051231 0.044007 0.066851 0.064101 0.023008 -0.000606 -0.013534 0.012495 -0.030102 -0.012082 0.004736 0.003084 -0.001357 -0.035825 -0.021736 -0.027862 0.005692 -0.004937 -0.057374 0.015331 -0.021244 -0.012691 -0.005706 0.011624 -0.051312 0.034132 0.019651 0.034896 0.037535 0.025574 0.038577 -0.019285 0.010130 0.037821 -0.020995 0.003893 0.044989 -0.010551 0.017224 -0.019656 0.017628 -0.026545 -0.045653 -0.014559 -0.020072 0.018266 0.049725 0.079659 0.049607 -0.003057 0.012717 0.053355 0.031306 0.028474 0.015036 -0.065020 0.020812 0.031031 0.039733 0.015356 -0.007243 0.006968 0.018228 -0.037562 0.001189 0.073891 -0.002802 0.057889 -0.002256 -0.042814 -0.118828 -0.001484 -0.049714 0.017712 0.040546 0.001762 0.068102 -0.035982 0.008061 -0.051635 -0.017245 0.022367 0.009036 0.037584 -0.041055 -0.061387 -0.034103 0.011863 0.042073 0.070946 0.022462 0.016900 0.049166 0.011224 -0.014006 0.034514 -0.008917 -0.022539 -0.076180 0.013241 -0.009465 -0.080843 0.030751 -0.050209 0.006025 0.000853 0.023836 -0.009189 0.042688 -0.096179 0.037389 0.036521 0.011776 0.040867 -0.011964 0.030894 -0.008542 0.019416 0.066333 0.021259 -0.097923 -0.003437 0.022637 -0.026467 -0.023392 0.005377 -0.032862 0.043765 0.026061 0.043567 -0.016694 0.039743 -0.037888 0.004542 0.027982 -0.051151 -0.012679 -0.079113 -0.005925 -0.012999 -0.004655 0.017545 0.043621 -0.020104 0.071303 -0.035520 0.005275 0.075528 -0.037652 0.038416 -0.015555 -0.005788 0.018009 0.055344 0.023486 0.007070 -0.051990 0.038767 0.060099 0.029558 -0.018182 -0.041821 0.004353 -0.024232 0.013337 0.007934 -0.012268 0.026947 -0.021162 0.006615 -0.024468 0.055366 -0.004644 0.006522 0.016675 0.036864 -0.008042 0.013250 -0.032621 -0.069003 0.022946 -0.076163 0.006447 0.038813 0.024627 0.010679 -0.051887 -0.101880 -0.049549 -0.019078 -0.035297 0.026898 0.041097 -0.025209 -0.018801 -0.005632 0.005271 0.012925 0.002886 0.012014 0.032201 0.041229 0.076348 0.009079 -0.003117 0.047594 -0.040185 -0.024915 0.010793 -0.004295 -0.077618 0.006711 0.046915 0.010657 0.021640 0.023937 0.023644 -0.047254 -0.033153 0.031435 -0.003812 -0.058550 0.058674 0.008749 -0.031119 -0.004280 -0.002439 0.023730 -0.039436 -0.034547 0.007285 0.060548 0.021742 0.056091 -0.049711 -0.035426 -0.009413 0.057960 -0.047734 -0.049564 0.060315 -0.034308 -0.051429 0.085753 -0.040990 -0.016062 -0.014084 0.033369 -0.037252 0.042811 -0.063561 -0.006329 0.003678 0.007223 -0.027487 0.005949 0.004720 -0.010251 -0.014071 0.001586 0.040250 -0.026805 0.009263 0.007278 -0.025730 0.011351 -0.027833 -0.002726 -0.083746 -0.041849 0.041149 -0.030744 0.059255 0.053009 0.031476 -0.018418 0.016416 -0.001881 -0.036080 -0.026984 0.059855 0.005100 0.019269 -0.011517 -0.017964 -0.008327 0.014595 -0.003166 0.002296 0.011631 -0.008826 0.006609 0.022320 -0.018690 0.028851 0.015380 0.019132 -0.087493 -0.005637 0.044698 -0.026184 -0.041183 0.002993 0.006306 -0.018720 -0.001366 -0.015948 0.018625 -0.054758 -0.008000 -0.030442 0.011847 0.038893 0.036086 -0.010154 -0.027983 -0.002741 -0.038805 0.002772 0.036200 0.014537 -0.002747 -0.079252 0.041853 -0.016919 -0.026051 0.025727 -0.022566 0.030992 -0.042145 -0.046559 0.006279 -0.034713 0.034127 -0.008567 0.027754 0.034445 -0.032237 0.000923 0.033151 0.026154 0.017644 0.007581 0.030377 0.016241 0.001411 0.019292 0.038908
