32 300
airplane -0.019516 -0.035040 -0.163620 0.033947 -0.023297 0.026161 -0.057093 0.059612 -0.035710 0.013512 0.024894 0.066692 0.051557 -0.051519 -0.004313 0.087754 0.015679 -0.008086 -0.053971 0.038760 -0.016057 -0.031449 -0.011124 0.025330 -0.004414 0.119417 -0.019245 0.023735 -0.072363 -0.000338 0.092650 0.000170 -0.080628 -0.032691 -0.032909 -0.048237 -0.010369 0.097706 -0.068598 0.067672 -0.020437 -0.022144 0.026080 0.016826 -0.057879 -0.063231 -0.066869 0.009071 -0.060105 -0.084298 0.000644 -0.011644 -0.008076 -0.033259 -0.050983 0.000218 -0.045416 -0.023832 -0.122872 0.018154 0.010681 -0.113289 0.034246 -0.003447 0.026642 0.029760 0.069293 -0.014532 0.013558 0.063483 -0.020977 0.064127 -0.004803 -0.007476 -0.066883 -0.076723 0.101159 -0.126550 -0.053518 -0.074425 -0.059286 0.108690 0.029972 -0.011732 -0.016653 -0.128167 -0.011931 0.011567 0.059001 -0.008316 0.029592 0.025545 0.052536 0.004085 -0.040295 0.055037 -0.063843 -0.019083 -0.002098 -0.015707 -0.034594 0.017686 -0.000413 -0.065093 -0.040848 -0.104763 -0.093268 0.078289 -0.004560 0.011241 0.022095 -0.063315 0.010713 0.130929 0.029824 -0.064215 0.100104 -0.060863 -0.022308 -0.001397 -0.075412 0.048448 -0.043117 0.105398 0.078712 -0.018544 -0.043142 0.064881 0.030321 0.016802 0.052239 -0.008879 -0.000132 -0.029152 0.016859 0.001939 0.021824 -0.041331 -0.069083 -0.121890 -0.024933 -0.084576 -0.009455 0.003058 0.104262 0.005202 -0.025450 0.098756 -0.117627 -0.035084 0.062943 -0.056449 -0.039029 0.077299 0.095357 -0.011610 0.080022 0.031129 0.099442 -0.075694 -0.082367 0.046759 0.004486 -0.064707 -0.052777 -0.027952 0.021240 0.056714 0.079373 -0.091166 -0.073595 -0.038174 0.019714 -0.041658 0.070821 -0.073644 0.003207 0.068172 0.040852 -0.054610 0.065869 0.078132 -0.046313 0.030397 -0.129030 -0.073667 0.149609 0.061292 0.005899 0.025212 0.057069 0.008451 -0.015187 -0.071052 0.027483 -0.089420 -0.023877 -0.098643 0.036624 -0.077359 -0.001785 0.009988 0.125495 -0.012202 0.029344 -0.079656 0.047853 0.031180 -0.011883 -0.126272 -0.006845 0.043972 0.045264 0.009220 0.021101 -0.050888 0.018276 0.001435 -0.021957 0.024202 0.017520 0.021440 0.006289 0.077497 -0.092314 0.026623 0.021764 0.063713 0.022048 0.017670 0.049562 0.037605 0.005710 -0.051512 0.065662 -0.091673 -0.011636 -0.133921 -0.001377 0.048409 0.107855 0.025230 0.036851 0.007842 0.125582 0.012700 0.043213 -0.034630 0.030300 0.021227 0.132280 0.046398 0.034815 -0.032620 -0.120237 0.033555 -0.089193 -0.024480 -0.121380 0.041543 -0.015067 -0.090646 0.031143 0.003522 -0.016125 -0.071808 -0.041966 0.013583 0.004857 -0.006475 -0.055695 -0.108941 -0.049825 -0.092207 0.007569 -0.071518 0.056460 0.000370 -0.001085 0.047112 0.128262 0.007228 0.010205 0.004075 0.065210 -0.023559 0.030774 0.035829 -0.034099 -0.002037 0.052501 0.011940 0.079953 0.076320 0.019842 0.082748 0.008695 0.016839 0.093222 -0.004598
apple -0.015512 0.016775 0.059148 0.007189 0.123542 -0.062286 0.028063 0.088841 0.038427 -0.057152 -0.066835 0.080539 0.002072 0.129202 0.020523 0.092034 0.032558 -0.049110 -0.163919 -0.005460 -0.061631 0.061508 0.020913 -0.007367 0.026333 0.150548 0.023842 -0.076655 0.050312 0.038242 -0.037275 0.009750 0.036407 -0.056086 0.069836 -0.091814 0.033886 0.092599 -0.024170 -0.028946 0.011902 0.002828 0.030562 0.045293 -0.109699 0.102826 -0.053335 0.025764 0.025190 0.030894 0.000702 -0.103626 -0.088805 -0.089446 0.019705 0.076080 -0.071889 -0.050043 0.065665 -0.015633 0.036757 -0.119612 0.046709 -0.031992 0.052571 -0.165189 -0.071943 0.044123 -0.009290 -0.059314 -0.030178 -0.044095 -0.049226 -0.005458 -0.035021 0.043125 -0.141839 -0.004778 0.031073 -0.020225 -0.018437 0.084738 -0.001003 0.069059 0.005230 -0.049696 0.004178 0.025062 -0.062817 -0.066194 -0.073848 -0.017074 -0.085523 -0.003580 -0.092111 -0.027275 0.062508 0.003022 0.020654 0.124281 -0.062461 0.021123 -0.084862 -0.022779 -0.007545 0.019566 0.070722 -0.027519 -0.008888 -0.001196 0.095155 0.022977 -0.019864 0.053720 0.009012 0.029453 -0.020596 0.004232 -0.050434 -0.030481 0.034764 -0.002152 -0.098120 -0.054976 -0.150651 -0.061890 -0.024764 0.042496 -0.010887 -0.019084 -0.075439 -0.063013 -0.018935 0.022600 0.034885 -0.060800 0.021614 -0.037809 -0.085064 -0.002496 -0.012901 0.003594 0.059068 0.025595 -0.039605 -0.039729 -0.009704 -0.001323 0.011946 -0.022021 0.059690 -0.024343 0.029776 -0.029417 -0.021749 0.074056 0.042926 0.007072 -0.112021 -0.011948 -0.020570 0.017776 0.047897 -0.074923 -0.002208 0.075442 0.021270 0.045548 -0.008768 0.023531 -0.025476 0.054324 0.113842 0.016313 0.004260 -0.018109 0.000054 -0.008401 -0.017736 0.016794 0.002562 -0.012286 0.027396 0.001190 0.006292 0.047065 0.000403 0.029161 0.017241 -0.010836 0.040569 -0.046672 -0.019265 0.045184 -0.064180 -0.066146 -0.002712 -0.078933 0.055339 -0.078469 -0.052783 0.075772 0.018613 -0.066411 -0.072416 -0.002245 -0.002456 -0.034031 0.106707 0.004303 -0.000363 -0.005261 -0.019579 0.074546 -0.056039 -0.172974 -0.068597 0.034318 0.032060 -0.091702 0.032365 -0.025931 0.071195 -0.016299 -0.027322 0.060701 -0.092915 -0.059368 0.090783 0.057284 -0.001922 0.055329 0.042852 -0.024882 0.039011 0.092682 -0.017691 0.106156 -0.019503 0.149661 0.012806 0.084145 -0.041239 -0.028621 0.043242 -0.087188 -0.129042 -0.138324 0.070725 -0.005381 0.044980 -0.015860 0.005626 0.058946 -0.038050 0.079913 0.005206 -0.078379 -0.015733 0.071550 -0.035784 -0.013961 -0.039645 -0.069903 0.002153 0.005341 -0.029801 0.083893 -0.001150 -0.021125 0.052992 0.044871 0.060733 0.082174 0.001717 -0.140187 0.037909 0.011931 0.089314 -0.176531 -0.004232 -0.035665 0.056925 0.014711 0.039745 0.044181 0.029417 -0.057490 -0.018599 0.056302 -0.021819 -0.048955 0.049457 -0.006730 0.097644 -0.020513 -0.043027 0.039673 0.031520 -0.029252
axe -0.084594 0.093218 -0.012414 0.014397 0.101857 0.015007 0.010059 0.029966 -0.008235 0.029707 -0.091363 -0.059238 0.049056 -0.017777 0.016688 0.072014 -0.078976 0.024114 0.096031 -0.025755 0.064353 -0.001991 -0.042859 0.144110 0.032808 0.021530 0.003858 -0.077517 0.071025 0.095728 -0.066684 0.055000 -0.024141 0.061031 -0.014734 -0.037020 -0.020368 -0.008213 0.073595 0.037159 0.039376 0.060027 0.023377 -0.037366 -0.083177 0.021517 -0.095157 -0.076887 -0.014741 -0.023761 -0.017671 0.036223 -0.008766 -0.072873 -0.015721 -0.007322 0.000521 0.065499 -0.007081 0.006073 -0.092433 -0.054028 -0.007721 0.022082 0.082271 0.035572 0.018184 0.003591 0.094461 0.059458 0.059237 -0.040632 0.023259 0.011857 -0.047167 -0.051098 0.066636 0.008416 0.007234 -0.011911 -0.008441 0.023603 0.059874 -0.046566 0.022261 -0.058749 -0.046394 0.060616 -0.019824 0.029308 0.004970 0.008948 -0.051031 0.007392 -0.038441 -0.095208 -0.108799 -0.025154 0.020687 -0.058944 -0.005985 0.083479 0.098411 0.005397 0.041599 -0.040824 0.003541 0.071096 0.067419 -0.027445 0.041512 -0.027316 0.115281 0.034693 0.039846 0.050841 -0.101365 -0.030118 0.015782 0.052990 0.068200 0.010885 0.054309 -0.009137 -0.012462 -0.051559 0.027644 -0.040490 -0.111012 0.029866 -0.017691 -0.021528 -0.020144 0.020824 -0.099207 0.058039 0.006286 0.055836 -0.014186 -0.003967 -0.078557 -0.017145 -0.075418 -0.050838 0.045826 -0.069784 -0.063288 0.010008 0.011328 -0.041040 -0.034717 -0.120741 0.012875 -0.080252 -0.002153 0.036110 0.146686 0.069830 0.000899 0.075474 0.113542 -0.086197 -0.115644 0.033018 -0.000932 0.002485 0.033691 -0.011936 0.023158 0.046357 -0.089404 -0.075054 0.029345 -0.032487 0.021650 -0.049971 -0.009039 0.017746 0.060140 -0.153772 0.009696 0.035121 0.034854 -0.013088 -0.134366 -0.108117 0.012888 0.002215 0.004372 -0.013121 -0.028365 -0.035266 -0.049752 -0.091308 0.022557 -0.080028 0.004587 0.010711 -0.054180 -0.046850 0.003448 -0.110944 -0.023179 -0.095215 0.065285 0.130868 -0.047577 -0.097907 -0.002400 0.052717 -0.074677 -0.019443 -0.048116 -0.093270 0.103162 -0.027244 -0.018525 -0.084359 -0.056669 -0.064822 -0.074446 0.020846 -0.070293 0.048462 0.023689 -0.117124 0.018923 0.018092 0.002561 0.084535 -0.031869 0.056506 -0.061945 -0.066153 -0.059570 -0.051684 -0.116748 0.033944 0.024062 0.009890 -0.060957 -0.038679 -0.018811 0.102726 -0.081596 0.007713 -0.109271 -0.002326 0.005304 0.015050 -0.045491 0.026563 0.050798 -0.006491 -0.104577 0.049034 0.023060 -0.105916 0.062316 -0.012037 0.033099 -0.046712 0.088902 0.009035 0.076567 -0.076501 -0.137405 0.058699 -0.032508 -0.068656 0.111603 -0.109162 0.002641 -0.015890 -0.011208 0.011715 -0.036120 0.020707 -0.044687 0.116980 -0.042811 0.005952 0.026154 -0.041360 -0.079270 -0.046609 0.086543 0.061120 0.019924 0.039888 0.011071 -0.111541 -0.020542 -0.016466 -0.047075 0.061155 -0.112558 0.011999 0.007610 -0.000149
banana 0.013879 -0.107870 0.001147 0.013693 0.009408 -0.033301 -0.064321 0.020033 0.068540 -0.008531 0.123206 -0.098313 0.088626 -0.041009 0.101295 0.011187 0.021850 -0.094431 0.093320 0.138336 -0.031865 0.043763 -0.006760 -0.005885 0.067059 -0.039622 -0.051286 0.002025 -0.028866 -0.008443 0.035424 -0.034413 -0.007097 0.084017 -0.003780 0.050139 0.115280 -0.031065 -0.042946 0.014309 0.086173 -0.035405 0.065958 -0.016257 0.048094 0.019149 0.004355 0.024566 -0.004187 0.007672 0.042937 -0.146779 0.016822 0.060230 -0.002634 0.058949 0.009779 0.059649 -0.053637 0.024776 0.057608 -0.051192 -0.041931 0.142246 -0.046293 0.065917 -0.039124 0.110611 -0.016918 -0.083264 0.090139 -0.061595 -0.071920 -0.060976 0.014741 -0.083543 -0.138731 -0.060410 -0.057103 -0.042841 0.129684 0.023771 0.040984 0.025515 0.053031 0.107895 -0.036708 -0.045356 -0.020184 -0.036363 -0.075626 0.047342 0.048688 -0.004270 0.078565 0.009292 -0.037722 0.009658 -0.065980 -0.004207 0.004955 -0.024755 -0.072655 0.016197 -0.064155 0.036182 0.102380 -0.053795 0.110431 -0.055877 -0.057743 -0.060085 -0.073615 -0.066571 -0.059033 0.034123 -0.055525 0.000316 -0.026649 0.034728 0.073239 0.060545 -0.014162 0.000859 -0.071791 -0.052820 0.016238 0.045779 -0.015147 -0.018919 -0.036230 -0.060547 0.007356 0.021030 -0.009074 0.078482 0.026257 0.036691 0.007185 -0.013358 -0.070050 0.051796 -0.077415 0.022338 -0.125998 0.069715 -0.134930 0.012019 -0.116215 -0.011254 0.101865 -0.085128 -0.003109 0.087254 -0.007742 0.065117 0.060340 0.024049 0.068613 -0.050775 0.054551 0.023678 -0.010794 0.004679 -0.043609 0.006130 0.039683 -0.029113 0.001439 -0.035079 0.065810 0.125177 -0.027263 0.032563 -0.021858 0.071717 0.025078 -0.086008 0.041223 -0.123882 -0.004846 -0.029985 -0.000336 0.020001 -0.051292 -0.012042 -0.018166 -0.075211 -0.010095 -0.013311 0.019064 -0.015605 0.006651 -0.035186 -0.066650 -0.081808 -0.056058 -0.006842 -0.041145 -0.090081 -0.016888 0.016083 0.080739 -0.018949 0.119936 -0.023374 0.026780 -0.064279 0.095768 0.015001 -0.053690 0.056328 0.011652 0.052381 0.094129 -0.037983 0.063602 -0.046294 -0.082245 -0.004304 0.024431 0.012177 0.105351 0.031780 0.016156 -0.014301 -0.044462 0.060364 -0.035858 0.004589 0.012375 0.013282 0.011715 -0.004662 0.057598 -0.030234 0.062772 0.028489 -0.004046 0.000392 -0.029859 -0.022454 0.125004 -0.039921 0.034955 0.013446 -0.094038 0.018644 0.058627 0.115213 0.002738 -0.067420 0.042635 -0.021144 -0.020645 0.140071 -0.011235 -0.055163 -0.013386 0.023806 -0.052235 -0.016671 -0.041711 -0.053891 -0.039684 -0.072166 0.026973 0.085886 -0.013541 0.040062 -0.004834 0.016152 0.016728 -0.062746 -0.103080 -0.043886 0.106180 0.005723 -0.027941 -0.108111 0.049786 -0.075562 0.051262 0.024053 0.100632 -0.012917 -0.058060 0.105311 0.077392 -0.046139 -0.022599 0.142926 0.000365 0.038192 -0.045913 -0.008819 0.039890 -0.011476 0.025253 0.090663
bicycle -0.002908 -0.096513 0.043151 -0.033339 0.073011 -0.002988 -0.101891 0.089881 -0.031432 -0.044779 -0.053139 0.055840 -0.006922 -0.056661 -0.003329 -0.101390 0.002125 -0.118201 0.029162 0.039775 -0.031520 0.004094 -0.153830 -0.072284 -0.009851 0.060321 -0.036791 0.018208 0.092452 0.044873 0.051451 0.024253 -0.027402 -0.046713 -0.012488 0.042701 -0.025743 -0.052248 0.070796 -0.032870 0.028252 0.005675 -0.022082 -0.002716 -0.072056 0.062664 0.093461 -0.008157 0.079409 0.101321 0.032861 -0.062486 -0.055615 0.008496 0.019823 -0.015839 0.104451 -0.088423 -0.017404 -0.007466 0.027565 -0.024914 -0.058652 -0.028887 0.006342 -0.026196 -0.013833 -0.047982 0.004086 -0.062540 -0.043551 -0.065136 0.005198 -0.026285 0.004417 0.025597 -0.047754 0.008587 -0.139392 0.017866 -0.010778 -0.052641 0.025297 0.054217 -0.056192 0.045706 0.021949 -0.001896 -0.009699 -0.124818 0.019375 -0.067181 -0.019592 -0.003551 0.070944 -0.095866 0.019994 -0.096111 -0.128534 0.025651 0.098494 -0.016894 0.065518 0.112838 -0.081841 0.062515 -0.015525 -0.060147 -0.075739 -0.099040 0.038967 0.010037 0.065100 0.019213 0.006695 0.021170 0.025425 0.012252 0.005981 -0.011780 -0.025673 -0.079590 -0.039871 0.017504 0.067048 0.058164 0.084156 -0.028569 0.066169 -0.067513 0.030161 0.031466 -0.046784 -0.079386 0.018590 -0.030426 0.029625 -0.112314 0.062683 0.067853 -0.110919 0.020674 0.004243 -0.016828 0.048787 0.032764 -0.078874 0.050365 -0.073089 0.016062 -0.005205 0.026348 0.046641 -0.023570 -0.032046 -0.040483 0.014888 0.011283 0.106461 -0.021707 -0.002387 0.021662 -0.108363 0.002574 0.019428 0.019145 -0.017422 0.054783 0.036478 -0.076611 0.048428 -0.066428 -0.039782 0.093109 -0.028530 0.031956 -0.029411 -0.014428 0.121016 -0.036343 -0.060109 -0.039321 -0.019386 0.002733 0.024353 -0.046142 0.015552 0.058570 0.003345 0.007791 -0.138224 0.013783 0.023056 0.013321 -0.041488 0.050849 0.014627 0.009647 0.040983 -0.147509 -0.047168 0.040188 -0.051128 -0.029208 0.004905 -0.035254 -0.081208 0.176350 -0.094865 -0.016736 -0.079016 0.009587 0.020001 -0.029013 0.022740 -0.099395 -0.013567 -0.017180 0.074787 -0.049823 0.042482 -0.079369 0.070173 -0.088100 -0.054797 -0.068967 0.041080 -0.024565 0.071841 -0.017672 -0.095058 -0.020814 -0.032927 0.032553 0.083045 -0.077692 0.069767 -0.029973 -0.114297 0.046549 0.012660 -0.060118 -0.005413 0.076290 0.041460 -0.004693 0.022641 -0.061459 -0.084375 0.041115 0.109576 0.045103 0.061313 0.038064 -0.043174 0.020846 -0.045653 0.118036 -0.000861 -0.023048 0.010319 -0.042325 0.001283 -0.019333 -0.012827 -0.086085 -0.064565 -0.073023 0.081129 0.035817 0.037090 -0.018928 -0.046690 0.017569 -0.009490 -0.095692 0.137924 0.063553 0.054315 -0.005241 -0.060530 0.087720 0.072644 -0.059334 0.059510 -0.027829 -0.058342 0.015987 0.040527 0.000478 0.050894 0.040987 0.014621 0.029520 -0.010892 -0.039361 0.101439 0.073864 0.149048 -0.112469
bird 0.010190 -0.016931 -0.044252 0.118293 -0.056446 0.002157 -0.017342 0.149998 0.074158 -0.020466 -0.026594 0.027769 -0.008583 0.021837 -0.017736 0.004830 -0.016675 0.034359 -0.068465 0.077717 -0.007891 -0.027903 0.078283 -0.142083 -0.061859 -0.079704 0.023967 -0.034759 0.012139 -0.039612 -0.005565 0.103368 0.007754 0.081764 -0.046167 -0.014920 0.006688 -0.060999 0.046781 0.072801 -0.024891 0.097935 -0.090648 0.002662 0.029336 -0.053657 -0.106668 0.004980 -0.016167 -0.044059 -0.015323 -0.012991 -0.110035 0.065695 -0.040111 0.093625 -0.042362 -0.097918 0.078250 0.181439 -0.042493 -0.013271 0.016846 -0.119466 -0.058175 0.099451 -0.123732 -0.059801 -0.006844 0.005865 -0.016629 -0.081125 0.035925 0.080213 0.029650 0.071261 -0.039433 -0.028634 -0.053464 0.048308 0.058857 0.030833 0.092581 0.051230 -0.025464 -0.009744 0.061145 -0.020507 -0.097609 0.018785 0.040264 0.017440 -0.011180 -0.029765 -0.055659 0.067724 -0.064355 0.069075 -0.040585 -0.054024 0.046687 0.048148 0.054266 -0.033402 -0.037307 -0.019699 0.041609 -0.053551 -0.034880 0.031792 -0.039344 -0.051897 0.047575 -0.071758 0.033550 -0.058743 -0.124814 0.025564 0.023048 0.021697 0.035386 0.023918 -0.045252 0.007017 0.031001 0.035587 -0.035606 0.024726 0.060504 0.048467 -0.018803 -0.006693 0.082878 -0.007004 0.008275 -0.098012 0.030939 0.064964 0.045995 -0.163095 -0.083397 0.048379 0.015671 0.020420 0.005772 0.075208 -0.006551 0.016413 0.088870 -0.041221 -0.022920 -0.013286 0.112226 0.096011 0.003073 0.001485 0.079450 0.060802 -0.078219 0.106923 0.002728 0.048588 -0.079863 0.076989 -0.027069 -0.114252 -0.164222 0.078107 -0.012952 0.038865 0.012983 -0.026697 0.028378 -0.008983 -0.052217 -0.009094 -0.013349 0.018827 -0.085275 -0.031092 0.006514 -0.035844 -0.027747 -0.071854 -0.030518 -0.067623 0.003766 0.023342 -0.087183 0.050810 -0.075389 -0.042688 -0.117879 0.104258 -0.045962 -0.039033 0.062997 -0.009721 -0.076227 -0.027677 0.018338 0.008083 -0.027424 0.108732 0.010502 0.046276 -0.093225 -0.037995 -0.018345 -0.006958 -0.035743 -0.001910 -0.000952 0.020428 0.061364 0.002861 0.021556 0.044883 0.034899 -0.070147 -0.038217 0.029681 0.056446 0.063909 -0.005811 -0.046882 0.016265 -0.002273 -0.075576 0.001157 -0.044014 0.020321 -0.007000 0.025348 0.071228 0.103613 0.016363 -0.095064 -0.027281 -0.010605 0.013573 0.008029 0.018168 -0.140658 -0.007583 0.016686 -0.085933 -0.038648 -0.020268 0.038014 -0.027216 -0.010553 -0.100236 0.158718 -0.035253 0.013509 0.000396 -0.118604 0.014430 -0.036150 0.017089 -0.029796 -0.037773 -0.051196 0.010857 -0.015964 -0.020938 -0.026100 -0.061871 0.009928 -0.106997 -0.027990 -0.001480 0.009563 -0.018945 0.028408 -0.090484 0.071489 -0.028824 0.058797 0.060959 0.021129 -0.030482 -0.020944 0.026177 0.053010 0.028089 -0.094377 0.058240 -0.048239 0.055775 0.052278 0.026842 -0.025600 -0.086162 0.015092 0.140544 0.086017 0.021546 0.053313
boat -0.032007 0.027692 0.090430 -0.038222 0.044448 0.004954 0.019781 0.029650 -0.080266 -0.094494 0.097326 0.046827 -0.019003 0.039566 -0.121521 -0.091597 0.150812 0.065657 0.047842 0.045317 -0.057426 0.061550 -0.006935 -0.050451 -0.004641 -0.000792 0.031421 -0.106205 0.099043 0.066134 0.069751 -0.060559 0.119511 -0.042988 -0.090720 0.051368 0.053512 0.043016 -0.020756 -0.075091 -0.061217 0.086986 0.005522 0.063631 -0.005773 0.050586 0.035175 -0.007980 0.107023 -0.054163 0.077322 -0.006773 0.094216 -0.014362 0.008964 0.039262 0.128595 -0.044138 -0.028495 -0.019190 0.002378 -0.038739 -0.175274 -0.029891 0.055544 0.008605 -0.008778 0.046893 0.049288 0.001952 -0.076733 -0.056646 -0.078722 0.037174 -0.007331 -0.013495 0.032635 -0.028267 0.109907 0.060817 0.023573 -0.026530 0.094134 -0.022336 0.060364 -0.104683 -0.033383 -0.054153 0.009877 -0.056815 0.033676 0.095528 -0.020478 0.049161 0.002692 -0.070559 0.047174 -0.031860 0.103432 0.017088 0.100616 -0.027154 -0.109019 0.047426 -0.009886 -0.032135 0.030943 0.118837 0.112711 -0.037398 0.066663 -0.101342 -0.055066 0.015242 0.053944 -0.043815 0.136894 0.006042 -0.017725 -0.018370 -0.013839 -0.013777 -0.010320 0.060856 0.093204 -0.032290 -0.001553 0.059161 0.044290 0.066849 0.049246 0.002020 0.082555 0.027648 0.029584 -0.016550 0.035017 0.066798 0.005209 0.018794 0.036061 -0.010223 -0.048265 0.072584 -0.007750 0.045555 -0.002316 0.045180 0.056343 -0.010042 -0.077585 0.082165 0.016371 0.101390 -0.015063 0.014690 0.014270 -0.008682 -0.092962 -0.013487 -0.050048 -0.035136 -0.013136 0.045014 0.035494 -0.038399 -0.003148 -0.021154 -0.018651 -0.044341 0.025766 0.023181 -0.010914 -0.025674 0.045347 -0.021408 -0.035320 -0.024751 0.062342 -0.004260 -0.029222 0.041982 -0.035790 -0.002601 0.079811 -0.021880 -0.110676 0.002596 0.059847 0.030292 -0.013275 0.021710 -0.107559 0.058825 0.062525 0.053664 -0.036900 0.037596 0.054869 -0.098000 -0.007075 -0.005427 0.048578 0.033025 -0.017625 0.036283 0.016544 0.033904 -0.004261 -0.029299 0.102558 0.135529 0.015953 0.075778 0.073690 -0.004505 0.161513 0.039639 0.060514 -0.051726 -0.013436 0.031509 0.019402 0.058611 -0.078218 -0.061927 0.006510 0.089261 -0.103491 -0.060225 -0.015324 0.085788 -0.068241 0.118572 0.021727 0.072399 -0.011251 0.005426 0.023801 -0.035456 0.039063 -0.038621 0.072994 -0.006247 -0.010805 -0.040692 0.046014 0.024141 -0.081708 -0.015951 -0.014884 -0.038604 0.019076 -0.041258 0.014120 -0.051227 -0.005008 -0.005172 -0.073464 -0.018745 -0.068330 0.030565 0.061463 0.012535 0.036604 -0.011454 -0.061068 0.011119 0.031058 0.014631 -0.053673 -0.093210 0.000358 0.081185 0.020213 0.101169 -0.009400 -0.079589 -0.023141 0.050507 0.042900 0.061032 -0.057304 -0.122996 -0.094041 0.114236 -0.048881 -0.083551 -0.102457 -0.034930 0.112415 -0.011628 -0.077747 0.064893 0.062675 -0.001312 -0.002105 0.006865 -0.003858 -0.013410
bread -0.022924 -0.051916 -0.129440 0.051906 0.058630 -0.004970 0.001378 0.001873 -0.019704 0.028028 -0.091025 0.041802 -0.027211 0.043093 -0.025031 -0.059683 0.039245 -0.044968 -0.080379 -0.032608 0.000318 -0.005347 -0.085389 -0.070979 0.032506 0.045160 0.064303 0.010833 0.004339 0.007245 0.023424 0.076501 0.062526 0.027279 0.029797 -0.000530 -0.012836 0.034429 0.094533 0.071594 -0.005736 -0.060404 0.027227 0.031448 -0.040520 -0.087794 0.158325 -0.089173 -0.062440 -0.016716 0.006021 -0.048375 -0.076879 0.044320 0.094304 -0.034363 -0.001004 -0.077802 0.020549 -0.015477 -0.003029 -0.037434 -0.143395 -0.015546 0.048250 -0.026321 0.031313 0.018232 0.019185 0.054406 0.040980 0.037896 -0.076071 -0.019197 -0.055147 0.047859 -0.046451 -0.010269 -0.005842 -0.042355 0.018514 -0.064925 0.047589 0.067218 0.040409 0.010021 0.003214 -0.033737 -0.011194 0.019662 0.009065 -0.053858 0.001774 -0.036248 0.017246 0.051112 0.009875 0.004501 0.091209 0.034288 -0.034228 -0.064516 0.024684 -0.067695 -0.036307 -0.086150 -0.012017 -0.011728 -0.075138 0.025033 0.041861 -0.025430 -0.028146 0.069000 -0.035173 -0.084169 -0.045406 0.110408 0.082432 0.099341 -0.054768 0.070666 -0.080104 0.097720 -0.076094 0.122731 0.003701 -0.002426 0.061059 -0.057459 0.009738 -0.002791 0.076163 0.050845 -0.026046 -0.083155 0.048000 -0.008915 -0.025448 0.010541 -0.003611 -0.038475 -0.044813 0.017521 0.038429 0.029137 -0.041769 0.039406 -0.029991 -0.055260 -0.095195 -0.013939 0.090261 -0.097155 -0.015110 -0.072798 0.023936 0.058166 -0.035457 0.041219 -0.092920 -0.003086 -0.028449 -0.075938 0.045608 0.003710 0.029006 -0.040761 -0.045874 -0.114521 -0.066770 0.028228 -0.066081 0.070310 -0.003185 -0.040340 0.040846 0.068842 -0.058482 -0.034371 0.058600 -0.029369 0.040595 -0.005201 -0.013689 0.021942 0.043931 -0.059277 0.086962 -0.046304 0.075424 0.041564 0.018463 -0.033575 -0.053275 0.019086 -0.111581 0.011759 0.005434 -0.001834 0.080303 0.049676 0.022324 0.080498 -0.016888 -0.050431 -0.013851 0.035138 -0.104825 -0.005813 0.068865 -0.014847 0.003271 -0.066252 0.098655 -0.006819 -0.009710 0.096346 0.069353 -0.010990 0.113060 -0.010262 -0.021871 -0.052327 -0.091213 0.029532 -0.070277 0.023045 -0.026915 -0.023934 -0.062761 0.049295 0.155588 -0.008948 0.116896 -0.057260 0.136609 -0.058863 0.029759 -0.001505 0.093728 -0.163247 0.000893 0.123199 0.026932 -0.074917 0.085189 0.011964 0.098797 0.027805 0.075130 -0.047337 0.007798 0.026545 0.041586 0.054701 0.018072 0.042838 -0.020778 -0.038366 -0.058350 -0.088296 -0.003847 -0.060777 -0.029615 -0.011186 -0.110178 -0.094595 0.078483 -0.013088 0.051672 0.049254 0.025912 0.085298 0.006848 -0.024494 -0.032841 0.097080 0.016392 -0.017132 -0.056998 0.030629 -0.125016 -0.058685 0.082584 0.125492 -0.026264 0.106451 0.032790 0.002920 -0.070214 -0.105361 0.085710 -0.039893 0.110548 -0.014238 -0.050421 0.020915 -0.010453 -0.076763
bus -0.005857 -0.046126 -0.018867 -0.042063 0.053650 -0.077963 -0.013897 0.001143 -0.057565 -0.010474 0.077287 0.035198 0.007755 0.019627 0.012333 -0.037839 0.073505 0.018853 -0.059505 0.093929 0.037707 -0.018627 -0.074512 -0.002402 0.058369 -0.036476 0.135354 -0.003576 0.046725 0.010328 0.021227 -0.072072 -0.117633 0.022081 0.145560 -0.006039 -0.086633 0.093452 0.006811 0.056200 -0.107999 0.040117 -0.062169 -0.060937 -0.055811 -0.085204 -0.015810 -0.115975 0.011211 0.069788 0.039162 -0.018581 -0.025152 0.025148 0.023126 0.012824 -0.054961 0.022258 0.006227 -0.095247 -0.018017 0.039407 -0.053718 0.029256 0.013194 0.082617 -0.081539 0.045878 -0.014384 0.010269 -0.058509 -0.041120 0.003317 -0.139271 -0.040328 -0.044791 0.014511 0.032414 0.123175 0.042995 -0.002459 0.039390 -0.007327 0.082112 0.014954 -0.110585 -0.008721 0.116574 -0.019659 -0.093404 -0.061104 -0.022762 0.087881 -0.104322 0.000935 -0.026900 -0.000120 0.053056 -0.042586 -0.010574 0.149841 -0.006216 0.048860 -0.003619 -0.139206 -0.050913 -0.084317 -0.039895 0.095137 0.007521 -0.017146 -0.007277 -0.083155 0.074517 -0.030045 -0.010301 -0.049519 0.024183 -0.005918 0.062706 -0.059349 0.003596 -0.027897 -0.042540 -0.099491 0.049878 0.085013 0.037880 0.070927 0.008867 -0.049358 0.033688 -0.090095 -0.062389 0.039771 -0.093668 0.014303 -0.028383 -0.038142 0.040285 -0.019166 0.041630 -0.055507 -0.042904 0.129070 -0.003909 0.096984 -0.040306 0.043122 -0.044975 -0.005661 0.076212 0.070122 -0.096682 0.065415 0.002531 0.031399 -0.025686 0.030085 -0.082781 0.100870 0.014268 0.022176 -0.005638 0.043908 0.061695 -0.031300 -0.042760 0.024202 0.046538 -0.020728 -0.113039 0.015915 0.019869 0.011013 -0.003095 -0.150361 -0.081693 0.044394 0.024237 0.063981 -0.047528 0.092069 0.018368 0.026379 -0.078438 0.094348 -0.073045 -0.027814 0.018932 0.001290 0.039038 -0.095922 -0.043685 -0.007007 0.066960 -0.032961 -0.065016 -0.036602 0.036132 0.068802 -0.103151 -0.008699 0.052285 0.022528 -0.092151 0.120338 0.018395 -0.076141 -0.025681 -0.010013 0.031065 0.030074 -0.025628 -0.034119 -0.054542 0.074411 -0.023561 0.048554 -0.097617 0.026827 -0.019056 0.046752 -0.057694 0.074171 0.001104 0.043758 -0.018901 0.032949 -0.020686 0.021462 -0.022021 0.051175 0.012033 -0.003583 -0.067775 0.026698 0.100728 -0.008023 -0.051462 -0.013086 -0.038460 0.012333 0.006741 -0.011240 0.100346 -0.084065 0.009719 -0.037455 0.039040 -0.074736 -0.001122 -0.076531 -0.010433 0.023868 0.067023 -0.001252 -0.045834 -0.044441 -0.093017 0.037942 -0.063786 0.049198 -0.007952 -0.088274 -0.021279 0.037723 0.109644 -0.079695 0.000301 -0.005944 0.087825 -0.013382 -0.077760 -0.021424 -0.043362 -0.042875 -0.013726 -0.015707 -0.078550 -0.013519 -0.005282 0.191163 0.084447 0.064505 0.045024 0.110747 -0.019979 0.063268 0.003127 0.046489 -0.042831 0.027290 0.075325 -0.008394 -0.049388 -0.031475 0.034047 -0.014689 -0.003516
car 0.067825 0.001255 -0.088790 0.005686 0.007763 0.099104 -0.008633 -0.116586 0.089888 0.053917 -0.118584 0.045160 0.042356 -0.050646 -0.026708 0.117254 0.065556 0.024477 0.040231 -0.064201 -0.003544 -0.015568 -0.037012 -0.062829 -0.055212 0.071945 -0.058074 0.073205 -0.011360 -0.053356 0.100424 -0.119646 0.060018 0.092436 -0.034627 0.017011 0.026565 -0.038016 -0.065844 -0.008810 -0.087960 0.066523 0.019319 0.021524 0.037518 -0.065425 0.021386 -0.078266 -0.011499 0.045372 0.099603 0.045121 -0.074499 0.000304 0.027639 -0.018129 -0.073655 -0.018695 0.057905 -0.075795 0.038931 0.136257 0.000382 0.032295 0.104933 -0.111602 0.050940 -0.139231 0.003183 0.022527 -0.000309 0.072599 0.086956 0.126924 -0.081409 0.024189 -0.042216 -0.018620 -0.001615 -0.131145 -0.033724 -0.025820 0.029913 -0.079911 0.089241 0.021878 -0.019042 -0.041064 0.061824 -0.007626 -0.028794 0.017933 0.106556 -0.109367 -0.016246 0.073002 -0.035897 -0.009494 0.022685 -0.036458 0.012358 0.060193 -0.099333 -0.031759 0.011888 -0.102039 0.066186 -0.050363 0.024889 0.073917 0.043518 0.032598 0.142185 -0.053635 0.046474 0.027225 -0.040255 -0.106228 -0.089192 -0.033419 -0.061968 -0.006045 -0.065165 -0.124010 0.026122 -0.083441 -0.013872 -0.045897 -0.065977 0.023766 0.015702 -0.001579 -0.034074 0.013624 -0.016918 0.032336 0.019027 -0.019777 0.072099 -0.079118 -0.025538 0.112094 0.005136 0.050802 0.033223 0.037260 -0.026166 0.012039 0.042279 0.057630 0.052526 0.005375 -0.018683 0.014331 -0.014329 0.003219 0.031365 -0.094995 -0.069137 0.094463 0.063047 -0.035902 0.009074 0.050865 -0.069982 -0.073790 -0.074330 -0.001575 -0.018869 -0.105560 -0.017713 0.022075 0.054689 -0.003343 0.028209 -0.057959 0.103964 0.021111 0.084452 -0.017021 -0.007466 -0.016598 -0.010108 -0.041293 0.046254 0.053821 0.012059 0.055050 -0.076237 0.050772 -0.036625 -0.068297 0.025797 -0.020219 0.057605 -0.006912 -0.023445 0.024974 -0.018241 0.040803 0.055762 -0.051680 0.026816 0.053110 -0.042786 -0.067191 -0.032283 -0.013032 0.001812 0.029254 0.026854 -0.087283 -0.008951 0.124729 -0.037182 0.042510 -0.089748 0.068851 0.135558 -0.030521 -0.003873 -0.063244 -0.009308 0.027446 -0.047302 0.044000 0.117086 0.087123 -0.014596 0.046579 0.043151 0.011522 -0.040692 -0.004826 -0.075081 -0.034516 0.083722 -0.067392 0.008733 0.099804 -0.123535 -0.006241 -0.034995 -0.074533 -0.036136 -0.018789 0.024463 -0.085703 0.075348 -0.047015 -0.002880 -0.035314 -0.045105 0.045691 0.037233 -0.051477 0.047226 0.073798 -0.039678 0.068846 0.041472 0.083683 0.049077 0.072025 0.054554 0.026066 -0.025524 -0.008096 -0.016728 0.048313 0.036851 0.020154 -0.011782 -0.012530 0.015789 0.015134 -0.014719 0.016819 -0.076171 -0.027658 -0.029021 -0.086020 0.041642 0.036667 -0.070200 0.038152 0.098162 0.060574 0.012777 -0.006667 0.074995 0.066848 -0.014513 0.042124 -0.084846 -0.093556 -0.017504 0.067855 0.003765 -0.082015
cat -0.012825 0.059937 0.054408 -0.019177 -0.119069 0.011665 0.081922 -0.011071 0.036269 -0.064949 0.081697 -0.029780 0.058442 0.000906 0.019846 0.082560 -0.002925 -0.047891 -0.055735 0.035637 0.051729 0.032363 0.133399 -0.009384 0.050429 -0.064586 -0.026141 0.089553 0.032707 0.044994 0.028772 -0.047525 -0.031317 -0.005820 0.049535 -0.029087 0.064614 -0.035801 -0.044340 -0.063516 -0.058079 -0.024868 -0.008980 0.039700 -0.005382 -0.051499 0.006821 0.116088 0.026056 0.025000 0.006497 -0.032915 -0.061902 -0.011056 0.090302 -0.031476 -0.053832 -0.088614 -0.023166 0.015418 0.021771 0.038209 -0.049294 0.040371 0.036535 0.062830 0.067700 -0.083192 -0.008916 0.009819 -0.046142 0.019130 -0.041215 -0.000503 -0.006201 -0.054928 -0.037696 0.048840 0.054788 0.048487 0.061146 0.076575 -0.001817 -0.034801 -0.013137 0.046779 0.041320 -0.042378 0.002325 -0.045603 0.031477 -0.094126 -0.065165 -0.013201 -0.080809 -0.055784 -0.012642 0.082290 0.150658 0.086621 0.050336 -0.023879 -0.149147 0.037013 -0.020930 -0.028222 -0.055260 -0.055716 -0.027343 -0.005448 -0.031735 0.106233 0.017634 0.055056 -0.049737 -0.043955 0.017350 0.018660 0.013087 0.025455 0.068687 -0.040231 -0.100914 0.123272 -0.048714 -0.014315 -0.000385 0.027651 -0.153845 -0.062100 0.014586 0.011037 -0.013228 -0.023158 0.031424 -0.003010 0.021078 -0.033665 0.068568 -0.035003 0.006509 -0.020736 0.023111 -0.053646 0.008016 0.000642 -0.014845 -0.074888 0.008526 -0.092592 0.096947 -0.004341 0.016052 -0.095513 0.135266 0.130929 -0.065275 -0.080616 -0.036536 -0.008739 0.019059 -0.052366 0.008635 0.085058 -0.059782 -0.028604 0.013972 -0.080232 -0.005929 0.059626 0.000796 -0.042419 0.095065 0.080674 0.038164 -0.057584 -0.067464 0.126824 -0.029225 0.008988 -0.016519 0.032043 -0.159057 0.007533 -0.000704 0.086879 0.139103 0.029249 -0.025035 -0.045179 0.006924 -0.012626 0.035773 -0.092046 0.028873 0.022415 0.152685 0.016635 -0.050704 0.063095 0.011769 -0.000545 0.025369 -0.023856 0.025193 0.027474 0.017752 -0.126467 -0.007646 -0.059671 -0.104802 -0.012459 -0.007292 -0.026417 0.020661 -0.097295 0.015691 0.095251 -0.094086 -0.162193 0.042232 0.067394 -0.031163 0.040697 -0.019776 -0.022268 -0.040586 0.041660 0.022509 -0.030262 0.018273 0.021461 -0.016387 -0.132627 0.077888 0.063524 0.072418 0.012606 0.002407 0.000941 -0.053157 -0.022194 0.009531 0.000024 -0.061008 -0.037827 -0.083803 0.052429 0.001924 -0.037934 0.034456 -0.086872 -0.108942 -0.045398 0.021357 0.062319 -0.148799 -0.014923 -0.077925 0.067065 0.010889 0.028750 0.027988 -0.056305 -0.069407 -0.007737 0.004861 -0.086698 -0.066596 0.115302 0.010406 0.006204 -0.103139 -0.106431 0.053621 -0.051102 -0.007394 0.063758 -0.015291 -0.085009 -0.013263 -0.027199 -0.068206 -0.019398 -0.014159 -0.048831 0.013560 0.020312 0.027660 -0.109068 -0.082593 -0.048765 -0.023734 0.019043 -0.020976 0.014352 -0.026584 0.022630 0.038509 -0.082345
coffee -0.097233 0.184160 -0.067084 -0.032728 0.010449 0.037930 0.066360 0.057710 -0.053913 -0.036791 -0.004980 0.070224 -0.013459 0.029472 -0.112007 -0.057712 -0.072891 -0.091418 -0.006486 0.050609 -0.010319 -0.022569 0.006159 0.133863 0.005900 -0.025095 -0.065207 0.062462 -0.015763 0.050158 -0.067203 -0.024306 -0.061670 -0.026450 -0.028988 0.040566 0.019730 -0.004295 0.038484 -0.001430 -0.001330 0.002132 -0.002409 -0.130195 -0.048572 0.077077 -0.046539 0.014122 0.103191 0.093967 0.064853 -0.034650 0.013625 -0.007520 -0.061374 -0.105109 0.084047 -0.009363 0.016510 -0.090010 -0.041650 -0.026447 -0.072748 0.025453 0.007267 0.054732 -0.002391 0.010828 -0.062428 -0.101105 -0.021516 0.017576 0.100523 -0.079906 -0.084737 0.044528 -0.094087 -0.010692 -0.118451 0.068393 -0.003056 0.101193 0.048140 -0.033876 0.028946 0.089965 -0.063545 0.017525 -0.044338 0.014314 -0.094391 0.028711 0.041641 0.049341 0.034677 -0.073839 0.054538 -0.051317 -0.008742 -0.023131 0.076624 0.054956 -0.030424 -0.094617 -0.082679 0.002961 0.080551 0.024193 0.012109 -0.034659 0.023150 0.068416 0.146476 0.042337 0.055819 -0.121782 0.025073 -0.015604 0.127033 0.021492 -0.023061 0.010407 0.093133 0.039207 0.002451 0.066812 0.099531 0.028943 0.006174 -0.008099 -0.011917 0.031044 0.006617 0.026685 -0.040333 0.045391 0.001617 0.012667 0.074328 -0.060774 -0.077448 0.076773 -0.051002 0.054014 0.041407 0.005901 0.027148 -0.039645 -0.020939 0.063138 -0.090364 -0.012972 0.084475 -0.014692 0.049725 -0.027291 -0.054097 -0.003703 -0.016780 0.052227 -0.062099 0.038421 0.001101 0.037220 0.037992 0.019393 0.099861 0.029034 0.044740 0.040404 -0.010888 0.079749 -0.004682 0.015595 -0.059177 0.126951 0.112659 -0.030571 0.074210 0.067264 -0.030071 -0.104739 -0.045213 -0.008267 -0.045659 -0.061613 -0.030987 0.002555 -0.016852 -0.003965 -0.064246 0.027678 0.100773 -0.025502 -0.042239 0.060471 0.087819 -0.012548 0.047367 -0.097771 0.064694 0.069172 0.034277 0.024023 0.068502 0.063885 -0.003002 0.042161 -0.037034 0.058292 -0.029965 0.010387 0.038633 -0.013251 0.001531 -0.071971 -0.020476 0.013418 -0.028287 0.027662 0.006870 0.056490 0.064094 -0.064110 0.105667 0.001842 -0.096617 0.027502 0.018282 0.049040 0.040792 0.008253 -0.017387 0.006438 0.044053 -0.066180 0.062863 -0.004845 0.032322 0.016555 -0.015364 -0.114473 -0.010050 -0.148051 0.004180 0.017694 -0.047190 0.011331 0.007264 -0.053664 0.031773 0.003187 0.039799 -0.000556 -0.066987 0.050728 0.054514 0.028050 -0.028128 0.039814 0.055028 -0.118549 0.023633 0.044305 -0.199838 0.016815 -0.111382 0.075533 0.000304 0.011717 0.003789 -0.055935 -0.024091 0.021549 -0.086442 0.073875 0.055950 -0.029767 0.090646 -0.020110 0.017214 0.027744 -0.074179 0.081865 -0.037077 0.000231 0.021269 0.059568 -0.118793 -0.021690 -0.035995 -0.068975 0.044715 0.050277 0.073121 0.052029 0.038874 -0.036203 0.080835 -0.025736
dog 0.053589 0.012015 0.162882 0.075704 -0.040695 0.062446 -0.037308 -0.009067 -0.036122 0.075608 0.021326 -0.090955 0.016476 0.024754 0.047737 -0.002864 -0.015844 0.015857 -0.051895 -0.029844 0.016208 -0.010058 -0.042392 0.108181 -0.003031 0.001590 -0.091031 -0.053805 -0.053372 0.078067 0.018632 -0.019701 -0.028186 0.030321 0.003762 -0.149806 0.016605 0.024291 0.128650 0.039556 0.027948 0.041334 0.042233 -0.083259 -0.000620 -0.048636 0.000519 0.003201 0.007350 -0.001823 0.002696 0.141027 -0.134120 -0.069674 -0.074994 0.093853 0.093761 0.018862 0.002676 -0.039530 -0.000475 0.020566 0.077854 0.050690 -0.072380 0.032823 -0.073733 -0.053418 -0.028525 0.073611 0.050668 0.006817 -0.028726 0.130511 -0.075309 0.014183 -0.047921 0.017149 -0.078090 0.002159 0.128375 0.034879 -0.065156 -0.002534 -0.031158 0.042459 0.012215 0.077983 0.019572 -0.032659 -0.081395 0.048358 0.043169 -0.017745 0.103327 0.070004 -0.131556 0.017063 0.062663 0.044099 0.023156 -0.057001 -0.066038 -0.061181 0.019843 -0.061676 0.091945 -0.097238 -0.000180 0.020293 -0.012367 0.037825 0.087381 -0.125000 -0.008526 -0.058179 -0.012157 0.007114 0.017567 -0.081470 -0.037075 0.051972 -0.082467 0.108062 0.015099 0.051013 -0.048967 -0.065107 0.029491 -0.055251 -0.042725 -0.030837 -0.010255 -0.065180 0.024803 -0.042022 0.069405 0.025599 0.032701 0.017082 -0.062429 -0.104660 0.016686 0.088969 -0.021035 0.055160 -0.019469 0.058682 0.048723 0.153672 0.035549 -0.012087 0.041529 -0.150944 0.026169 -0.006223 -0.026084 -0.060817 0.049670 0.037805 0.028722 -0.047013 0.102435 -0.108417 -0.061962 -0.173259 -0.036200 0.008213 0.100175 0.087433 -0.038160 0.038645 0.026839 0.039744 -0.006455 -0.004460 -0.109012 -0.020810 0.080534 -0.075687 0.052047 0.082959 0.060875 0.079516 -0.019450 -0.063458 0.028068 -0.017649 -0.036564 -0.085962 0.036669 0.022715 -0.035314 0.094679 0.060739 0.022448 -0.060114 -0.031894 0.037807 0.036524 0.079081 -0.100710 -0.088741 -0.080816 0.051620 0.021687 -0.023910 -0.006072 -0.048290 -0.115672 0.010040 0.016040 -0.069524 -0.091279 -0.014470 0.016723 0.055929 0.007085 0.072238 0.001564 -0.014749 0.074337 -0.007208 0.043268 0.097873 0.008515 -0.077796 0.008415 -0.043011 0.043519 0.004537 -0.029203 0.107750 -0.014465 0.002469 0.102767 -0.020853 0.033032 -0.022021 0.002117 -0.069679 -0.086703 -0.034605 0.028823 -0.073837 -0.082602 -0.066582 0.050199 0.009158 -0.024474 -0.052341 -0.114704 0.033748 0.029525 0.018953 -0.040758 -0.027228 -0.005391 0.001404 -0.013321 -0.009182 0.067972 -0.056250 -0.020106 -0.072725 -0.013169 0.026576 -0.002073 0.039784 -0.049724 0.021688 -0.062976 -0.036072 0.036346 -0.024360 -0.059101 0.043945 0.022374 0.003976 -0.017396 0.013184 0.039064 -0.030667 0.052819 0.040077 -0.029691 0.004587 0.047086 0.050602 -0.019488 0.068045 -0.028219 -0.050880 0.021238 0.004698 -0.078033 0.008204 -0.067776 0.011610 0.060122
drill -0.075005 -0.113953 0.002136 0.020238 -0.083007 -0.037177 0.000731 0.039309 0.007385 -0.039838 -0.051799 -0.012361 -0.023859 -0.014634 -0.020408 0.075852 -0.031715 -0.063195 0.061392 -0.019578 -0.047464 -0.018782 0.043979 0.025066 0.053506 -0.006786 -0.031106 -0.104987 -0.000658 -0.083926 -0.014481 -0.034051 -0.068552 0.057204 -0.012141 -0.130773 -0.006302 0.054735 0.037285 0.035246 -0.040663 0.046858 -0.106619 0.035127 0.036697 -0.032608 0.041732 0.002444 0.001126 0.020028 0.079423 -0.006655 0.096231 0.098628 0.044868 0.000152 0.019712 0.020351 0.067155 0.037465 0.029430 -0.078453 -0.013008 -0.021989 -0.034314 0.094976 -0.125509 0.060006 0.006994 -0.059373 -0.032911 0.082699 0.046020 0.017374 -0.052961 -0.028391 -0.140023 0.009450 -0.034406 0.005298 0.058724 -0.001351 0.070210 0.079477 -0.004783 -0.023242 0.087740 0.056596 0.128180 0.020878 0.063625 -0.019300 -0.028458 -0.011824 -0.093854 -0.115458 0.004885 0.021494 -0.004100 -0.243801 0.019359 0.040542 -0.004569 0.003264 -0.042563 -0.030952 0.004399 0.019198 0.024749 -0.010131 0.072029 -0.024972 -0.048932 0.000163 0.042609 -0.039012 0.090271 -0.007644 0.011568 0.112257 0.005201 0.012577 -0.063987 -0.014734 0.000616 -0.079368 0.070295 -0.056833 -0.068200 0.111747 -0.036517 -0.022658 0.026144 -0.085874 -0.035446 0.045081 0.012418 0.015825 0.043080 0.043523 0.028089 0.003606 -0.085744 -0.107153 0.075858 -0.037269 0.064127 -0.025943 -0.005443 0.005566 -0.100295 -0.034148 0.102388 -0.000695 -0.133217 0.001904 0.017735 0.029778 0.070258 0.000202 -0.008483 0.095475 0.043137 -0.107820 -0.037523 -0.023978 0.024080 -0.028196 0.075577 -0.049126 0.010800 0.035290 -0.033951 0.054692 0.046288 0.004921 0.011150 -0.043096 0.031750 -0.001588 0.029785 0.006511 0.129398 -0.017864 0.008297 -0.060426 0.007823 -0.003384 -0.005994 -0.072213 -0.027782 0.043759 0.003728 -0.074355 0.081711 0.048955 -0.127093 0.093941 0.080581 0.055429 -0.018671 -0.065602 0.066577 -0.043877 -0.029314 0.034015 0.054137 0.120278 -0.126392 -0.126054 0.069720 0.019437 -0.048164 0.011726 0.115021 0.051013 -0.056281 0.024875 0.016077 -0.011275 0.068925 -0.050440 -0.039418 0.071089 0.104905 -0.008212 0.018867 0.024278 -0.051104 -0.031589 -0.046523 -0.042303 -0.038960 -0.027449 0.062269 -0.105256 -0.006753 0.012542 -0.053857 0.077327 0.012840 0.035339 -0.013472 0.047160 0.070064 -0.043188 0.034429 -0.030090 -0.069077 0.126659 0.008636 -0.018280 -0.074162 -0.098908 0.017377 0.089130 0.032541 -0.022698 -0.008226 0.028926 -0.051085 0.084925 -0.112969 0.051837 0.034782 -0.043403 0.045225 -0.025181 0.038313 -0.049426 0.013147 -0.027027 -0.079436 -0.039034 0.031292 0.008508 -0.083177 -0.007762 -0.003608 -0.067812 0.000762 0.066525 0.016720 -0.092832 -0.033810 0.076218 -0.031959 0.034727 0.071219 0.009273 0.024337 -0.071206 0.077392 0.064559 0.024935 0.026265 -0.021210 -0.140970 -0.063329 0.045204
elephant -0.037079 0.041864 0.049934 -0.004735 0.034956 -0.048523 -0.084335 0.009969 0.017752 -0.021410 -0.055511 0.061026 -0.064787 -0.022749 0.001862 -0.024243 -0.019354 0.032867 0.010285 0.083324 0.026324 -0.036795 -0.039299 -0.053388 -0.010100 0.031246 0.013128 -0.021624 0.040839 0.022768 0.049462 0.045452 -0.002883 -0.028903 0.103621 -0.018344 0.037248 0.017725 0.006241 -0.051613 -0.017395 0.027178 0.075392 0.008045 -0.003236 -0.048442 -0.031731 -0.044238 0.068342 -0.038193 -0.011031 0.020723 -0.014812 0.061610 0.024927 -0.052482 -0.072660 -0.000379 -0.067651 -0.082329 -0.022297 -0.094593 0.042592 0.001196 -0.012093 -0.071027 0.055817 0.092780 0.012550 -0.001029 0.052609 -0.052299 -0.015875 -0.009756 -0.034017 0.107803 -0.104494 0.092756 0.018821 -0.037966 -0.086329 0.036625 -0.100436 -0.002935 -0.073674 -0.010691 0.055710 -0.041360 0.105670 -0.025144 0.040073 -0.011548 -0.029767 0.008259 -0.092164 0.010503 0.046914 0.057206 -0.006799 -0.018387 0.008152 0.032815 0.016924 -0.145238 -0.051936 0.098889 -0.045977 -0.007568 -0.018190 0.114681 0.061387 0.078343 -0.020853 -0.046486 -0.053596 -0.088570 -0.055555 0.050866 -0.047350 0.012356 0.074186 -0.013585 0.053054 -0.034056 -0.154186 0.086066 -0.029059 0.050018 0.189917 -0.052836 0.033839 0.046234 -0.076773 -0.081379 -0.011156 -0.043044 0.026235 -0.026506 -0.025377 -0.018509 -0.062886 -0.080128 -0.033661 -0.028576 -0.050557 0.036181 0.007071 0.036850 0.015529 -0.008518 -0.049569 -0.073758 0.050661 -0.009418 -0.119497 0.032528 -0.047455 -0.040155 -0.023130 0.073438 0.059394 -0.019035 0.035612 -0.089104 -0.004984 0.011815 -0.036354 0.020637 0.063447 -0.069960 -0.099111 0.054427 -0.051375 -0.002394 0.081885 -0.026475 -0.018809 0.061466 -0.076907 -0.036179 0.026708 0.060459 -0.049188 -0.042766 -0.093099 -0.001927 -0.069410 0.021265 0.061656 -0.034309 -0.004409 0.028103 -0.056980 -0.036287 0.045906 0.079959 -0.017355 0.006549 -0.051698 -0.008220 0.045715 -0.003820 0.088630 -0.091146 0.030168 0.069939 -0.093803 0.066093 0.005452 -0.054741 -0.046551 -0.009885 0.058176 -0.018760 -0.018043 0.077258 0.010327 0.026448 -0.015001 0.031498 0.066425 0.028575 0.007030 -0.010229 -0.131186 0.008212 0.005552 0.008482 0.010417 0.051645 -0.131402 -0.029059 0.120247 0.093056 0.137890 0.064878 -0.138223 -0.118465 -0.048339 0.002583 -0.070249 0.068796 0.024416 0.000126 0.018718 0.019175 -0.004662 -0.033104 -0.018545 0.102555 -0.094716 -0.034910 -0.064536 -0.010237 -0.008202 -0.065295 0.070130 -0.062180 0.055852 -0.101703 -0.033487 -0.013286 0.010016 -0.065817 -0.061523 -0.212671 0.040458 0.087628 -0.051545 -0.028016 -0.036903 0.001816 -0.047136 -0.055044 -0.067706 -0.026473 0.055575 -0.017020 -0.014586 -0.035308 0.016409 0.113248 0.036139 -0.023735 -0.088830 -0.002867 -0.026818 -0.029921 0.031952 0.063608 -0.056695 0.061695 0.074216 0.000051 0.168945 -0.024337 0.114493 0.056957 0.002613 0.066963
fish -0.040617 0.078750 -0.091559 0.013115 0.085052 -0.014876 0.036845 0.010895 0.111533 -0.038580 -0.107030 -0.020304 0.026604 0.027696 0.012469 0.019489 0.044774 -0.005627 -0.032784 0.053721 -0.015283 -0.049125 0.044287 -0.104667 -0.022554 -0.056089 -0.027430 -0.107528 -0.011499 -0.040336 -0.070057 0.023506 -0.017033 0.068786 0.007858 0.012101 0.018669 0.036367 0.004125 0.047812 -0.001554 -0.020803 0.064007 0.087723 -0.092431 0.060494 -0.101587 -0.004529 0.001299 0.082210 0.042754 0.068118 -0.097656 0.085138 0.081210 -0.044532 -0.022321 -0.046551 -0.026298 0.136643 -0.007516 0.000618 0.051611 0.084818 0.032626 -0.037138 -0.055880 0.005902 0.033357 0.015820 -0.022920 0.062579 0.075615 -0.036408 -0.011387 -0.021176 -0.031626 -0.117181 -0.053021 -0.043577 0.066381 0.080665 0.067674 -0.095079 0.065462 -0.052501 -0.041114 -0.062794 0.036672 0.019312 -0.047481 -0.007473 -0.032038 -0.097070 -0.000376 -0.033445 0.003710 0.061976 0.019619 0.095062 0.060696 -0.012556 -0.046099 -0.005804 -0.027985 -0.008364 -0.036445 -0.000737 -0.000176 -0.063464 -0.042333 0.018255 -0.075689 -0.067992 0.038809 -0.056058 -0.039646 0.006793 0.092625 -0.035470 0.028864 0.010805 -0.005431 -0.000975 0.031772 -0.112462 0.022698 -0.115691 0.137000 0.001551 -0.039333 0.060864 -0.064491 -0.010770 0.025874 0.036538 0.044881 0.053627 0.036302 -0.108216 0.015884 -0.056921 0.060326 -0.078904 -0.001114 0.074364 -0.089049 -0.020740 -0.032254 -0.008255 -0.124420 0.038345 0.070393 0.058041 0.006218 -0.078546 0.087385 0.011250 -0.018612 0.007269 0.021015 0.009735 -0.041306 -0.018132 0.057499 -0.119111 -0.007293 -0.055637 0.066342 -0.048588 0.051445 -0.020120 -0.046014 -0.024043 -0.032522 0.063649 0.032922 0.035678 -0.037941 -0.030701 0.030202 0.036668 0.040482 0.065179 0.000583 0.002706 -0.006313 0.152766 0.076100 -0.135067 -0.049049 0.041829 0.021401 -0.046913 0.063728 -0.024654 0.044250 0.066944 -0.037543 0.009053 -0.041284 0.094685 -0.016307 -0.046923 -0.064112 0.085599 0.071925 0.039736 0.040954 -0.095561 -0.012137 -0.061946 0.085680 0.001758 -0.002417 0.024145 0.096826 -0.044554 -0.019323 -0.035050 0.022917 0.101694 -0.041235 -0.070446 0.002565 -0.023265 -0.087513 -0.029131 -0.088252 0.008367 0.079712 0.040875 0.088714 -0.057408 -0.051456 -0.045931 0.006169 0.002757 -0.085903 0.032089 -0.009223 0.014291 0.047552 0.069830 -0.023749 -0.022730 0.047092 0.114873 0.019847 -0.048341 0.050336 -0.112998 -0.039280 -0.003307 0.056363 -0.060296 0.058503 0.016321 0.039270 -0.084206 -0.019432 0.025666 0.085421 0.075653 -0.023380 -0.107406 0.016148 0.129956 0.108037 0.102698 -0.019275 -0.071118 -0.027327 0.075493 0.031919 0.046525 0.016404 -0.041007 0.027440 0.014375 0.083327 0.066566 0.059341 -0.007677 0.032806 0.006235 -0.115656 0.013414 -0.024548 0.010256 -0.032317 0.155275 -0.113510 -0.003739 0.006470 0.081478 0.069250 -0.095811 0.043961 0.077429
hammer -0.111982 0.032889 -0.002016 -0.089713 0.055836 -0.046161 -0.004577 0.132609 -0.022588 0.051280 -0.021341 -0.040300 -0.030363 -0.034621 0.028450 -0.002417 0.124962 -0.039565 -0.032945 -0.026652 0.033858 -0.029171 -0.095071 0.048455 -0.032216 0.034617 0.005522 0.048051 -0.057584 -0.041018 0.004816 0.049593 0.038465 0.046337 0.024933 0.037106 0.014645 -0.003490 0.079102 0.038837 0.046658 0.191615 -0.008789 0.043375 0.019195 0.004704 -0.075307 -0.034165 -0.021662 0.091102 0.081039 0.019089 0.090152 0.027451 0.064459 0.029514 0.028111 0.009330 0.019413 -0.018543 -0.052783 0.005634 0.025290 0.071889 -0.074848 0.058845 -0.035831 0.059468 0.039576 0.012913 0.040173 0.069502 0.051037 -0.058557 0.002377 0.039508 -0.096137 -0.048302 -0.059513 0.077463 -0.145673 0.120444 0.002026 -0.101673 -0.043734 0.043387 -0.016959 -0.031702 0.046464 -0.028793 -0.052131 -0.032137 0.013809 -0.032295 0.148598 0.044590 0.073840 0.075909 0.062818 -0.043577 -0.061815 0.003426 -0.020063 -0.019136 -0.024391 0.030774 0.019828 0.030937 -0.027402 0.104499 0.007752 0.092427 -0.016041 -0.125465 -0.037245 0.067410 0.001605 -0.064279 -0.036770 0.026294 -0.001635 -0.020917 -0.009696 0.029553 0.001947 -0.017332 0.096056 -0.010630 -0.011004 -0.025944 -0.048565 -0.053208 -0.108291 -0.015232 0.006003 0.026758 -0.024661 -0.011243 -0.068720 -0.075597 -0.004719 -0.013715 -0.005431 0.043459 0.116580 -0.093402 0.115129 -0.044137 0.027025 0.013970 -0.098289 -0.010897 0.054538 -0.076320 -0.018905 -0.003776 0.067948 0.020832 0.108713 -0.070389 0.031289 0.021854 -0.088425 -0.029342 -0.036385 -0.042978 -0.025684 0.060251 -0.051170 0.041341 -0.043785 -0.017559 -0.146754 0.098488 -0.019770 0.044391 -0.106378 -0.012405 0.017812 -0.036073 0.030822 -0.059890 -0.020796 -0.055621 0.005735 -0.029728 0.044258 -0.034859 0.015614 -0.035762 -0.062695 0.078112 0.000651 -0.040091 0.010945 -0.114286 0.026174 0.085425 0.028168 0.012293 -0.081515 -0.120214 -0.055154 -0.008475 -0.006132 0.032112 -0.000167 -0.043075 0.009676 -0.037617 0.069818 0.075236 -0.108689 -0.002182 0.058322 -0.027296 0.033871 0.015927 -0.050856 0.117616 0.055849 -0.066671 0.018613 -0.050681 0.004406 0.048243 0.028620 0.017293 -0.000230 0.007260 0.067717 0.003719 -0.084478 0.042617 -0.014234 0.005794 -0.130316 -0.056484 -0.043642 0.075083 -0.059708 0.003530 0.007821 -0.163357 0.104620 -0.044235 0.058978 0.006521 -0.023897 -0.019354 -0.051378 -0.146831 0.095011 -0.027389 0.023207 0.008065 0.006403 -0.034167 0.058690 0.035032 -0.066444 0.087107 -0.058193 -0.004092 0.015278 0.033235 0.003091 0.036885 0.030305 0.007146 0.069560 0.061923 0.087217 0.090221 0.066693 -0.026379 0.019505 0.018782 -0.058676 -0.049776 0.143344 -0.112150 -0.006377 0.091283 -0.084834 -0.013618 0.068838 0.011740 -0.026156 0.055517 -0.018833 -0.016844 0.000390 -0.028259 0.117155 0.005532 0.023511 0.025919 -0.075142 0.049266
horse -0.016599 0.036449 -0.058903 0.032931 0.060067 0.083527 -0.001125 0.089709 0.021591 0.018765 -0.040087 -0.080529 -0.101312 -0.071722 -0.043066 -0.044293 -0.059281 0.057470 0.039433 -0.004850 0.096639 0.034898 -0.041406 0.083622 0.002926 -0.040398 0.002807 0.045397 0.097699 0.006998 0.122802 -0.032227 0.024992 -0.044853 0.020805 -0.055665 0.086608 0.099071 0.027056 0.055240 0.013338 0.064682 0.093184 -0.033318 -0.071463 -0.054627 0.034254 0.019854 0.079334 0.045695 -0.040824 -0.024162 0.118118 -0.105186 0.040736 0.088476 -0.035041 -0.069781 -0.047988 -0.005241 -0.010769 -0.013160 -0.031592 -0.014770 0.020216 0.039957 0.062255 0.097480 0.000814 -0.131865 -0.006519 -0.056845 0.027349 0.010773 -0.004853 0.076395 0.042788 -0.060135 -0.131547 -0.041589 0.082949 0.011149 -0.068544 0.032497 -0.044755 -0.007642 -0.062839 -0.002406 0.070519 -0.011237 0.034044 -0.085859 -0.013649 -0.080846 -0.038294 0.020477 0.049409 -0.071555 0.056747 -0.061565 -0.013926 -0.027572 -0.043503 -0.052127 -0.072545 0.064368 -0.002542 -0.000561 -0.055278 0.009043 0.068836 0.029754 -0.003981 -0.059910 -0.026890 -0.074360 0.083809 0.018406 0.049599 -0.054362 -0.042756 -0.107795 0.050801 -0.017779 0.028519 -0.085491 0.003183 -0.034468 0.051399 0.072744 -0.123290 0.012075 0.034347 0.024864 0.068955 0.029601 0.047221 -0.044167 0.045375 0.072997 0.001405 -0.043441 0.043709 -0.013666 -0.008531 -0.034491 0.082419 0.105019 -0.090527 0.062922 -0.028658 -0.031996 0.028243 0.041770 0.027193 -0.066237 -0.035838 -0.058444 0.021955 -0.104636 -0.064669 0.011617 -0.026166 -0.016894 0.039971 0.013246 0.118567 0.015072 0.121082 0.005528 0.020151 -0.017458 0.059384 0.062824 0.045698 0.014824 -0.018091 -0.031397 0.060034 -0.016274 0.086363 -0.122090 0.016001 -0.002062 -0.009465 -0.080653 0.068308 0.056160 -0.031601 0.024683 -0.029890 -0.097210 0.002835 0.022354 -0.071537 0.053345 0.097723 -0.021585 0.010515 -0.087098 -0.059637 0.061399 0.147482 -0.027986 0.031039 0.041591 -0.005299 -0.054498 -0.018082 -0.053705 0.053378 0.134702 0.033683 0.091462 0.012130 -0.019005 0.015979 -0.104561 -0.033486 -0.048531 0.066580 -0.050512 0.028381 0.076947 -0.048594 -0.074257 -0.025384 0.191454 0.006465 0.051401 0.004558 -0.031417 0.009457 -0.123848 -0.041110 -0.037194 -0.003677 -0.036382 -0.037107 -0.088894 -0.114945 -0.039784 0.010004 -0.059316 0.024202 -0.025571 -0.056353 -0.034250 0.002889 0.047831 0.003668 -0.081258 0.061802 -0.034432 0.079981 0.044513 0.008160 0.051276 -0.007980 -0.011881 -0.093814 0.010338 -0.007148 0.085270 0.013404 -0.041214 -0.065290 -0.062281 -0.079760 0.007079 0.101035 -0.025871 -0.034065 0.012268 -0.032006 -0.018980 0.149520 0.006242 -0.004237 -0.012229 -0.084666 -0.020027 0.052868 -0.040841 -0.082202 -0.017754 -0.024120 0.071196 -0.059423 -0.022084 -0.055990 -0.009206 0.040006 -0.022352 -0.076259 0.023992 0.094320 0.032916 0.046517 -0.110399
knife -0.013333 0.057438 0.021519 -0.053197 -0.005433 -0.108943 -0.085248 0.063840 -0.009773 -0.063366 0.098764 0.095086 0.078294 0.040474 0.052169 0.001092 0.023769 0.057745 -0.044443 -0.030103 -0.053808 -0.047516 0.080553 -0.000643 -0.001483 -0.043016 -0.101777 0.004948 -0.056162 -0.000373 0.025876 0.052876 0.030130 -0.027926 0.003694 0.020873 -0.006291 -0.109787 -0.029234 0.005917 -0.045219 -0.008810 0.051596 0.002989 -0.038722 -0.071172 0.045627 -0.069775 0.087990 -0.137843 -0.001363 -0.046516 -0.038026 -0.031269 0.005134 -0.006334 -0.120427 0.077793 -0.022226 0.030180 0.099984 0.002233 0.020346 0.036602 -0.049607 0.103734 0.035331 0.020618 -0.058957 -0.077962 -0.027193 0.047466 -0.009691 -0.015201 -0.089740 -0.004615 -0.067474 -0.029621 0.041468 -0.038605 -0.046521 0.055162 -0.059490 -0.020385 -0.022171 0.019405 0.149273 0.086846 0.035721 -0.067581 0.032013 0.078132 -0.081395 -0.056741 0.006480 0.114623 -0.077378 0.071749 -0.086799 -0.009859 -0.040690 -0.052428 0.058630 -0.104061 -0.026711 0.023904 -0.116242 0.156071 0.007294 0.041295 0.095812 0.088729 -0.077253 0.027124 0.005760 0.020621 0.041721 -0.059088 -0.008774 0.073374 -0.157177 -0.005882 0.051014 -0.007863 -0.001752 -0.072876 0.047732 0.043871 0.039539 -0.094260 0.102373 0.074095 -0.029274 -0.011693 -0.027767 0.006145 -0.006215 -0.120755 0.012481 -0.003676 -0.011983 0.053939 0.004688 0.010729 0.048903 0.029116 0.039961 -0.009690 -0.035220 0.014436 -0.002663 0.009266 0.005987 0.084402 -0.051892 0.048407 0.080034 0.118464 0.085557 0.005734 -0.120646 -0.133250 0.012147 -0.016249 0.003901 -0.050435 -0.027701 0.030717 0.022132 -0.007313 0.067076 0.015569 -0.036390 0.013653 -0.002432 -0.084175 0.048906 0.042561 -0.142567 -0.025659 0.004136 0.007884 0.062452 0.022118 0.095287 0.008962 0.040066 -0.066989 -0.107604 -0.030263 0.059938 0.029377 0.024159 0.054345 -0.013417 -0.017600 0.014684 -0.087674 0.124251 -0.072771 -0.004428 -0.005635 0.005744 0.069176 -0.058848 0.015608 -0.070777 0.038973 -0.011197 -0.063120 0.046523 0.018042 0.030511 -0.045959 -0.074987 0.020149 0.038044 -0.038619 -0.026492 -0.061155 0.152583 -0.134838 0.098998 0.038964 -0.054577 -0.044002 0.001378 -0.045970 -0.010440 0.020090 0.063312 0.036360 -0.004210 0.093994 -0.051523 -0.066383 -0.039093 0.024689 -0.004299 -0.015433 0.098162 0.073590 0.064568 0.015727 0.081674 -0.016124 -0.018939 -0.055633 -0.032637 0.012759 0.041323 0.007787 -0.065036 0.053564 0.006928 -0.059846 -0.014828 -0.027330 -0.008338 0.062273 -0.058140 -0.142043 0.064480 -0.001621 -0.055585 0.011567 0.050817 -0.017516 0.038994 0.040646 0.024890 0.030851 -0.054050 -0.002219 0.055416 -0.055287 -0.005080 -0.001227 0.006932 -0.014618 0.086883 0.055857 0.087031 -0.047837 0.002718 -0.118218 0.032135 -0.072104 0.010637 -0.005143 0.034335 -0.082155 -0.005903 0.006368 0.071128 0.092885 0.091685 0.029176 -0.042894 0.000244
lion -0.084662 0.067357 0.049185 -0.089766 -0.014975 0.001162 0.039582 -0.017923 0.024172 -0.018115 -0.012120 -0.069748 0.019783 0.015559 0.022016 0.055258 -0.044818 0.010282 -0.061628 -0.043092 -0.026693 -0.080060 0.049565 -0.028728 -0.007088 0.003642 0.011273 -0.012759 0.006650 -0.018160 0.068731 0.008634 0.059173 0.047594 0.067907 -0.032715 -0.028218 -0.024470 -0.131552 -0.028707 0.020092 0.061796 -0.036954 0.026720 0.017145 0.018610 -0.096566 -0.006064 -0.038127 0.014409 -0.001684 0.001086 -0.036862 0.017377 -0.045805 0.010713 -0.029927 -0.104850 0.102148 -0.014467 -0.056740 0.088358 -0.009073 -0.154386 -0.037623 0.025620 -0.039087 -0.046890 0.082268 0.077142 0.032252 -0.066721 -0.030069 0.011512 0.039595 0.000648 -0.007804 -0.145921 0.073960 0.005946 0.050586 0.002897 -0.000282 0.031812 0.046738 0.056625 -0.111719 0.035292 -0.130141 0.084380 -0.016439 -0.082390 -0.051060 -0.013504 0.149824 0.034073 -0.034486 0.061066 -0.069683 0.011509 -0.019919 0.010959 -0.003862 0.020154 -0.058372 -0.058344 0.112601 -0.061745 -0.023786 0.017963 0.017145 0.049361 0.016543 0.042364 -0.013511 -0.020347 0.046134 0.046150 0.017972 0.032694 0.061676 0.013386 -0.054140 -0.128470 0.047044 -0.070077 -0.017445 0.017900 -0.105859 -0.114649 0.050671 0.014006 -0.021190 0.005029 0.049252 0.013834 0.019542 0.040575 0.013063 -0.024757 -0.019891 0.020526 -0.070138 -0.005689 -0.059812 0.007118 -0.003591 0.035562 0.116143 0.038336 -0.050311 0.059833 -0.049699 0.034811 -0.070483 -0.038054 -0.128639 -0.048162 0.055415 0.046182 -0.097306 0.029327 -0.098963 -0.068510 -0.177824 0.128240 -0.045610 0.024196 -0.048881 0.029813 0.122628 0.075479 -0.023307 -0.126853 0.014192 -0.032442 0.056734 -0.006722 -0.064474 -0.054429 -0.046382 0.035436 0.018083 0.025819 -0.019241 0.006215 0.046520 0.023163 -0.036733 0.022704 -0.074112 -0.075050 0.031547 -0.018621 -0.005641 -0.046091 -0.091654 -0.162322 -0.071252 0.059133 0.007728 0.002631 0.006645 0.011935 0.066443 0.119941 -0.019794 0.058479 -0.071610 -0.037188 -0.003662 -0.014001 -0.136177 0.076395 0.034916 -0.028952 -0.002650 0.030370 0.006648 -0.091099 0.109638 0.111896 -0.039738 -0.052451 0.026922 -0.106487 0.020419 0.046143 0.052668 0.079378 0.032214 -0.099545 -0.046282 0.011346 -0.008648 0.021881 -0.039890 0.022026 -0.047083 0.068282 -0.049313 -0.045291 -0.010706 -0.088924 0.001740 -0.061877 -0.013680 0.019080 -0.000134 -0.079669 0.055273 0.053413 0.065631 -0.036158 -0.076203 0.055179 -0.031964 -0.028685 -0.047778 -0.031579 -0.025798 0.002906 0.012964 0.018939 -0.160244 -0.083819 -0.001788 0.098318 -0.003435 0.000813 -0.015941 -0.050928 0.015777 -0.082437 0.048497 0.064734 0.021870 -0.004192 0.013191 0.048160 -0.018299 0.065977 -0.035332 0.065792 0.042506 -0.070664 0.037541 0.164540 0.005658 -0.001855 0.020000 -0.017150 -0.065409 0.062799 -0.109021 0.076773 -0.020012 -0.013366 -0.022070 -0.030498
meat 0.009193 -0.078593 0.085297 0.066583 -0.026652 0.059949 0.051007 0.062490 -0.050000 0.048949 -0.006951 0.071065 0.062850 0.057242 -0.015089 -0.024524 0.012394 0.040243 -0.044779 0.011897 -0.026847 -0.040020 0.051638 -0.033944 -0.018422 0.027339 -0.033651 -0.019560 -0.004444 -0.028086 -0.011016 -0.067235 0.037281 0.018275 0.125124 -0.021140 0.033812 0.039262 0.008264 0.005017 -0.023001 -0.027979 0.095337 -0.053601 0.079150 -0.075649 0.018414 0.101061 -0.020076 -0.133566 0.026614 -0.011976 -0.056670 0.033631 -0.039101 0.054251 0.055551 0.025194 -0.009897 -0.026509 -0.062290 0.023412 0.133178 -0.099382 0.023265 -0.017514 0.038995 -0.030074 -0.021811 -0.090216 0.062112 -0.009663 0.020953 0.079075 0.121898 -0.022094 -0.040832 0.002866 -0.116216 -0.029470 0.024974 0.006185 -0.046508 0.002949 -0.018418 0.085823 -0.114478 0.065017 -0.025370 0.191668 0.131875 -0.026428 -0.085098 0.004713 0.096216 -0.056716 -0.079420 0.051845 0.015606 -0.091087 0.048728 -0.002966 0.042517 0.020702 0.043363 0.028152 0.020343 -0.070906 -0.046076 -0.036105 -0.095434 -0.072284 -0.078763 -0.033357 0.058147 0.014610 -0.011634 0.028079 -0.038296 0.044557 0.000142 0.089088 0.031200 0.029116 -0.096827 0.039696 -0.074596 0.122238 -0.045420 0.010376 0.007947 0.008343 0.079826 -0.056133 -0.065734 -0.148090 0.046121 0.030278 0.016985 -0.064239 -0.032113 -0.022278 -0.004420 -0.044725 0.002705 -0.035338 0.060750 -0.114082 -0.113650 -0.022292 -0.084051 -0.138548 -0.049772 0.042493 -0.008532 -0.112343 -0.048840 0.033113 -0.023204 0.009870 0.040800 0.081007 0.045798 0.018134 -0.094152 -0.003471 -0.066087 -0.023282 0.034297 -0.035535 -0.071806 0.026476 0.060697 -0.024089 0.016512 -0.035267 0.053453 0.053630 0.068798 0.014438 -0.044535 0.020494 -0.072127 0.055104 -0.031821 -0.029444 0.028581 -0.120564 0.052843 -0.011293 -0.059042 -0.038411 -0.124781 -0.067104 -0.003460 -0.025081 0.100359 0.008747 -0.000151 -0.050330 0.075106 -0.129006 0.054420 -0.054164 0.023980 0.024853 -0.036530 0.084084 -0.055772 0.009094 -0.056334 -0.034641 -0.020587 -0.080035 0.011249 -0.003661 -0.008014 -0.060681 -0.066288 -0.002041 0.095679 -0.066458 -0.043357 -0.042511 -0.000700 0.094652 0.015273 -0.027224 -0.155280 -0.025617 0.094803 -0.040907 -0.014459 0.050991 0.073750 -0.062625 0.022539 0.019005 -0.022288 -0.058624 -0.061281 0.081797 0.013638 0.070282 -0.028764 0.023186 -0.006739 -0.060025 -0.074126 0.063971 0.124593 -0.007686 -0.046420 0.057261 -0.004448 -0.057040 -0.012173 -0.009546 -0.001246 0.105149 -0.027539 -0.051856 0.073505 0.027433 -0.078784 -0.081340 0.013531 -0.077264 -0.012948 0.050338 0.003137 -0.002494 -0.044938 -0.030471 -0.024765 -0.061161 -0.008744 -0.055006 -0.023751 -0.077981 -0.028724 0.047171 -0.047842 0.008439 0.004628 0.041427 -0.014216 -0.022714 -0.002657 0.032004 0.002502 -0.011004 0.045733 0.165296 -0.079408 -0.012232 -0.018508 0.029027 -0.060086 0.051243
milk 0.048917 0.080433 0.026539 0.048829 0.090023 0.000985 -0.023424 -0.004047 -0.018206 0.004699 0.050012 0.083606 -0.086400 0.035226 -0.054048 -0.004628 -0.018715 0.059895 0.044942 -0.013975 -0.006922 -0.064010 -0.037513 -0.027222 0.075719 -0.125247 -0.043528 -0.065407 0.037796 0.003993 0.038262 0.015741 0.054838 -0.041172 -0.080897 0.002353 -0.142730 -0.019439 0.004605 0.054461 -0.065408 -0.046614 -0.055923 0.093626 -0.081634 -0.061372 -0.064492 0.034945 -0.059860 0.002622 0.036021 -0.066685 0.105553 0.006224 0.050986 0.071962 0.015484 0.044833 0.037645 0.006189 0.131709 0.013108 0.017073 0.089277 0.026078 -0.012552 -0.063432 -0.052427 0.071247 0.053739 0.050999 -0.081382 -0.025453 0.037619 0.016346 0.029668 0.010943 -0.012250 0.069694 -0.018936 0.011640 0.017124 0.065580 0.149804 -0.019192 0.084335 -0.166625 0.037057 -0.035471 -0.017990 0.028251 0.045133 -0.019722 -0.034101 -0.080087 -0.027010 -0.024314 -0.009171 -0.048575 0.000291 -0.091604 0.012666 -0.008140 -0.075190 0.045395 0.101033 -0.062113 0.059962 -0.033767 -0.040593 -0.061002 0.055744 0.075561 -0.046157 0.045464 -0.020677 0.085906 0.009252 -0.021024 -0.022363 0.022866 -0.008468 -0.000980 -0.076800 0.035616 -0.004294 -0.082620 0.067345 -0.004061 -0.041149 0.060484 -0.136070 0.003813 0.007089 0.003729 0.016374 -0.001410 0.053309 -0.059618 -0.044029 0.018723 0.095462 -0.037869 0.046343 -0.052121 0.046115 -0.014069 -0.059525 -0.053767 -0.007645 -0.010369 -0.069931 -0.032516 0.029895 -0.108709 -0.002586 -0.061737 0.066530 0.025337 -0.094684 -0.017381 -0.056023 0.089373 -0.020280 -0.029101 -0.022606 -0.034587 0.019237 0.020790 -0.004006 0.083570 -0.034730 0.110954 0.010134 0.047899 0.038779 -0.001325 -0.078478 0.030660 -0.040227 -0.035409 -0.084537 -0.057049 -0.068261 0.030427 -0.011450 0.070973 0.036323 -0.057794 -0.036790 0.102679 -0.042368 -0.046869 0.038276 -0.072495 -0.037987 0.009391 0.079640 -0.027293 -0.011929 -0.137976 0.025014 -0.002882 0.006492 -0.033746 -0.008657 0.085865 0.048150 -0.030477 -0.045069 0.007818 0.004325 0.037897 0.121467 0.035506 0.012019 -0.023837 0.017460 -0.062530 -0.033776 0.060037 -0.050682 -0.039359 -0.035217 0.008516 -0.019494 0.028051 -0.058671 -0.134372 -0.102107 -0.001203 -0.051749 -0.027073 -0.018642 -0.033392 -0.106323 0.082170 -0.014287 0.045073 -0.097308 -0.018472 0.109795 0.079053 -0.015543 0.035813 -0.034909 0.103003 -0.019474 -0.033288 0.073562 -0.032603 -0.051366 0.058014 -0.039593 -0.128784 -0.066152 -0.088337 -0.050265 -0.078187 0.074505 -0.091153 0.127828 0.025466 0.037664 0.002344 -0.062896 -0.069147 0.054936 0.042937 0.114655 -0.085520 -0.003835 -0.009790 0.058177 0.012392 0.085499 -0.034314 0.133876 -0.009792 0.034609 -0.047304 0.041141 0.054474 -0.085666 -0.058677 -0.056563 0.002116 -0.030021 -0.036661 -0.007011 -0.099661 -0.044534 0.128483 -0.025944 -0.071751 -0.113141 0.041564 -0.042700 -0.012524 -0.042656
rice 0.036311 -0.095601 0.080687 0.067393 0.024168 0.003635 -0.064351 -0.009774 -0.014735 -0.061012 -0.006410 -0.050590 -0.012281 0.052970 -0.045957 -0.014072 -0.017923 0.003919 0.013863 0.007796 -0.100120 -0.063334 0.048064 0.149158 0.045869 0.018231 0.036464 0.005236 -0.016847 -0.164472 -0.031972 -0.046640 -0.145374 0.076909 0.020552 -0.006773 0.055071 0.001780 0.066336 -0.074102 0.072197 0.068482 0.003483 0.007121 0.021156 0.012199 -0.030940 -0.041939 -0.154315 0.003655 0.011028 0.105510 -0.015112 0.059154 -0.117793 -0.017427 -0.028742 0.028084 -0.162202 0.032146 0.056746 0.014950 0.068006 -0.063091 0.030778 -0.028988 0.051526 0.009652 0.022584 0.008303 0.083119 0.078810 -0.066253 -0.070790 0.043684 0.005188 -0.108261 0.084807 -0.106187 0.011210 0.020643 0.065186 -0.023015 0.018751 -0.051400 -0.073551 -0.072626 -0.039715 -0.088236 -0.016225 0.061374 0.069345 -0.069375 0.035492 -0.023493 -0.059332 -0.007666 0.125498 -0.039209 0.040991 -0.190497 -0.079299 0.063248 -0.043419 0.001485 -0.074103 0.082322 -0.006082 0.028683 0.032769 0.039604 0.098926 -0.005658 -0.073527 -0.071814 0.007250 0.020723 -0.014530 -0.047963 0.029426 -0.012053 -0.040246 0.048966 0.064802 0.066462 0.035494 -0.022649 0.074745 -0.040142 -0.042332 -0.068826 0.003919 -0.010021 0.065244 -0.016607 -0.135755 0.002908 0.095337 -0.058218 -0.009858 0.048766 0.030430 -0.161538 0.027153 0.000918 -0.082219 0.036227 -0.044999 0.070297 0.018682 0.091490 -0.007620 0.080182 0.026849 0.027682 0.022913 -0.003252 0.056177 -0.061001 0.046247 -0.046880 -0.057436 0.009305 0.031028 0.213033 0.017692 0.056795 0.008818 -0.029720 0.006134 -0.042516 0.012193 0.034716 0.069913 -0.052791 -0.052632 -0.034188 0.013259 -0.102975 0.025439 -0.032109 -0.017963 -0.045483 0.051605 -0.074554 -0.027581 0.060100 0.031697 0.041363 0.056533 0.059434 -0.035390 -0.083946 -0.067316 0.000455 -0.066466 0.058879 0.048560 0.072075 -0.004978 -0.014551 -0.005219 0.082898 0.063179 -0.011192 0.008124 -0.011234 0.046033 -0.028020 0.026584 -0.030893 0.060439 0.026857 0.021214 -0.015061 -0.041345 0.002034 0.029366 -0.047795 0.046853 0.030681 0.002025 -0.042438 -0.039264 -0.126362 -0.007618 -0.049575 -0.015432 -0.039526 -0.020978 0.081016 0.049504 0.039322 -0.027769 0.043762 -0.015557 0.025978 -0.031607 0.052894 -0.014496 -0.040495 0.028490 -0.029047 -0.041116 0.054578 -0.022434 0.046019 -0.088122 -0.055580 -0.040658 -0.060061 -0.031777 0.004224 0.017290 -0.105593 -0.052312 0.068034 -0.068404 -0.102935 -0.089741 0.047182 -0.113155 0.092784 -0.027885 -0.028048 0.025027 -0.037706 0.095678 0.046527 -0.047677 0.062951 -0.003384 -0.038165 -0.039488 -0.006095 -0.109476 0.021037 0.006650 0.097368 -0.033320 -0.005989 -0.019460 0.036200 0.011289 0.006019 -0.089299 0.052491 -0.004188 -0.038206 0.044534 -0.115689 0.029229 0.074669 -0.042174 -0.002296 0.005281 -0.009599 0.012495 -0.014522 0.063118
saw -0.066607 0.053616 -0.061618 -0.045034 0.049298 0.082552 0.018169 0.052717 0.055130 -0.018789 -0.067020 -0.061722 -0.110878 -0.065681 -0.069814 0.076426 -0.017293 0.017880 0.073565 0.036093 -0.056139 -0.055847 -0.058742 0.043740 -0.107980 -0.042019 -0.045770 0.002758 0.060447 -0.045005 -0.014618 0.076257 -0.120241 -0.041092 0.099371 -0.027836 0.083813 -0.045892 0.013055 0.068697 0.055797 -0.025977 0.010986 -0.027258 -0.027590 0.045685 -0.000954 -0.103089 0.059950 0.002567 -0.057799 0.015036 0.038109 0.015792 0.001888 0.038399 -0.069367 0.012013 0.040710 -0.003999 0.060516 0.008345 0.093531 -0.081343 0.086249 0.057163 0.059673 0.009281 -0.034896 0.051325 -0.031031 0.104251 0.001270 -0.076817 0.048062 0.108281 0.021614 0.011962 0.045955 -0.071251 -0.036387 0.005683 -0.013342 -0.000865 0.060063 0.091045 -0.061203 -0.094628 0.028557 0.045980 0.013397 -0.042574 -0.009108 -0.065258 0.107981 0.071718 -0.001214 -0.036951 0.045382 -0.053557 -0.027055 -0.076635 0.054650 0.018327 0.015426 0.017466 -0.099801 0.049081 -0.082286 -0.063167 -0.079826 0.020208 0.014474 -0.013191 -0.091973 -0.149497 0.105721 0.005374 -0.031168 0.129086 0.078806 -0.022122 0.061336 -0.055495 -0.039223 -0.005629 0.017367 0.058376 0.003152 0.021486 -0.020123 0.065196 -0.077518 0.017928 -0.029468 0.022005 -0.036044 0.021852 0.051107 0.003370 -0.029098 -0.000178 -0.001079 -0.028489 0.086144 0.041583 0.030937 -0.068089 -0.026400 -0.055499 -0.093456 0.053101 -0.063453 0.046929 0.021130 0.138001 0.004769 -0.074453 -0.010846 -0.011345 -0.017381 0.205712 -0.100438 0.023206 -0.111051 -0.033457 -0.006428 -0.114546 0.078323 -0.037728 0.041208 0.060865 -0.009825 0.095680 -0.066043 0.066364 0.055656 -0.021463 0.032654 -0.121833 -0.006418 -0.021452 -0.038649 0.001096 -0.049669 0.031691 0.061975 0.029564 0.003777 -0.029145 0.089161 0.090473 -0.022292 -0.141121 0.136364 0.065707 0.010069 0.031768 0.030215 0.081943 0.082216 0.030560 0.099851 0.059891 -0.082206 -0.108556 -0.058938 -0.007315 -0.016943 0.043359 0.006948 -0.014363 0.038472 -0.050963 -0.018475 -0.007206 -0.033146 0.066197 0.005202 -0.051066 0.016883 -0.012719 0.001406 -0.061115 -0.015362 -0.015508 0.010730 0.137183 0.082221 0.062615 0.032734 0.080921 -0.049550 0.010642 -0.014074 -0.009935 0.083550 -0.025071 0.028188 0.028205 0.079434 -0.061658 -0.038905 -0.031800 0.059118 0.013959 -0.004065 -0.038091 0.120780 0.002986 -0.063064 -0.050417 -0.016465 0.033375 0.034694 -0.003263 -0.016776 -0.006327 -0.026331 -0.066357 -0.072368 -0.053459 -0.053732 -0.013856 -0.044332 -0.044321 0.043287 -0.069406 0.099890 0.003996 -0.035623 -0.035134 0.095212 -0.008043 0.004487 -0.020671 0.061894 0.055717 -0.020879 0.064706 0.084041 -0.024995 0.103309 -0.004403 -0.016933 -0.029521 -0.093788 0.009573 0.016514 0.046800 -0.034075 -0.054830 -0.046846 -0.019837 0.063866 0.030046 0.009487 -0.054605 -0.069117 -0.060247
scissors -0.021720 -0.052843 0.040826 0.026552 0.037346 0.053389 0.061796 -0.021203 -0.057700 0.023833 -0.044833 0.060666 -0.001708 -0.001895 0.127370 -0.050020 0.045221 0.017400 -0.012477 -0.024683 -0.007514 0.058418 -0.005974 0.008855 -0.026397 -0.000989 -0.065573 -0.047388 -0.086209 0.109979 0.017840 -0.021876 0.062085 0.050364 0.052937 -0.083245 -0.022847 -0.000912 -0.003402 -0.010735 0.105666 0.034281 0.066239 0.024380 0.023400 -0.026691 0.002086 -0.078722 0.050812 0.039116 -0.027902 0.000578 -0.091857 -0.007376 -0.015882 -0.038660 -0.086761 -0.044870 0.046495 0.058603 -0.076368 -0.045421 0.028567 0.090602 -0.001587 -0.031133 0.025442 0.122677 -0.074732 -0.027027 -0.005056 0.090897 0.035366 -0.171547 0.010833 -0.089618 -0.026904 0.048310 0.175261 0.008609 0.009536 -0.076614 0.007423 0.082298 0.063792 -0.106630 0.018389 0.063591 -0.035883 0.025254 0.013677 -0.158440 -0.079174 -0.079981 0.054582 0.052067 -0.052302 0.041871 0.030528 -0.125764 0.058808 0.083958 0.020743 -0.025919 0.001995 -0.000405 -0.026619 -0.135713 -0.070533 0.047267 0.036690 0.061463 0.004383 -0.098516 0.022651 0.024152 0.110174 0.051446 0.001272 -0.030687 -0.003063 -0.044364 0.106739 -0.068172 0.052238 -0.067571 -0.009056 0.085225 -0.040905 -0.076526 0.013720 0.085757 -0.068551 -0.057638 0.002969 0.102072 -0.024913 0.008692 0.017093 -0.077675 0.002731 0.009486 -0.017852 0.023498 0.005047 0.034512 -0.000843 -0.018805 -0.175692 -0.028083 -0.022255 -0.044421 -0.034229 0.031089 0.014411 0.115606 0.101092 0.021956 0.048786 -0.024753 0.040442 -0.017881 -0.031039 0.008913 0.075113 0.025979 0.001462 0.057575 -0.017080 -0.051595 -0.057499 0.019661 -0.012374 0.010389 -0.093205 -0.053057 -0.027721 -0.031182 -0.032325 -0.124168 0.060230 -0.077842 0.034476 0.036499 0.024833 -0.065442 0.070159 0.055230 -0.021535 0.031125 0.003270 0.044355 -0.074887 0.039325 0.012632 0.042211 0.042420 -0.089661 -0.065893 -0.043690 0.063644 -0.028427 0.035455 0.049630 -0.020594 -0.051243 0.015893 -0.052942 -0.067009 0.018615 0.032426 0.054775 0.060546 -0.042963 0.021239 -0.070565 0.032325 -0.087130 0.056106 -0.044881 -0.024478 -0.097218 -0.021816 -0.020410 -0.040453 0.030443 0.063722 0.020536 -0.040365 -0.028364 -0.020367 -0.018857 -0.023971 -0.093524 -0.071906 -0.051446 0.087487 -0.024547 0.017561 0.022364 -0.016281 -0.110831 0.069876 -0.062953 0.005536 0.041879 -0.027772 0.093763 -0.030568 0.022261 -0.008535 -0.036484 -0.061113 0.036454 0.062512 -0.028030 -0.014093 0.121727 -0.041707 0.068429 -0.027400 0.051525 -0.028051 0.025626 -0.105321 0.002338 -0.041150 0.065466 -0.097556 -0.023708 0.101669 -0.007228 0.030510 0.049774 -0.018706 0.083224 -0.044251 0.135314 -0.066678 0.001701 -0.135759 -0.100451 0.057043 -0.028378 0.032728 -0.100234 -0.028737 0.036070 -0.118498 0.075038 -0.025239 -0.046389 -0.003425 -0.083140 0.036695 0.041063 0.011681 -0.020670 0.009386 0.013199
screwdriver -0.077107 -0.048280 0.000005 -0.050204 0.048377 0.007480 -0.072181 -0.053342 -0.085614 0.037232 0.021022 -0.017128 -0.042986 0.004432 -0.007302 -0.045013 -0.002716 0.208890 0.006425 -0.033350 -0.066272 0.063261 0.005823 -0.039602 -0.011137 0.033012 -0.035776 0.005093 0.016370 0.054497 -0.023463 -0.029531 0.031780 0.048250 -0.021618 0.109446 -0.086263 -0.074069 0.027653 -0.049082 -0.041025 0.047480 -0.136823 -0.080404 -0.107217 0.083757 -0.113823 -0.114297 0.038279 0.049712 0.003553 -0.050351 0.068200 0.040025 -0.030892 0.061981 -0.066326 -0.080256 -0.072417 0.043919 -0.028843 0.021356 0.071880 0.009791 -0.007860 -0.007421 -0.029551 -0.057939 -0.091557 -0.004811 -0.041586 -0.013265 0.017847 0.121708 0.052162 0.037237 -0.007172 0.011553 0.055022 -0.016912 -0.027961 -0.073507 0.006079 0.012556 0.031613 0.062195 -0.111168 0.009233 -0.070947 0.043089 0.016781 -0.136638 0.029818 -0.030024 -0.058187 -0.025104 -0.039118 0.048800 -0.040678 -0.041161 0.115658 0.003297 0.015420 -0.000445 0.052573 0.001916 -0.027222 0.069746 -0.064616 -0.022911 -0.137442 -0.016700 -0.044857 0.030264 0.017771 -0.106435 0.106070 0.012068 0.015908 -0.018590 -0.022486 -0.004753 0.001204 0.034699 -0.004596 0.002436 -0.063286 -0.007780 -0.012342 0.128744 -0.070534 0.016016 -0.045896 -0.012686 -0.037758 0.072023 0.031151 0.013128 -0.044108 -0.111666 -0.026369 -0.016916 0.013428 -0.093637 -0.022097 0.030502 0.061055 -0.030795 -0.108075 -0.056237 -0.056279 -0.057427 -0.104361 -0.027109 -0.022953 -0.024588 0.027147 0.081380 -0.010697 0.097258 0.059290 0.063432 -0.019052 -0.143733 0.071233 -0.060802 0.002939 0.042683 -0.031422 0.022266 -0.017405 0.028792 0.027124 0.152585 0.001672 0.007050 -0.067801 -0.057410 0.114178 -0.030985 -0.022636 -0.007907 0.042364 -0.040089 -0.008929 -0.051021 -0.004028 0.062755 0.008780 0.048355 -0.020089 0.096528 0.030442 0.079973 0.079356 -0.126688 0.000928 -0.069391 -0.005745 0.014157 -0.022449 -0.030829 -0.054103 0.067446 0.044812 0.069992 -0.007578 -0.019202 -0.028098 0.062126 -0.053544 -0.044872 0.067563 -0.031139 0.044892 -0.014023 -0.013853 -0.004410 -0.008720 -0.059452 -0.001314 0.004467 0.042186 0.088497 0.033282 -0.017862 -0.147208 0.050215 -0.073253 0.055744 -0.109005 0.007573 -0.049018 0.046125 0.031793 0.020339 -0.053706 0.006166 -0.039855 -0.020938 0.016679 0.111845 -0.005603 0.022767 0.003167 -0.034186 0.025953 -0.037562 -0.086538 0.080018 0.049813 -0.130612 0.018161 -0.056059 -0.030688 0.069221 -0.004521 -0.002326 0.018633 -0.073029 -0.010046 0.048507 -0.030757 -0.018369 0.117327 0.085326 -0.167550 0.055379 -0.007594 0.057873 0.058267 0.063019 0.093778 -0.072311 0.036547 0.004568 -0.081557 0.031911 -0.095598 0.006390 -0.036571 0.053698 -0.038973 0.068938 -0.027470 -0.019826 -0.054020 -0.069398 -0.026603 0.057372 0.074484 -0.007874 -0.006499 0.032973 -0.042359 0.089341 0.073671 -0.072814 -0.017107 0.012207
ship -0.049234 -0.003881 -0.013643 -0.038085 -0.027766 0.073537 0.053283 -0.016394 -0.019256 0.012577 -0.043519 0.005629 0.036335 -0.062788 -0.062793 -0.084787 -0.037647 0.092385 -0.098063 0.047274 -0.004039 -0.072265 -0.011578 0.020725 0.002535 0.067972 -0.092374 0.010546 0.007465 0.051558 0.029781 -0.075493 0.027153 0.025164 -0.083942 0.038385 0.068565 0.072571 -0.085688 0.066077 -0.026086 -0.030928 -0.170327 0.013135 0.036229 -0.148148 -0.090756 0.122015 0.022939 0.078321 0.092666 0.056475 -0.090753 0.051679 -0.024557 0.063844 0.038356 0.007692 0.042326 -0.048743 -0.023477 -0.035455 0.058925 0.049565 0.055930 0.066017 0.031241 0.027557 0.075859 -0.032519 0.032471 -0.038567 0.081707 0.017663 -0.051864 0.053209 -0.028001 0.133564 0.013450 -0.066448 0.013014 -0.033140 0.027236 -0.117622 -0.016287 0.118334 0.090087 -0.072991 -0.107369 -0.064106 0.027459 -0.042911 -0.029859 -0.006764 0.024637 0.036867 0.009820 -0.038161 0.007316 0.041545 0.134179 -0.015506 -0.058411 -0.037864 -0.063978 0.031054 0.073840 0.002343 -0.056061 0.093854 -0.019479 0.127299 -0.078486 0.054154 -0.049311 -0.013543 0.028100 -0.109620 -0.000744 -0.047421 -0.031065 -0.009796 -0.065530 0.036859 -0.055065 0.072294 0.006961 -0.012770 0.002779 0.019342 -0.032605 0.023535 -0.068951 0.052883 0.018918 -0.011960 -0.052718 -0.075441 0.025266 -0.075341 -0.030255 -0.036000 0.132992 0.013032 0.009686 -0.098789 -0.076483 -0.031041 0.022911 -0.018230 0.122782 -0.005786 -0.024404 0.102517 0.010722 -0.091321 -0.085285 -0.052657 0.104077 0.035352 0.021863 -0.093743 -0.067462 -0.034864 0.037773 -0.094131 -0.010784 -0.048859 0.018658 -0.046081 -0.024551 -0.010418 0.017474 -0.016978 -0.029048 0.084723 0.002965 -0.051584 -0.017442 -0.068214 -0.081307 0.063716 0.049544 0.046265 0.036350 0.007194 -0.057369 -0.001035 -0.148723 -0.060135 0.014035 -0.004628 -0.032224 -0.004066 -0.005558 -0.128178 0.062661 0.042642 -0.027639 -0.122440 0.063055 0.022066 -0.112820 0.037004 -0.078202 0.006590 0.044948 0.021376 0.112182 -0.050408 -0.034841 -0.066411 -0.032388 0.015728 0.119363 -0.067777 -0.031261 -0.019972 -0.052639 -0.046799 -0.010169 -0.040212 -0.046558 0.031530 -0.007916 0.024281 0.071963 0.004563 -0.027595 0.015456 0.011165 0.043186 -0.012633 0.065354 0.014811 0.100410 0.005974 -0.036138 -0.019668 0.012858 -0.060380 -0.085722 0.006211 -0.039724 -0.050211 -0.002818 0.080250 -0.060000 -0.006897 0.012945 0.027179 0.022506 0.019081 0.044923 -0.075643 -0.033506 -0.007637 0.052982 0.029893 -0.050418 0.093332 -0.020613 -0.007989 0.083885 -0.134262 -0.022838 0.122768 -0.000560 -0.022297 0.057131 0.051669 -0.062863 0.032954 0.006400 0.063026 0.046303 0.024825 -0.021934 -0.045675 0.034357 -0.019135 -0.010650 0.003036 0.056524 -0.068016 0.061625 -0.096243 -0.000770 -0.008205 -0.044014 0.126971 -0.076321 0.103928 -0.013175 0.064177 -0.030208 -0.002997 0.012305 0.012198 -0.056319
tiger -0.024039 -0.136521 -0.057744 0.045340 0.097791 -0.028790 0.026843 -0.033191 0.048916 0.056327 0.027214 0.043849 0.067819 0.082449 -0.028054 -0.059159 -0.101459 0.028695 -0.039964 0.044347 -0.045436 0.096734 0.052550 0.052632 0.045690 0.035539 -0.026295 -0.020502 0.064831 0.072398 0.106168 -0.002673 -0.002245 -0.027462 0.028614 -0.114905 -0.015334 -0.008881 0.065354 0.097122 0.007488 -0.081961 -0.090525 0.016132 -0.002724 -0.035622 -0.066937 0.086626 0.019206 -0.000204 0.032076 -0.052479 -0.021264 -0.011899 -0.043071 -0.019770 -0.089956 -0.069440 -0.016210 -0.046351 -0.013258 -0.017350 -0.027528 -0.051632 0.021230 -0.006407 0.027391 -0.016866 0.037663 0.045123 -0.045415 -0.073761 -0.068589 -0.053640 -0.018047 -0.070302 0.072493 0.052365 0.041920 0.057640 -0.068127 0.016714 0.055077 -0.035065 0.009967 -0.030390 -0.087152 -0.046320 0.065601 -0.069346 0.036679 -0.071909 -0.179896 -0.024018 0.003047 0.028313 -0.024138 -0.090673 -0.062263 0.001616 -0.025589 -0.063692 0.035606 -0.127738 -0.021428 -0.115373 -0.141662 0.012189 -0.044736 0.082509 -0.124135 -0.043560 -0.046795 -0.093199 -0.098944 -0.100913 -0.079119 -0.045689 0.096965 0.036640 -0.087793 0.029292 0.111351 0.043236 -0.019354 0.068018 -0.004944 -0.034338 -0.067733 -0.032696 0.000434 0.040628 -0.031534 -0.053835 0.037065 0.002502 0.002271 -0.007689 0.096991 0.102506 -0.059527 -0.019799 0.026626 -0.005612 -0.072954 0.023083 -0.023409 -0.062259 0.078692 -0.057469 0.060199 0.042340 -0.007419 0.054878 -0.098607 -0.058815 0.012428 0.033406 0.060240 0.025751 -0.094247 0.055179 0.067344 -0.041494 -0.007207 -0.014869 0.055435 -0.038941 -0.042267 0.075826 0.013875 0.040149 -0.016876 -0.032023 -0.057218 0.059942 -0.173234 -0.058539 0.003547 0.047457 -0.077589 -0.078814 -0.068593 0.104130 0.032533 -0.013174 0.007836 -0.004823 0.083660 0.043813 0.018196 0.015895 -0.020871 0.009453 0.047949 0.069058 -0.170584 0.113618 -0.012000 0.054483 0.087486 0.007484 -0.083795 -0.016465 0.021072 -0.044033 -0.084038 -0.040527 0.025749 0.000668 -0.035520 -0.089679 0.043093 0.020685 0.025603 0.047978 -0.011493 -0.022828 -0.016042 0.008138 -0.056375 0.013632 -0.070226 0.013894 0.014222 0.003423 -0.111965 -0.078266 0.052892 0.061511 0.028907 -0.045029 0.013528 0.030689 -0.052674 0.060055 0.032077 0.034997 -0.070142 -0.032423 -0.010808 -0.101710 0.024151 0.025117 0.016012 -0.022116 -0.005068 0.047695 0.032302 -0.001295 0.014661 0.092661 -0.019285 -0.043820 -0.068872 -0.016394 -0.012153 -0.078104 -0.070150 0.044069 -0.093965 0.023539 -0.093165 -0.016113 -0.041826 -0.039384 0.012365 -0.038506 -0.064087 -0.061794 0.032943 -0.038134 -0.032366 -0.066607 0.004062 0.141440 0.031954 -0.068741 0.008589 0.036818 0.097667 -0.073316 0.059808 0.070450 -0.035907 0.019189 0.052821 -0.011100 -0.076367 -0.023388 -0.064197 -0.006385 -0.013351 0.049733 -0.043390 0.049499 0.048305 0.039431 0.052181 0.083419
train -0.001450 -0.067674 0.028248 0.082749 -0.059067 -0.015594 0.060198 -0.022165 0.001990 0.003477 0.005908 -0.011952 0.078399 0.025517 -0.017324 0.000479 0.059157 0.024785 -0.021839 0.036288 -0.017966 -0.028220 -0.080524 0.035933 -0.001686 0.049889 -0.033342 -0.000376 0.004903 -0.002025 -0.001656 0.111022 0.071293 0.015439 0.000639 0.073228 0.028088 0.058316 -0.008336 0.070880 -0.037870 -0.042085 -0.015633 0.002504 -0.084371 0.008347 0.098239 -0.024165 -0.034899 -0.012524 0.106392 -0.006718 0.013084 0.000187 -0.104817 -0.024426 -0.089412 0.046427 -0.010151 -0.007967 0.078356 -0.047201 0.016313 0.040781 -0.095397 0.018282 -0.074256 -0.005920 0.063619 -0.039972 -0.021768 0.071094 0.101484 0.033307 -0.020878 -0.007228 -0.113469 0.046182 -0.042079 -0.095687 -0.006370 0.022637 -0.003091 -0.019532 0.004115 -0.052304 0.133319 -0.007770 0.022035 -0.026728 0.114007 0.022371 -0.034695 0.030320 0.082028 0.099095 0.025552 0.059778 0.014636 0.014425 -0.003417 0.071036 -0.019832 0.033243 -0.030531 -0.039642 -0.124871 -0.005829 -0.020770 -0.124590 -0.052478 -0.005892 -0.073990 0.046586 0.084797 0.071730 -0.078217 0.074909 -0.131691 -0.146267 0.032454 -0.007299 -0.028995 0.037366 -0.004511 0.012338 0.090968 -0.004572 -0.079722 -0.035255 -0.055364 0.010133 -0.077963 0.094627 0.024845 0.018885 -0.066739 -0.006104 0.044716 0.038571 -0.069890 -0.039105 0.066729 -0.061856 0.121986 -0.023895 0.013022 0.002356 0.123434 -0.074192 -0.022553 0.042827 0.012360 -0.074360 0.071200 0.054903 -0.018490 0.037963 -0.060136 -0.012609 -0.009526 -0.019502 -0.017575 0.000591 0.068217 0.001662 -0.096171 0.015009 -0.020970 0.084091 -0.081666 -0.006190 0.022541 -0.021562 0.059580 0.007316 -0.108128 0.039979 0.018850 0.046496 -0.036313 0.071879 -0.042882 0.021410 -0.003782 -0.062551 0.025004 -0.019119 -0.014367 0.041411 -0.066256 -0.051820 -0.000838 -0.151727 0.109310 0.032976 0.066693 -0.046167 -0.002607 -0.062759 0.007679 0.003583 0.001506 -0.119579 -0.006294 -0.040399 0.038943 0.059893 -0.005619 0.143336 -0.035592 0.044038 0.001871 0.056692 0.050634 0.089542 -0.118243 0.085141 0.076669 0.012428 0.011449 0.017514 0.007352 -0.063308 0.045276 0.065031 0.085618 0.093957 -0.039893 -0.047320 -0.014500 -0.030292 0.020307 0.016761 0.062636 0.019379 -0.043011 -0.065403 -0.064638 0.031071 0.065486 -0.087072 0.068167 0.035192 -0.009120 -0.005549 0.015123 -0.000116 0.064821 0.022546 -0.041626 0.091947 0.069582 -0.103225 0.050459 0.000666 0.175662 -0.034310 -0.014554 0.042803 0.043091 0.024977 0.033545 -0.064747 0.006281 0.058117 0.052007 0.068519 0.010556 -0.001367 0.050924 -0.057017 0.026639 -0.115506 -0.093630 0.001923 -0.022198 -0.101537 0.018972 -0.006124 -0.007276 0.033410 -0.012118 -0.105036 0.066414 0.000979 -0.016823 -0.029617 0.051277 0.053149 0.144701 0.046074 0.003053 0.061140 0.141593 -0.046981 -0.057008 0.122637 0.072773 0.080847
truck 0.037665 0.065552 0.026383 0.067676 0.029730 0.088153 0.010829 -0.004777 -0.003359 -0.024001 -0.102478 -0.059192 0.074687 -0.021479 -0.025502 0.072878 0.018946 -0.070103 0.051025 -0.064840 0.110874 -0.022454 0.019513 -0.030908 -0.102484 0.001705 -0.081423 0.066379 0.047002 0.021936 -0.052995 0.099637 0.079550 -0.020406 0.109306 0.027108 -0.035870 -0.018952 0.070924 -0.036261 -0.131950 0.030106 -0.124873 -0.072023 0.107188 -0.092094 -0.070709 0.064499 -0.071314 -0.041042 0.015987 -0.009943 -0.010782 0.078832 -0.007917 0.110778 -0.043024 -0.039271 0.123158 0.035956 0.001676 0.003333 0.105458 0.013662 0.028188 -0.004338 -0.003778 -0.105193 0.030502 0.107327 -0.002672 0.063316 -0.000044 -0.040522 0.049736 -0.024442 0.034828 -0.084431 -0.026280 -0.044356 -0.002317 -0.052517 -0.073460 0.022989 -0.012972 -0.067304 0.027185 -0.023722 0.009968 -0.059595 0.025390 -0.079679 0.061284 -0.036235 -0.020274 -0.024622 0.063139 -0.048885 -0.097381 -0.035380 -0.044426 -0.054149 0.064354 -0.021362 -0.027000 -0.104117 0.023484 0.009391 0.033524 0.057763 -0.048922 -0.023289 -0.062300 0.002426 -0.005597 -0.065741 0.011334 -0.042721 -0.050084 -0.025357 -0.038669 0.099238 0.015313 -0.036174 0.025300 -0.000966 0.025197 0.074955 -0.124046 0.028063 -0.070166 0.031730 0.018567 0.035048 -0.059590 -0.013392 0.074331 0.080999 -0.049133 -0.038385 -0.058331 -0.029783 -0.032483 -0.012979 -0.051831 -0.093771 0.031830 -0.090168 -0.023559 -0.027960 0.016563 0.013301 0.010129 -0.076618 0.049295 0.058495 0.129760 0.054609 0.004981 -0.051213 -0.060834 -0.041316 -0.057384 -0.038753 0.013998 0.033481 0.037941 0.029702 -0.021850 0.084660 -0.020472 0.071974 -0.012558 0.156462 0.040778 0.016594 -0.001402 0.060955 0.080964 -0.016482 -0.023660 -0.017719 0.039007 0.008642 -0.003127 -0.034072 -0.087871 -0.026798 0.032512 -0.077379 -0.023794 0.000402 -0.008467 -0.032641 -0.066455 0.059300 -0.001248 0.021192 0.059815 0.035112 0.025326 0.096640 0.040295 0.064073 -0.045610 -0.032546 -0.004983 0.009060 0.010713 -0.034025 -0.005613 0.000533 -0.047466 0.034670 0.080642 -0.019024 -0.082939 -0.072276 0.025985 0.089016 -0.018983 -0.100760 0.036142 -0.007269 -0.052376 0.040495 -0.043784 0.118937 -0.104364 0.085468 -0.098309 -0.060079 0.036739 0.170739 0.075201 -0.011943 0.045679 0.000847 0.099093 -0.013707 -0.087692 -0.026473 -0.049553 0.063757 -0.117878 -0.004790 -0.099598 -0.073765 -0.048001 0.177392 -0.024781 -0.093666 -0.052266 0.040880 0.036427 0.003095 -0.072386 -0.030096 0.009189 -0.032400 0.014890 0.019776 0.033463 0.059576 -0.045067 0.035691 -0.065444 0.093227 -0.049748 -0.044755 0.029108 0.093261 0.097929 -0.061436 0.036757 0.003684 -0.070496 0.026035 -0.023335 -0.002298 -0.050542 0.062456 0.043938 0.054527 0.010681 0.079622 -0.033550 0.092765 -0.021893 -0.060433 -0.066420 -0.047694 0.037365 0.043342 -0.067598 0.053856 0.052184 0.075125 -0.008432 -0.035716
water -0.039149 0.009588 0.100490 -0.059452 -0.006692 -0.026923 -0.026264 0.028488 -0.012659 -0.099415 -0.081665 -0.004763 -0.022386 0.001555 -0.044385 -0.052222 0.047490 -0.030164 -0.015755 0.039615 0.016716 0.028826 -0.069129 0.033741 -0.080154 -0.029292 -0.054479 -0.017736 -0.076105 -0.000748 0.055111 0.122745 -0.030899 -0.035820 0.093359 0.061058 -0.028093 0.008562 0.015271 -0.076752 0.056983 -0.080212 -0.005087 0.049444 -0.091236 0.031927 -0.097999 0.084579 -0.045536 -0.003638 0.066757 -0.133312 0.043988 -0.063010 -0.002861 0.091988 -0.054388 0.080964 -0.070282 0.064088 -0.064009 -0.005316 0.001456 -0.011642 -0.020474 0.038598 -0.020390 -0.049033 -0.046811 0.008257 0.054985 0.030945 0.002643 0.118679 0.071081 -0.040509 0.021891 0.097544 -0.044645 -0.060051 -0.012820 0.047924 0.004067 0.013013 0.004513 0.036512 0.043229 -0.004824 0.036838 0.017584 -0.008331 -0.013174 -0.000012 -0.037814 -0.056173 -0.027974 0.036482 0.086369 -0.011591 0.044646 0.063695 -0.154205 0.041577 0.017594 0.057418 -0.051741 0.013357 0.051451 0.047279 0.004380 0.035063 0.094507 0.109203 0.028962 -0.082437 -0.014869 -0.037132 0.060019 0.008624 0.049946 -0.001346 0.216109 0.049497 0.037016 -0.204603 0.026421 0.018002 0.087959 -0.014962 0.015805 -0.089719 -0.130226 0.045327 0.032859 -0.041282 -0.140255 -0.063150 -0.095119 -0.007086 0.017440 -0.023490 0.023770 0.029429 0.051874 0.015536 0.012153 0.067907 -0.023445 0.069033 0.038093 0.037826 0.000496 -0.040031 0.143070 0.001245 0.005663 0.017424 -0.066474 0.022731 0.075680 0.049910 0.054338 0.035598 0.011077 -0.023451 -0.000094 0.022551 -0.036790 -0.098848 0.059050 -0.051716 -0.047237 -0.005550 0.034461 -0.028246 -0.073444 0.070668 0.087369 -0.004534 0.018546 0.002331 -0.007752 -0.058577 -0.047166 -0.017163 -0.026336 -0.060086 0.004509 0.038309 -0.019395 0.063392 0.053108 0.075417 -0.009386 -0.008199 -0.033812 -0.024569 0.142083 0.000400 -0.006045 -0.045323 0.023682 0.012697 0.030387 0.062226 0.079100 -0.004753 0.020921 -0.020922 0.009399 -0.053298 -0.036976 -0.103165 -0.051619 0.000852 0.009730 -0.039937 0.032737 0.024932 0.056680 0.038029 0.051855 -0.027498 -0.027922 0.001588 0.018711 -0.046379 -0.089125 -0.017831 0.107912 -0.014589 0.044963 0.050202 -0.032778 -0.001804 0.004414 0.007862 -0.007391 0.047877 -0.030755 -0.115698 0.012569 -0.102983 -0.022739 -0.012629 0.101821 -0.105964 0.027671 -0.084108 0.006635 0.075310 0.028517 0.001532 -0.049597 0.036538 -0.078140 -0.012281 0.053595 -0.044612 0.008473 -0.006679 -0.026682 0.077926 -0.062776 0.021462 -0.107438 -0.090924 0.075394 0.139753 0.056814 -0.037282 -0.040004 -0.033371 0.139007 0.011662 0.018252 -0.006585 0.060093 0.139228 0.047022 0.048955 0.020746 -0.084994 -0.072984 -0.003807 0.002544 -0.142710 -0.082754 0.036302 -0.034421 -0.054742 -0.088218 0.029361 0.041218 0.012924 0.038726 -0.017301 0.097306 -0.015048 -0.043753
wrench 0.005090 -0.015274 -0.037934 -0.085656 0.025491 -0.069263 0.005180 -0.000041 -0.011340 -0.011841 -0.041523 0.003183 -0.048424 0.023825 0.038953 -0.033990 -0.090405 0.013737 0.088312 -0.022206 0.049390 0.080581 0.027708 0.070800 -0.047078 0.020660 0.054042 -0.028273 -0.041141 -0.056520 -0.009352 -0.078780 -0.017755 0.000965 -0.077689 -0.113841 0.005406 -0.089336 -0.017120 0.042057 0.098104 -0.030316 -0.029265 -0.058952 -0.032430 -0.003799 0.046578 0.026519 -0.104024 0.067383 -0.032559 0.037503 0.029250 0.020912 -0.031898 -0.100098 -0.115690 -0.048375 0.003616 0.015550 0.081647 0.035492 -0.001083 0.069998 0.018487 -0.081148 0.017788 0.017918 0.075376 -0.077558 -0.023094 -0.007867 -0.080014 0.060151 -0.009888 -0.022947 -0.001326 -0.070916 0.051981 -0.041855 0.050521 -0.007871 0.016860 0.044807 -0.044792 0.092667 0.055852 -0.012358 0.024739 -0.008800 0.009481 0.088388 -0.071624 -0.006641 0.057450 -0.029607 -0.080225 -0.008630 0.064293 -0.088751 0.023534 -0.070459 -0.006045 -0.010909 -0.041465 -0.005587 0.004504 0.044601 0.035073 -0.089270 -0.094086 -0.023344 -0.023798 -0.069620 -0.065099 -0.055611 0.002098 0.005127 0.009577 0.060195 0.014546 0.096638 -0.105938 -0.027784 0.030164 0.034424 0.025082 0.040741 -0.024407 -0.004038 -0.050576 0.042380 -0.009371 -0.033902 0.031546 0.025833 -0.049028 0.085749 -0.021003 -0.024258 -0.098981 -0.000498 -0.113206 0.053687 0.035022 0.018288 0.059355 -0.031070 0.014582 -0.003438 -0.055090 0.061022 -0.040232 -0.073099 0.005472 -0.082505 0.092639 0.019795 -0.087846 0.040309 -0.107548 -0.004748 -0.023143 0.019881 0.066467 -0.000213 -0.114620 0.075111 0.118613 -0.141779 0.007036 0.111026 0.042784 -0.091077 0.068611 -0.111079 -0.016985 -0.103296 0.012193 -0.104325 0.042859 0.134145 0.011267 -0.018769 0.005050 -0.078408 0.045761 0.059922 -0.009424 0.052161 -0.015422 0.057745 0.082022 -0.055533 -0.063773 0.020735 -0.027747 0.133565 -0.081969 0.123854 0.050316 0.069820 0.023239 -0.024935 -0.059157 -0.018279 0.009566 -0.134648 0.030449 -0.005805 -0.000822 -0.014689 0.063602 -0.030856 0.124127 0.045456 -0.004972 0.051549 0.018914 -0.219644 -0.026009 -0.017175 -0.031853 0.023380 -0.048683 -0.009940 0.089288 0.018755 -0.045790 0.027931 -0.053698 -0.025882 -0.037733 0.016124 -0.089705 0.001916 -0.027682 0.072322 -0.024567 0.028338 0.081851 -0.073701 -0.029494 -0.011237 0.001422 0.072702 0.037167 0.007694 -0.037116 -0.028802 -0.017892 0.050535 0.010582 0.060666 0.074698 0.032651 0.020363 0.106880 0.060951 0.091523 0.040084 -0.019749 0.083965 0.053933 -0.000404 0.029412 0.056445 -0.016217 0.072291 -0.013566 0.052166 0.069626 -0.148816 0.004669 -0.049836 -0.008682 -0.042211 -0.052051 -0.059604 0.009958 0.011075 0.000918 0.071631 0.098602 0.062840 0.037773 -0.001381 0.017414 0.063181 0.013816 0.113409 0.051667 0.010980 -0.109270 0.017296 -0.060827 0.103826 0.027219 -0.010311 0.099908
