32 300
airplane 0.034480 -0.037112 -0.044301 -0.040597 -0.042799 0.045973 -0.035987 0.027397 0.049996 0.066466 0.028128 0.046980 0.040898 -0.010278 -0.024006 -0.115174 0.006675 -0.052191 0.015624 0.014516 -0.092106 -0.078773 -0.038138 -0.048832 0.003822 -0.076407 -0.011495 -0.094446 -0.128219 0.037419 -0.082726 -0.014609 -0.081164 -0.077916 -0.053756 -0.031911 0.032910 0.021661 -0.011118 0.037025 0.072182 0.012448 -0.017360 0.042236 0.101710 0.044018 0.111130 0.053405 0.072882 -0.069406 -0.071216 -0.035082 -0.078281 -0.039423 0.037675 -0.024011 0.045978 -0.078780 -0.045959 0.065505 0.005112 0.003555 0.113136 0.051970 -0.045333 0.083418 -0.012548 0.002747 -0.023081 0.053820 -0.066139 0.030909 0.042467 0.025238 -0.016306 0.070737 -0.024160 0.089629 0.016319 -0.070146 0.044106 0.024580 -0.012636 -0.033968 -0.023431 -0.102288 0.111601 -0.070877 -0.039499 0.061076 0.030077 0.045376 0.077937 -0.017692 -0.059123 0.049109 0.038504 -0.010199 -0.053149 0.066396 0.048493 -0.070997 0.015288 -0.094225 -0.035997 -0.057431 -0.035586 -0.043834 -0.028916 0.032429 0.008752 0.022995 0.062721 -0.023465 0.006727 0.023404 0.111661 0.063942 0.099855 0.068646 0.064789 -0.097881 0.059282 0.005019 0.018234 -0.011210 -0.002158 0.025063 0.053534 -0.083871 0.012890 -0.025997 -0.057733 0.020999 0.001022 -0.037119 -0.044781 0.026939 0.001157 -0.061266 -0.050557 -0.025030 0.023638 -0.075426 0.031362 -0.062575 0.172259 -0.047011 -0.043536 0.010325 -0.048603 0.026131 0.093929 -0.024694 0.014257 -0.031595 -0.011706 0.086364 0.047685 -0.066012 0.095411 0.066389 0.042750 -0.031295 0.012452 -0.043372 0.017852 -0.029647 -0.149529 0.088407 -0.001236 0.061440 -0.012265 0.007889 0.059262 0.001204 0.005430 0.174203 -0.011488 0.002050 0.094709 -0.045170 -0.068454 -0.073969 0.027112 0.039683 0.028481 -0.072525 0.054862 0.075683 -0.001919 -0.000092 0.042552 0.017259 0.053710 -0.053449 -0.004722 -0.085571 0.024586 0.023673 -0.008708 0.022801 -0.102646 0.064533 -0.027637 -0.015806 0.060531 -0.074931 0.062160 0.000952 -0.005442 0.029148 -0.078459 0.028275 0.021149 0.075539 -0.026146 -0.006912 0.003005 -0.013008 -0.051771 -0.037582 0.081785 -0.020119 -0.053240 0.040309 -0.090015 -0.135039 -0.001050 0.018022 0.010122 -0.062462 -0.009605 -0.081765 0.023306 -0.106671 -0.014073 0.019257 -0.106002 -0.033109 0.046488 0.083646 -0.098404 0.025270 -0.085971 -0.066109 0.097076 0.024707 -0.044339 0.014923 0.046906 0.024240 0.128849 0.027637 -0.184350 -0.028620 -0.052328 -0.008778 0.000976 -0.044295 -0.072867 0.084815 0.029540 -0.051850 0.038492 0.036913 0.062602 -0.052875 0.056053 -0.035526 0.069946 -0.005256 -0.134930 0.012478 -0.086392 -0.011925 0.001682 -0.013595 -0.092017 -0.079236 -0.039474 -0.032974 0.097166 0.052144 -0.025784 0.076054 -0.060633 0.029553 -0.023897 0.007030 0.034769 -0.051981 0.049249 0.001032 0.133381 0.000654 0.058961 0.023456 -0.065168 0.078179
apple -0.061108 -0.127217 0.046724 0.067601 0.001547 -0.030797 0.092525 0.037099 -0.039173 0.042334 -0.067322 -0.018852 -0.051957 -0.122367 -0.074077 0.057713 -0.059001 -0.016761 -0.064754 0.047469 0.005799 0.011895 -0.009301 -0.060483 -0.045286 0.044429 0.000835 0.046167 -0.169187 0.050348 -0.021618 0.105710 -0.056922 -0.004953 0.027218 -0.039745 0.056174 -0.049376 0.081532 0.033747 0.026907 -0.043840 -0.010593 0.025667 -0.107317 -0.027217 0.059689 -0.066067 0.065073 -0.043019 0.013090 -0.059074 0.024508 0.051162 0.054991 0.064204 0.078683 0.027058 -0.063414 0.083354 -0.057870 -0.025652 0.026061 0.019177 0.099740 -0.015787 -0.094557 -0.012730 0.006374 -0.011892 0.085586 0.011113 -0.073959 0.019648 -0.070512 0.086507 0.025432 -0.084921 0.059864 0.141138 -0.120350 0.047554 0.007339 -0.001800 0.013163 0.032106 -0.026058 0.079045 -0.072975 0.111808 0.097489 -0.056988 0.002647 0.068847 -0.017839 -0.005014 -0.009375 0.065246 -0.013079 -0.004420 0.047509 -0.010419 -0.054225 -0.087507 -0.086897 -0.050920 -0.087831 -0.033398 -0.008746 0.010701 -0.040435 -0.063101 -0.062553 -0.077972 -0.050819 0.028749 -0.083497 0.015649 -0.039520 0.132433 -0.099866 -0.002522 -0.016374 -0.056345 0.027243 0.008772 -0.035422 0.026968 0.036576 0.059497 -0.035574 0.086066 0.007761 -0.129094 0.040055 0.001791 -0.033027 0.060091 -0.025927 0.051488 -0.018097 0.044246 0.036095 0.048348 -0.064547 0.055106 -0.015688 0.108189 0.029698 0.051065 -0.027351 -0.023286 -0.006609 -0.060802 -0.060154 -0.000799 -0.011921 0.023564 0.063686 -0.014941 0.051971 -0.001556 -0.007808 0.037640 -0.113502 0.000537 -0.034639 -0.036241 -0.104698 -0.019276 -0.092554 0.043341 -0.032049 -0.091242 -0.035351 0.035847 -0.024022 -0.009246 -0.031458 -0.001619 -0.097576 -0.018537 -0.026462 0.165404 -0.019995 -0.019953 0.060776 -0.014988 0.018543 -0.038152 0.079664 -0.031147 0.021110 0.088018 -0.037173 0.007485 0.029639 0.037261 -0.040728 0.010100 -0.028942 -0.046627 -0.032637 0.063002 0.082223 0.147002 -0.006221 -0.045073 -0.077136 0.111862 -0.088199 0.000983 -0.042646 0.101437 -0.022801 0.052498 0.057645 -0.015256 0.031236 -0.078945 0.008953 -0.014846 -0.162144 0.018640 0.033314 -0.090085 -0.100408 -0.042460 -0.014651 0.005713 -0.047757 -0.053270 0.003848 -0.035779 -0.005493 -0.007476 0.031930 -0.013818 0.035971 -0.002598 0.037461 0.076973 -0.106945 0.048189 0.104976 -0.038216 -0.001021 -0.009270 0.020458 0.021181 -0.044858 0.090177 -0.037398 -0.002515 0.093380 0.109361 -0.022106 0.047251 0.009967 -0.063911 -0.037408 -0.082746 -0.032577 -0.018791 0.010011 0.057225 -0.000583 0.128456 -0.014438 0.043214 0.026995 0.076317 -0.034464 0.025668 0.095040 -0.036494 0.006497 0.036846 -0.026474 -0.034614 0.101461 -0.020020 0.091780 -0.034857 -0.034972 0.046454 -0.008877 -0.054387 -0.048125 0.019321 -0.018907 0.005358 -0.132245 -0.037720 -0.010879 -0.042422 -0.057152 -0.048960 0.023842 0.093685
axe -0.062843 -0.021619 0.057879 0.006078 -0.001779 -0.019397 -0.006996 0.014772 -0.108786 -0.056571 -0.096530 0.063510 0.043086 -0.036597 0.046061 0.107745 -0.044247 0.075781 0.032037 0.006704 -0.039809 -0.049734 -0.012955 -0.140480 0.043966 -0.014303 0.012594 -0.001781 0.163447 -0.105750 -0.045909 0.029587 0.124603 -0.056630 0.109558 -0.062297 0.070904 0.022152 0.108461 0.095416 -0.031887 0.146788 -0.052358 -0.015447 0.085189 -0.020791 -0.025637 0.005163 0.017303 0.012401 -0.026691 0.008839 0.037985 0.076896 0.023368 -0.066768 0.009153 -0.034332 0.077387 -0.080975 0.028137 -0.064410 0.057169 0.032944 0.001605 0.035126 -0.018106 0.051138 0.020274 0.038528 -0.012467 -0.133739 -0.027650 0.064517 0.073539 0.008353 -0.011209 -0.025264 0.025401 0.048246 -0.052866 0.026315 0.060811 -0.040419 -0.016653 0.029107 0.045146 -0.014501 -0.013635 -0.029812 0.031537 0.014512 -0.004996 -0.059426 -0.048818 0.033364 -0.075890 0.017488 -0.025216 -0.040803 -0.005106 0.090245 -0.006162 -0.011860 -0.075398 0.020954 0.069921 0.037937 0.054964 0.018231 -0.061262 -0.017567 0.024144 0.031419 -0.025116 -0.001199 0.019526 0.077951 0.054921 0.030679 0.008595 -0.046439 -0.052345 0.009749 0.047035 0.020965 0.028789 -0.079498 -0.076426 0.041430 0.006465 -0.062228 0.057533 0.036084 0.151333 0.065085 0.018251 0.011577 -0.005210 -0.000500 -0.090093 0.022658 -0.005887 -0.158098 -0.022548 -0.052105 0.049075 -0.013982 0.084009 -0.094387 -0.043104 0.045906 -0.041981 -0.054197 -0.027328 -0.025487 0.029447 0.046425 -0.088712 -0.020972 0.008021 0.008155 0.042430 0.015001 -0.035661 -0.059584 -0.093725 -0.004096 -0.000234 0.044740 -0.030274 0.128550 -0.009901 -0.021858 0.000845 -0.040349 -0.002428 -0.115873 0.046022 -0.009900 0.010228 0.008851 -0.076712 -0.033574 0.097056 0.006112 -0.045812 0.030158 0.008272 0.098434 0.059436 0.028471 -0.025759 0.094347 -0.013111 -0.032610 -0.068861 -0.041745 -0.024197 0.041142 0.046126 0.058638 -0.002163 0.051527 0.132484 0.050101 0.091273 -0.070685 -0.029527 -0.036283 -0.138036 0.012528 0.073597 -0.037801 0.010472 -0.063667 -0.025805 0.019086 -0.050206 0.062989 -0.091150 0.016866 -0.036004 0.063807 0.030158 -0.122832 -0.120474 -0.054513 -0.020573 -0.009159 0.012060 0.045907 -0.077997 -0.097027 0.007872 -0.035170 0.001363 -0.021676 -0.009133 0.072882 -0.074045 -0.087698 0.035374 0.083505 -0.016496 -0.052150 -0.095035 0.011021 -0.066284 0.110016 0.117464 -0.001279 0.039265 0.004142 0.067792 -0.011142 0.024198 0.091099 0.034673 0.102501 -0.094396 -0.024889 -0.056489 0.043731 -0.014919 0.016417 -0.041079 0.010782 0.107853 0.071597 -0.101201 0.008742 0.040620 -0.051736 -0.060014 0.052752 -0.005926 0.026190 -0.023223 0.128461 -0.050108 -0.006495 0.029034 0.034578 -0.066666 0.062845 -0.089785 0.003365 -0.017830 -0.035381 0.063103 -0.128009 -0.034032 -0.029830 0.034692 0.098612 0.038166 0.065362 -0.092118 0.010121
banana -0.080785 -0.023373 0.012788 0.013133 0.077383 -0.129765 -0.044208 -0.087729 -0.096232 0.058871 0.012999 0.101929 0.075089 0.005117 -0.063641 0.045646 -0.036899 -0.054279 -0.065422 0.005810 0.078317 -0.012961 0.066687 0.010620 -0.014823 0.153188 0.108424 0.014004 -0.039060 -0.104378 0.029229 -0.031276 -0.002049 0.011830 0.014920 0.075039 0.025294 -0.054826 -0.034815 0.022380 -0.062328 0.037907 0.042157 0.006483 -0.037734 -0.097880 -0.057223 -0.087853 -0.005363 -0.033212 -0.057888 0.055459 0.004657 0.028394 0.022958 0.047278 -0.083343 0.056095 -0.098034 -0.036306 0.073637 0.038551 0.022430 0.004580 0.091388 -0.104102 -0.017107 0.005495 0.113086 0.066740 0.065850 -0.018088 0.135644 0.020322 -0.063780 0.125172 -0.071249 -0.055977 -0.014173 -0.047911 0.022241 0.012622 -0.013735 0.096556 -0.099811 0.082817 -0.034109 0.083530 0.111978 0.133648 0.001011 -0.056798 0.021787 -0.014166 -0.091025 0.046310 -0.039355 0.082250 0.076736 -0.020055 0.019578 -0.012626 -0.031867 0.165029 -0.055273 0.018811 0.065750 -0.014439 -0.062105 -0.068300 0.074372 0.034731 0.020017 -0.086429 0.047794 0.004743 -0.024061 -0.063876 -0.008149 -0.053873 0.005658 -0.010014 -0.016948 0.037217 0.005946 0.030334 0.049055 0.060821 -0.040200 -0.034097 0.051457 0.012344 0.083656 0.024205 -0.014579 0.056923 0.002108 0.062610 0.106731 0.056779 0.117395 -0.086706 -0.033510 0.006949 -0.029638 0.024850 -0.038323 0.058997 0.059264 0.032733 -0.042052 0.030861 0.026336 0.025297 0.007400 0.085596 -0.039100 -0.008544 0.039166 0.038087 0.062827 -0.009569 -0.072140 -0.047214 -0.022100 0.042127 0.046601 -0.087696 0.031879 0.000713 -0.046537 0.119822 -0.003858 0.050674 0.149558 -0.039961 -0.013150 0.091948 -0.085821 0.009931 0.000491 0.039261 0.028193 -0.052792 0.047487 0.054146 -0.054824 -0.045735 -0.025712 -0.054664 0.053138 -0.014360 -0.015880 -0.034526 -0.043060 0.092679 0.039486 -0.093724 -0.035779 0.036305 -0.003899 -0.036541 -0.045426 -0.081620 -0.002134 -0.021090 0.062200 -0.001595 -0.078406 0.061738 0.075254 -0.022979 -0.108569 -0.024214 -0.042523 0.084452 -0.095904 -0.024772 0.089576 0.057511 -0.015235 -0.047668 -0.028002 -0.018534 0.099323 -0.003740 -0.098814 0.056067 0.074724 0.010382 0.050390 0.006334 -0.082739 -0.013910 -0.065036 -0.030786 -0.047392 0.013806 -0.001980 -0.084121 -0.065392 0.006917 0.001182 0.000474 -0.121432 0.090423 0.102278 0.101702 0.026774 0.030302 -0.044875 0.027584 -0.053821 0.012329 -0.045275 0.033157 -0.013487 0.047308 0.008017 -0.000864 0.064852 -0.082577 -0.019561 -0.026076 0.051212 -0.019143 -0.009325 0.009142 -0.135136 -0.054181 0.010433 0.049523 0.019336 0.052831 -0.009074 0.009832 -0.017709 -0.016259 -0.049652 -0.016284 -0.012406 -0.044575 -0.004199 -0.110574 0.000706 0.011880 0.028300 -0.030524 -0.036949 0.060343 0.010020 0.114183 -0.086102 -0.020666 -0.065328 -0.058954 -0.046617 -0.026858 0.065103 -0.055139
bicycle 0.045350 -0.084827 -0.007032 0.074962 0.024779 0.030652 0.029430 0.016226 0.051768 0.086975 -0.085757 -0.003630 0.032670 0.064001 0.024285 0.069827 -0.039827 -0.091187 0.066447 -0.016587 -0.044012 -0.016412 -0.042563 0.040962 0.046129 0.010381 0.017548 0.007419 0.059563 -0.143382 -0.073759 0.016010 -0.021453 -0.050190 0.006520 -0.064829 -0.012278 0.002370 0.007679 -0.056328 -0.005339 0.060074 0.038464 0.038492 -0.007704 -0.094857 -0.021145 -0.010290 0.098565 0.061753 0.019686 -0.081948 0.027898 -0.019579 -0.027807 -0.057025 0.041400 -0.000500 0.030579 -0.080773 -0.073159 0.200055 -0.039521 -0.007723 0.032170 -0.052230 0.124801 -0.000097 -0.014956 0.096861 -0.045581 -0.024463 -0.008937 -0.102961 0.012354 0.038876 0.028521 0.059845 0.046202 0.032479 0.005577 0.085273 -0.032464 0.091312 -0.020399 0.028120 0.118292 -0.136634 -0.011584 -0.030323 0.095466 -0.021144 0.148052 -0.088691 0.023303 -0.023515 0.021015 -0.024036 -0.004844 -0.113678 0.020555 -0.077481 -0.107262 -0.003681 -0.014431 0.069156 -0.077074 0.030121 0.026216 -0.028063 -0.055664 -0.018718 0.049809 -0.023261 0.051593 -0.024413 0.111453 0.012134 0.007534 -0.086143 -0.081443 0.030075 -0.006297 0.008965 -0.025243 0.010985 -0.013754 0.017694 -0.009041 0.113998 -0.040326 0.072656 -0.063151 -0.029484 -0.029023 0.075667 0.026364 0.018193 0.015462 -0.060146 0.081428 0.067319 -0.002365 -0.012319 0.040437 -0.023872 -0.001164 -0.020230 -0.017027 -0.029034 0.047539 -0.041861 -0.037721 -0.038423 -0.083840 0.090456 0.018214 0.052283 -0.036259 0.073031 0.012299 0.082654 0.012999 0.005050 -0.022457 0.008243 0.003441 0.076641 0.073226 0.038430 0.058958 -0.161574 -0.031694 0.011386 0.045226 0.003257 -0.014781 -0.043046 -0.048298 0.103506 0.057807 0.079076 -0.006092 -0.020564 0.028037 0.001152 -0.022767 0.006111 -0.041736 -0.046325 -0.010395 -0.083134 0.037541 0.044671 -0.029562 -0.096260 0.028607 0.000370 -0.011462 -0.085797 -0.115133 0.105397 -0.023001 0.043098 -0.004102 0.001034 -0.080336 -0.055881 -0.088035 -0.069994 -0.048554 -0.109546 -0.031549 -0.048472 -0.052163 0.006215 -0.013817 -0.034573 0.099153 0.032678 0.083257 -0.045028 0.058954 0.030397 -0.061307 -0.042029 0.190278 -0.033420 0.027718 -0.005345 0.045790 -0.067716 -0.059556 0.067509 0.021810 -0.155963 -0.003802 -0.006937 0.039694 0.016668 0.019845 -0.002893 0.007800 -0.062426 -0.060338 -0.036491 -0.076041 0.031459 0.066368 0.037885 -0.026432 -0.018108 -0.029982 0.057023 0.023861 0.090537 -0.065381 -0.009937 -0.073655 -0.088660 -0.017596 -0.015653 -0.035811 -0.101861 0.009777 -0.019671 0.041253 0.041768 -0.067076 0.023644 -0.033563 0.095824 -0.002089 -0.019221 -0.004734 -0.086972 0.079709 0.134180 -0.105198 -0.027743 0.003970 -0.052874 0.091909 0.083082 -0.012206 0.121892 0.022093 -0.025066 0.003022 -0.050581 0.082086 0.024520 -0.019015 -0.009299 -0.062538 0.033839 -0.091796 -0.014521 -0.025957 0.030819
bird 0.073331 0.053047 -0.024766 -0.038718 -0.022474 -0.015195 0.008679 -0.030941 -0.048254 0.013927 0.073346 0.097058 0.034227 -0.061720 0.068426 -0.049830 -0.043680 0.014584 -0.080275 0.037112 -0.003071 0.027887 -0.044524 0.052730 0.011371 -0.024505 0.056226 -0.143148 0.003444 -0.004371 -0.031995 0.008091 0.027167 -0.036756 -0.004112 0.004833 0.022917 0.070774 -0.034467 0.072424 -0.060204 0.014785 -0.098725 -0.001176 0.049078 0.104953 0.012457 -0.052138 0.046624 0.004508 0.006927 0.054854 0.072888 -0.102023 0.007613 -0.010591 -0.046912 -0.084819 0.001933 -0.024144 -0.049199 -0.011222 -0.014456 0.000788 0.090199 -0.016147 0.107921 0.062778 0.043032 -0.042709 -0.036267 -0.044422 0.032496 -0.004348 0.014339 0.007008 0.007856 -0.045872 -0.052930 -0.017838 0.037082 -0.014491 -0.001450 0.052644 0.039111 -0.082939 -0.011862 -0.054016 -0.001121 0.038535 0.025313 0.082604 -0.037476 -0.038900 0.035862 0.039762 -0.071248 0.017714 0.025634 -0.002436 -0.029779 0.022709 0.025974 0.018963 -0.036659 -0.089217 -0.005389 -0.029071 0.024510 -0.037780 0.029583 0.007816 -0.030005 0.048859 -0.023678 -0.039090 0.025091 0.001972 -0.054559 0.042205 0.022297 -0.027995 -0.091722 0.012112 0.045449 -0.006007 0.073661 -0.147833 0.088832 0.081343 -0.070411 0.060040 -0.039959 -0.062150 -0.018681 0.095321 0.015745 0.003052 0.044401 -0.027278 0.074321 0.070139 0.016338 -0.030102 0.054339 0.041484 0.041506 0.051696 0.015737 -0.048290 0.071496 0.040974 0.007744 0.041908 0.033087 0.041002 0.000549 -0.012912 -0.027165 -0.019518 -0.015641 0.040897 -0.018541 -0.013416 -0.028895 0.022682 0.021363 0.117535 -0.057869 0.006901 0.026211 -0.099957 0.105478 0.004732 -0.049207 0.053206 -0.100452 0.010822 -0.061048 0.000434 0.027245 0.033820 0.020547 0.105217 0.000537 0.000669 0.076997 -0.004664 0.013660 -0.225253 0.036714 -0.010183 -0.009104 -0.051594 0.047829 -0.096571 0.156184 0.077685 0.001174 0.106167 0.013649 -0.041691 0.024378 -0.112601 0.027812 0.067929 0.020665 -0.084151 -0.001041 -0.011202 -0.050836 -0.127733 -0.060649 -0.013001 0.056473 0.151817 0.048805 -0.047568 -0.024286 0.044404 0.038549 0.012312 0.003253 0.050730 0.138376 -0.000953 0.021164 0.031327 -0.044151 -0.135113 0.035885 -0.049488 0.062632 0.008377 0.082529 -0.059092 0.060300 -0.097059 0.025336 -0.008033 0.044222 -0.006327 0.026250 0.011550 0.034217 0.008112 0.087967 -0.025293 0.075608 -0.037552 0.070034 0.129825 -0.031360 -0.115281 0.041485 -0.056479 -0.029908 -0.029894 -0.017820 0.089398 0.071450 0.057079 0.122418 -0.065015 -0.122579 0.119468 0.011347 0.006780 -0.093652 -0.065832 0.021752 -0.015654 -0.119281 -0.049238 0.069311 0.061362 0.013424 0.183185 0.065228 0.111295 0.074954 0.055013 -0.056323 -0.089079 -0.028785 0.005265 0.006331 0.030730 -0.009118 0.038599 0.048493 -0.008108 -0.016246 -0.127234 0.052452 -0.033650 -0.059024 0.049735 0.039271 0.032261
boat 0.061950 -0.061076 0.003119 -0.032701 0.093749 0.061814 -0.020598 0.030080 0.034965 -0.001994 0.002274 0.047644 -0.012284 -0.050303 0.011709 -0.020973 -0.073429 -0.054087 -0.021469 -0.014152 0.019896 -0.029300 0.008616 -0.037709 0.024570 0.014892 0.018182 0.084895 -0.016205 -0.093045 -0.009377 0.062247 0.003998 0.022821 -0.123709 -0.053376 0.006193 0.038475 -0.037535 0.012995 -0.033765 -0.075047 0.010216 -0.004909 0.019123 0.045054 0.098828 0.051213 0.001146 0.047580 -0.086281 -0.024509 0.077698 0.033631 0.033096 0.120302 -0.027596 0.045246 -0.020822 0.066369 -0.000255 0.030594 0.097135 0.011724 -0.005448 -0.015376 -0.016113 0.061102 0.050311 -0.022663 -0.099611 -0.031246 0.034757 -0.073862 -0.112182 -0.014064 -0.096277 0.038338 -0.026492 0.015311 0.090556 -0.037274 -0.111194 0.007454 0.017387 -0.095040 -0.009711 -0.023034 0.001236 -0.040436 0.143385 -0.012013 -0.000802 -0.026129 -0.143858 0.075717 -0.183130 0.083804 -0.052843 -0.081899 0.007424 0.131444 -0.011214 -0.018905 -0.049499 0.044603 -0.018463 0.044748 -0.101922 0.019496 0.009489 -0.088750 -0.059109 -0.009470 -0.025106 0.008149 -0.069657 -0.039042 0.134071 -0.038947 -0.021602 -0.002485 -0.008791 0.059806 -0.017662 0.066140 -0.025870 0.043246 -0.008333 -0.005149 -0.004941 0.037260 -0.067490 -0.055918 0.132131 0.029877 -0.019277 0.045217 -0.001695 -0.121644 0.008251 -0.020065 0.019019 -0.055350 -0.009931 0.050439 0.001633 -0.015613 0.023298 -0.022946 0.063745 -0.031103 0.008186 -0.040661 -0.065416 0.039015 0.003571 0.036796 0.035896 -0.093113 0.010234 -0.113498 0.041842 -0.052933 0.033920 0.043757 -0.039126 -0.011481 0.051726 -0.060301 0.023914 0.004275 0.048638 -0.094651 -0.006173 0.040846 0.064471 -0.057814 -0.016881 0.094632 -0.086212 -0.000182 0.003482 0.019863 -0.056008 0.055928 0.034811 0.107855 -0.048383 -0.022249 0.064397 0.098755 0.001818 -0.088919 0.002699 0.063675 0.042857 0.048835 0.094735 -0.031153 -0.052816 -0.061796 -0.016584 0.069336 0.095799 -0.009820 -0.004366 -0.035559 0.059797 -0.048236 -0.012474 -0.007838 -0.005803 0.093778 -0.033069 0.149375 -0.048783 -0.031816 -0.054321 0.027084 0.015851 0.037742 -0.039398 -0.106437 -0.022136 0.013546 -0.062979 -0.014745 0.028941 -0.037886 -0.048429 -0.069684 -0.008599 0.026320 0.161972 0.054319 -0.074850 -0.081682 -0.007937 0.085135 0.036248 -0.036824 0.046813 0.081170 0.069101 -0.046417 0.026621 -0.084952 -0.041571 -0.069065 -0.006212 -0.066979 0.038968 -0.008401 -0.054536 0.016215 0.076729 0.022252 -0.032193 -0.021096 -0.013823 -0.035101 -0.100373 -0.032328 0.067246 -0.048749 -0.118692 0.004098 0.070368 -0.095050 0.011965 0.028562 0.029428 0.040606 0.051775 -0.086940 0.038957 0.085898 -0.015975 0.008289 -0.046362 0.055134 -0.014778 0.100944 -0.019018 0.038134 -0.010476 0.093789 -0.121992 0.013953 -0.118145 -0.077771 0.106575 0.051826 -0.120345 0.017147 -0.049536 0.017669 0.106693 0.033991
bread 0.025577 0.029841 -0.069998 0.052526 0.056345 -0.056539 -0.036367 0.087895 0.010525 -0.070073 -0.023849 -0.014719 0.003865 -0.003237 -0.024569 0.092957 0.055273 0.109004 -0.105992 0.005702 0.080238 0.028057 -0.046457 -0.041592 0.070862 -0.016257 0.045282 0.012835 0.002042 -0.005854 -0.045281 0.088641 0.002853 0.080618 -0.044300 -0.023404 -0.012051 -0.068845 0.052835 0.032689 -0.033286 -0.023633 0.025046 -0.037422 -0.018024 0.102283 -0.039078 -0.026708 0.149840 -0.142276 -0.080096 0.118967 -0.028753 0.059578 0.123322 -0.058312 -0.027904 0.042961 0.001334 -0.022908 0.008823 -0.084596 0.012107 0.046024 0.001346 -0.031475 0.034891 -0.030770 -0.023169 0.004432 0.099507 0.024902 0.000330 -0.017664 -0.030893 -0.070665 -0.046275 0.047230 -0.036611 0.014840 -0.038654 -0.086990 -0.051411 0.074732 -0.032900 -0.037491 -0.012496 -0.021252 0.017512 -0.023843 0.006948 -0.020077 0.025767 0.007369 0.024197 0.044382 0.008559 0.075863 0.052850 0.089170 0.014202 0.018489 -0.049095 -0.012626 0.049585 -0.005804 0.103616 0.009921 0.070838 -0.057335 -0.010695 -0.037824 0.055944 0.040323 0.015999 -0.041367 -0.006846 0.061957 0.047139 -0.008139 -0.026916 -0.008555 0.010776 0.001283 -0.017823 0.109412 -0.011977 0.098433 0.104050 0.043801 0.116296 0.038827 0.001151 -0.053142 -0.030225 0.059752 -0.074550 -0.080792 0.096931 0.057360 0.010985 0.060381 0.046346 0.012620 -0.099660 0.084495 0.009118 -0.091253 0.012091 -0.019519 0.010214 -0.021143 0.021165 -0.007576 -0.066345 0.048222 0.022083 -0.075930 0.026770 0.064219 0.005781 0.019142 -0.044576 -0.084016 0.035732 -0.009092 0.028347 0.003128 -0.014930 0.016462 0.010441 0.048254 -0.047459 -0.087157 0.011827 -0.089228 -0.148734 -0.061596 -0.039561 -0.043769 -0.098932 -0.032002 0.081907 0.051577 -0.008470 0.064191 -0.021789 -0.062391 0.047464 -0.055853 0.012395 0.002980 -0.022762 -0.001458 0.049006 -0.091493 0.013211 -0.019342 -0.023660 0.002344 0.046870 -0.009099 0.019626 0.082991 -0.046091 0.027018 -0.112664 0.031158 -0.142707 0.063825 -0.031875 0.031333 -0.103610 0.005037 0.089950 0.028464 -0.019117 -0.006997 0.077679 0.054612 -0.023700 -0.039537 -0.062046 -0.007486 -0.057982 -0.130020 -0.037318 0.015469 0.028576 0.093828 -0.074449 -0.028518 -0.105601 0.005279 -0.006006 -0.024147 0.009601 -0.050189 -0.078118 0.089942 0.036971 -0.003814 -0.124752 -0.017486 0.041512 0.029031 0.064276 0.089174 -0.010125 -0.038392 -0.039201 -0.007564 0.068833 -0.020776 -0.065461 0.028829 0.001264 -0.025650 -0.126066 0.101460 0.061929 -0.088321 0.004716 -0.062938 -0.076058 -0.148148 0.021774 0.032306 -0.020328 -0.005005 0.114446 -0.056752 -0.089215 -0.016382 0.038501 -0.014194 -0.077643 -0.038676 0.040747 0.061188 -0.106633 -0.084800 -0.068186 -0.008652 0.112562 -0.016076 0.006916 -0.054463 0.153857 -0.033342 -0.011455 0.010278 -0.089347 0.043692 -0.001365 -0.068210 -0.038952 -0.118286 -0.012666 -0.131563
bus -0.015802 -0.027788 -0.016764 -0.034390 -0.048654 0.082026 0.072444 -0.025875 0.077302 -0.012429 -0.040225 -0.045291 0.034135 0.053091 -0.079193 0.002527 -0.038446 -0.061265 -0.009029 -0.121578 -0.035169 0.086907 0.007797 -0.079662 0.024902 -0.002533 -0.031042 -0.027157 -0.000484 -0.037411 -0.014606 0.058147 0.047658 -0.066441 -0.053962 0.081650 0.075641 0.015793 0.092954 0.059404 -0.001656 -0.121368 0.002877 -0.087694 0.004689 0.101005 0.019558 -0.044748 -0.043512 -0.112918 -0.110171 0.059871 0.066492 -0.011246 -0.021224 0.011479 0.012774 0.078065 0.005959 -0.104941 0.051831 -0.119304 -0.011100 -0.099721 0.008390 -0.064443 -0.053816 -0.054269 0.022587 -0.019341 0.037552 0.078993 0.023819 0.010199 -0.057130 0.005865 -0.046679 0.050805 0.045813 0.065268 0.017035 0.062472 -0.000165 -0.022018 0.019148 0.024374 0.132388 0.036500 -0.061112 -0.060309 -0.076163 0.006802 -0.071838 0.075987 -0.013427 0.034604 0.000300 0.027535 -0.036905 -0.008381 -0.010194 0.004066 -0.021936 0.029370 -0.032621 0.053981 0.020232 0.095664 -0.176046 -0.045261 0.061403 -0.152536 0.080148 0.003247 -0.110935 0.032174 -0.048287 -0.040453 0.097694 -0.013642 -0.050971 0.118207 0.057938 -0.025559 -0.029597 0.007404 0.108592 -0.053882 -0.066835 0.074918 -0.015610 0.012276 0.027673 -0.023649 -0.114777 -0.009929 0.069272 0.129568 -0.004877 0.001584 0.074726 0.019644 0.015980 -0.121660 -0.020713 -0.000973 -0.073664 -0.012078 0.097410 -0.015290 -0.074699 -0.125573 -0.012538 -0.033524 -0.044219 0.011703 0.004817 0.011092 0.014429 -0.079487 -0.031796 -0.020295 0.010025 0.061885 -0.032238 -0.039452 0.072969 -0.001413 -0.093197 0.014100 -0.080002 -0.065075 -0.077608 -0.047016 0.107416 0.035514 0.065468 0.044963 -0.008827 0.014850 -0.001786 -0.056646 -0.070533 0.059853 -0.071488 0.013543 0.021619 0.048710 0.015993 -0.061877 0.033432 -0.009521 -0.051629 -0.114027 0.039544 -0.075594 -0.089056 0.083719 -0.078295 -0.030408 0.001304 0.008745 -0.066037 -0.026335 0.044536 -0.037263 -0.006442 -0.147526 -0.039852 0.041391 -0.046906 -0.056087 0.016425 0.026615 0.034755 -0.018083 0.028999 0.103591 0.047005 -0.095194 0.178368 -0.097543 -0.061465 0.003195 -0.006776 0.018000 0.090881 0.042587 -0.050098 0.010792 0.053115 0.049223 0.061462 0.046165 0.048702 -0.038607 -0.077683 0.026838 -0.026892 0.066723 -0.048377 -0.028613 -0.032332 0.058195 0.029607 0.013920 0.018489 0.075318 -0.094279 0.043132 0.067928 0.079655 0.040343 -0.050433 -0.036355 0.025915 -0.040656 -0.007864 -0.082971 -0.071198 0.011126 -0.019749 -0.047356 -0.021672 0.014998 -0.017302 -0.002092 0.013873 -0.004700 -0.000183 -0.047581 -0.021975 -0.101799 -0.054741 -0.047573 -0.021156 0.067212 0.008990 0.004638 -0.064309 0.025700 0.076618 0.014614 -0.036095 -0.062354 0.015076 -0.032964 0.029122 -0.068515 -0.097967 0.023664 -0.082386 0.035149 0.058775 -0.041583 0.028919 0.061768 -0.039542 0.092370 -0.020401
car -0.045258 0.005267 0.029880 0.064055 0.049596 0.036321 0.030935 -0.006908 0.061334 -0.025588 -0.088200 0.012718 0.152727 0.067351 -0.049357 0.074890 -0.119593 -0.026874 0.015195 -0.055927 -0.046643 -0.028441 -0.048983 -0.063843 -0.069450 -0.099167 -0.070674 -0.000438 0.058341 -0.043796 -0.076251 0.112289 -0.064145 0.011008 -0.084565 -0.049598 -0.002367 0.022082 0.078679 0.031376 0.014984 0.024779 -0.053664 0.052959 0.028161 0.033496 0.041195 -0.088061 -0.044033 0.002971 0.003291 0.001889 0.026598 -0.015045 0.060072 0.035662 0.057917 0.071193 0.057453 0.023414 0.035321 0.002091 0.074776 0.108920 -0.054621 -0.038764 0.116289 0.014636 -0.048852 -0.050246 0.055605 0.036886 0.128787 -0.027894 0.048964 0.107953 -0.066144 -0.040225 0.011393 -0.020874 -0.004963 -0.024888 -0.000327 -0.043377 -0.083985 0.005883 0.018618 0.053291 0.030222 0.018149 0.039538 -0.050860 -0.040933 0.016874 0.057543 0.036947 -0.020965 -0.001848 0.036177 -0.074595 0.063869 0.055432 0.023829 0.049376 0.051080 -0.101260 0.015353 -0.078218 -0.048430 -0.018119 0.060641 0.005304 0.011584 0.103127 0.016076 -0.063951 -0.071138 -0.040529 0.024350 -0.081974 0.027782 0.025817 -0.035118 -0.001409 0.045067 -0.017201 0.065641 -0.041538 0.038115 0.090096 0.018818 -0.067398 0.003797 0.002513 -0.030153 -0.071812 -0.021562 0.060970 0.049595 0.073577 -0.003356 0.100926 -0.049875 0.012711 -0.011720 0.073681 0.012439 -0.051776 0.017381 -0.066814 -0.046254 0.031594 -0.013814 0.048359 -0.047154 0.074977 -0.021824 -0.113013 -0.057641 -0.094082 -0.081873 0.027458 0.035171 0.042236 -0.034691 0.034819 -0.095643 -0.039029 -0.026225 -0.000237 -0.006546 -0.003746 0.023422 0.014527 0.049182 -0.049610 0.026638 0.000231 0.012767 -0.000050 -0.134111 0.114700 -0.060274 -0.035881 -0.023307 -0.074072 0.086918 -0.028705 -0.044682 -0.043849 0.029375 0.079691 0.018465 -0.049742 0.092906 0.027349 -0.036724 -0.017799 -0.004967 0.006233 -0.002725 0.006557 0.098696 0.179383 0.010167 -0.076845 -0.066933 0.017829 -0.103696 -0.016960 0.016087 0.006888 -0.028218 0.100716 0.063893 -0.013571 0.032695 0.003668 -0.048875 -0.033229 0.086759 -0.058495 0.002443 0.045267 0.016140 0.011995 -0.019400 0.127076 0.047094 -0.131395 0.073425 -0.084726 -0.080976 -0.039768 0.083788 -0.026797 0.007156 -0.094015 0.061016 -0.017772 -0.075648 0.011000 0.019463 0.010049 0.062972 0.047569 0.090414 -0.017900 0.009669 0.052499 0.076579 -0.006155 0.106145 -0.001396 -0.006692 0.014565 -0.058670 -0.093053 0.120483 0.056627 -0.062569 0.012028 0.030716 -0.040529 0.082123 -0.031984 0.045760 -0.027373 0.039419 0.091172 0.029273 -0.022494 0.012616 0.052679 -0.005989 -0.022185 0.108184 0.091807 -0.042706 -0.090138 -0.064680 -0.083297 0.003973 0.005588 -0.078820 0.009636 -0.149743 -0.002708 0.080739 -0.077995 -0.171538 -0.001838 0.042776 -0.022337 0.004018 0.094008 0.082842 0.020301 -0.068004 0.007526
cat -0.042947 0.008020 -0.032309 -0.031730 0.082895 -0.027818 -0.105051 0.023085 0.046153 0.007217 -0.048187 -0.033740 -0.044849 -0.035269 -0.051892 -0.015012 -0.078727 0.004508 -0.047817 0.042473 0.022019 0.092690 -0.077024 0.086835 -0.024772 0.031692 0.054520 0.062631 -0.013870 0.028049 0.007856 0.040169 -0.052652 0.028331 0.091800 0.123499 0.062614 0.086250 0.021771 0.059138 0.126256 -0.005368 -0.093741 -0.015221 0.019354 -0.057016 -0.059401 -0.038758 -0.082737 0.055074 0.100091 0.042339 -0.069129 0.007485 -0.044846 0.006265 -0.033907 0.063790 0.046506 -0.016507 0.020628 0.000086 0.105462 -0.110277 0.025249 0.057112 -0.019255 -0.036438 -0.001557 -0.054924 -0.051314 -0.051661 -0.000980 -0.121671 -0.045733 0.022010 -0.023560 -0.050286 0.054003 0.098576 -0.046075 0.064351 -0.099337 -0.045133 0.042951 0.015116 -0.000631 0.045027 -0.009749 0.061114 -0.031798 -0.047804 -0.118017 0.016277 -0.046633 0.043465 0.044985 -0.034420 -0.007148 0.017652 -0.026176 -0.103517 0.085628 -0.036589 0.035362 0.024944 0.016673 -0.001487 0.051443 -0.044942 0.051063 -0.006083 0.014301 -0.028557 -0.007093 0.033697 -0.056592 -0.096715 -0.019540 0.048081 0.006116 0.094509 0.082358 0.068936 0.124999 0.002177 0.028760 -0.047117 -0.137693 0.028050 -0.060241 -0.008725 -0.137894 0.048477 -0.024991 -0.042104 -0.071616 -0.046788 -0.054693 -0.048184 -0.092154 -0.031034 -0.027639 0.064460 -0.107634 -0.000266 -0.046231 0.007028 -0.012135 0.051799 0.093549 0.025970 0.019866 -0.035961 0.008590 0.000247 0.112937 -0.068940 -0.003807 0.010681 -0.043044 0.005123 0.001282 -0.000428 -0.065621 0.034909 -0.069485 -0.015138 0.070259 0.101193 -0.049679 0.030952 0.002576 0.072008 0.001883 0.096673 0.112790 -0.057506 -0.024210 -0.042132 0.001647 -0.116334 -0.099587 0.046303 0.016687 0.064092 -0.044272 -0.061850 -0.021385 0.076644 0.015829 0.004464 0.083997 0.006989 0.007368 0.043753 -0.032944 0.104037 -0.026240 -0.042688 0.037570 0.063789 -0.061724 0.020982 0.056137 -0.193603 -0.109574 0.020772 -0.066805 0.093236 0.009519 -0.003219 0.009919 -0.006354 -0.044316 0.003583 0.058572 -0.092766 0.013370 -0.043069 0.009039 -0.053501 -0.002115 -0.079387 0.011493 -0.016601 -0.083847 0.027181 -0.181341 -0.033569 -0.078009 0.006522 -0.031348 0.045330 -0.013629 -0.023367 0.061304 -0.032125 -0.029977 0.088039 0.029460 0.129006 0.014023 -0.047891 0.075126 0.036093 -0.022750 0.037780 -0.008367 0.010768 0.003939 -0.009640 0.111758 0.032830 -0.043893 -0.005894 -0.017553 0.006480 0.026486 0.030166 -0.090081 -0.099235 0.072939 -0.023687 0.096104 0.036084 -0.033703 -0.087551 0.037826 0.040583 0.083649 -0.019510 0.006539 -0.100777 -0.024683 0.003231 -0.018917 -0.026525 0.089612 0.102265 -0.062036 0.014101 -0.005120 0.087108 0.027099 0.025024 -0.047684 0.086704 -0.025509 0.119811 0.055867 -0.046465 0.030486 0.035169 -0.009436 0.053614 -0.009459 0.002474 -0.049392 -0.049319
coffee 0.002727 0.008104 0.058738 -0.067947 0.004902 0.072775 -0.034215 -0.060979 -0.053931 0.045324 -0.068044 0.013524 -0.030256 -0.030873 -0.024953 -0.031709 -0.017840 0.011009 0.015426 -0.026398 0.031898 -0.042252 -0.028632 0.007573 -0.086260 -0.048301 -0.033182 -0.054318 -0.004536 -0.052742 -0.044681 0.040404 0.087990 0.048876 0.006816 0.071971 0.024601 -0.027552 0.015269 -0.029421 -0.123733 -0.050007 -0.044954 0.035687 -0.019969 -0.096508 0.005355 0.021083 0.036149 0.012624 0.128135 -0.042978 0.070694 0.076269 -0.044149 -0.018881 -0.033346 0.008296 -0.019274 -0.015846 0.014954 -0.058701 0.047428 0.043225 -0.028542 0.032621 -0.058206 -0.096665 0.014167 0.038178 -0.034974 0.054123 0.115828 0.161279 -0.054629 0.009306 -0.058254 0.151658 -0.025028 0.055912 -0.002472 -0.062018 -0.031203 -0.086970 -0.041714 -0.010490 0.025287 -0.126735 -0.000861 0.144000 -0.041418 0.027700 -0.020645 -0.168007 -0.045789 -0.033998 0.060293 -0.002274 0.008606 0.033663 0.024222 -0.007957 0.031702 -0.088720 -0.013102 0.085026 -0.110481 -0.036677 -0.016689 0.020362 -0.012792 0.018069 -0.056088 0.054532 0.029282 0.089830 0.042583 0.045281 0.074109 -0.048634 -0.015288 -0.110756 0.050838 0.079209 -0.017580 -0.067762 0.087063 -0.038067 -0.013499 0.071821 -0.021288 -0.006931 0.108442 0.014945 -0.048679 0.090168 -0.080603 0.063733 0.027860 -0.034730 -0.056728 -0.059873 0.094258 0.028526 -0.041658 0.035393 0.050327 0.013533 0.041614 0.061947 0.018752 0.017163 -0.018369 -0.050381 -0.065048 0.030355 -0.046944 0.010942 -0.012859 0.061526 0.029213 0.023583 -0.012897 0.015325 -0.016328 0.010740 -0.094837 0.014750 0.021742 0.027457 -0.047236 -0.028938 -0.039665 -0.026876 -0.065325 -0.067015 0.009818 0.027966 -0.002392 -0.043003 0.019348 -0.026925 -0.022760 -0.052023 -0.036338 0.045526 -0.005030 -0.013032 -0.051479 0.166280 -0.133778 -0.108886 -0.029205 0.035329 0.078881 0.036050 0.013483 0.050154 0.025622 -0.108993 0.038149 0.007378 0.124599 -0.045405 0.062654 -0.075096 0.082357 0.009550 0.024120 0.060608 0.035970 0.024064 -0.047304 -0.005768 -0.008805 -0.015574 -0.105599 0.003752 0.059486 0.074359 0.086974 0.005746 -0.025713 -0.018867 0.035112 0.044921 -0.002083 -0.075316 0.091704 0.049327 0.061186 0.006198 -0.027794 0.098910 -0.059089 -0.088652 0.117370 0.008279 -0.036174 -0.040901 -0.124108 0.110887 0.014588 0.024845 0.050744 -0.034679 0.026295 0.071178 -0.127082 0.025239 0.034404 0.021979 -0.038700 -0.004012 0.010076 0.019865 -0.023007 0.045867 -0.031244 -0.004198 0.081193 -0.023912 0.025338 -0.067689 0.093086 -0.095301 -0.018711 -0.032885 -0.043263 -0.016387 0.072488 0.088634 -0.026267 -0.041536 -0.101084 0.099490 -0.048767 -0.042230 0.003799 0.055310 0.083390 0.114064 0.036425 -0.032997 -0.059735 -0.008272 0.047480 0.049316 0.026733 -0.101549 -0.013184 0.081548 -0.035120 -0.010797 0.151140 -0.017638 0.077948 0.103072 0.061949 -0.014140
dog -0.111767 -0.038965 0.018052 0.033985 0.059333 -0.075118 -0.007436 -0.112271 -0.042654 0.033333 -0.123829 0.036829 0.090920 -0.085177 -0.025076 0.092885 0.027438 0.012629 0.003525 -0.083761 -0.007611 0.076415 0.006664 0.044818 -0.037214 -0.052122 -0.020955 -0.051534 -0.091965 0.000559 -0.000076 -0.053849 0.037494 -0.046807 0.026103 0.034582 0.092854 0.020499 0.035498 0.002354 -0.064736 0.045180 0.091086 -0.011992 0.123954 0.042168 0.120109 -0.019781 -0.059930 0.005241 -0.038792 0.014072 -0.002286 0.004796 -0.000362 -0.063341 -0.016146 0.076752 0.002080 -0.072168 -0.119682 -0.021236 0.020642 -0.065446 -0.097520 0.016834 0.178468 0.040997 -0.066385 -0.008116 -0.025916 -0.063028 -0.068747 -0.008449 0.033327 0.004129 -0.039350 0.002906 0.030698 -0.047402 -0.070576 0.030516 0.064710 0.026066 0.076594 0.081292 -0.091680 0.021653 0.074647 0.078884 0.075564 -0.043451 0.028621 0.021070 -0.029632 -0.003644 -0.086476 -0.067518 0.006459 0.064049 -0.013709 0.066578 0.084192 -0.057889 -0.001101 -0.020115 0.045424 0.026178 -0.045169 0.056300 -0.079086 0.050136 -0.123356 -0.014229 -0.043401 0.037534 0.024700 -0.118408 -0.077851 -0.025351 0.087816 0.104643 0.044715 0.066971 -0.002536 0.010541 0.003146 -0.066989 -0.002418 -0.015349 0.010342 0.030175 -0.024620 -0.032723 -0.117788 0.020380 -0.010269 -0.001366 0.024756 -0.019724 -0.063183 -0.051325 -0.026704 0.026088 -0.039466 0.000026 -0.068383 -0.034667 -0.105277 -0.033993 0.017579 0.034220 -0.018961 -0.005319 0.064986 -0.066286 0.014071 -0.042454 0.019157 0.000718 -0.029440 0.002674 -0.035284 -0.074072 -0.049454 -0.076633 -0.006902 -0.027491 -0.049612 0.039508 0.016240 -0.015072 -0.008981 0.061549 -0.019355 0.012780 -0.039749 0.029705 -0.012959 0.029899 -0.009058 -0.052273 -0.069040 -0.023559 -0.028297 -0.052155 0.076883 0.055736 -0.122205 -0.121495 -0.073060 0.002801 0.163258 -0.079650 -0.020560 0.091849 -0.048306 0.074073 0.032349 -0.002554 0.046965 0.060330 -0.110428 -0.029637 -0.040678 0.002024 -0.076406 -0.057389 -0.009277 -0.004586 0.067776 0.014176 0.085244 0.087373 0.056064 -0.198731 -0.042236 0.022548 -0.073692 -0.045462 0.040835 -0.006909 -0.029259 0.079227 -0.011237 0.059973 0.009232 0.008319 -0.037571 -0.057764 -0.004353 -0.083478 0.022423 0.004382 -0.026174 0.033374 -0.061017 -0.113763 -0.003691 -0.070912 -0.085592 0.022602 0.041436 -0.059502 -0.036948 0.066754 -0.084717 0.053101 0.020329 -0.057372 -0.005581 -0.049567 -0.023446 -0.002313 -0.007447 -0.108235 0.039156 -0.044524 0.056072 0.000052 0.163358 0.022753 -0.082196 -0.097008 -0.031741 -0.018397 -0.094079 -0.052522 0.008661 -0.076248 -0.022444 0.005442 -0.053516 0.037093 0.014678 0.049933 0.038073 0.011226 -0.001498 0.034603 0.020684 -0.085584 0.070021 -0.029901 0.075448 0.000784 -0.029762 0.009410 0.071798 -0.029996 -0.101548 -0.022526 0.069611 0.107931 0.060315 -0.107463 -0.020735 -0.025622 -0.022015 -0.066483
drill -0.004602 -0.079080 0.146604 -0.009487 -0.027406 -0.069411 0.048559 0.057880 0.076085 -0.001080 -0.021707 -0.048259 -0.045751 -0.018909 0.045514 -0.056428 0.003728 0.053948 -0.012256 0.080427 0.045856 -0.000647 0.007277 -0.011606 -0.033001 -0.047296 0.001889 0.076616 -0.006410 0.008364 -0.010456 -0.055261 0.002026 0.017670 -0.025478 -0.051898 -0.026006 0.031778 -0.097806 0.018842 0.017981 0.004381 -0.026226 0.017876 -0.076890 -0.025358 0.056927 -0.081470 -0.045897 -0.043594 0.053020 -0.087907 -0.029993 -0.067103 0.106233 -0.017879 -0.022331 0.004706 0.061253 -0.116403 -0.066059 0.003208 -0.048499 -0.094865 -0.053746 0.019313 0.018966 0.135377 -0.071991 -0.088402 -0.090082 0.053876 -0.054509 -0.108024 0.045765 -0.041020 0.061507 0.004036 -0.048335 0.074021 0.047019 0.080406 -0.029045 -0.008120 0.080285 0.072083 0.023751 -0.042299 -0.046643 -0.092000 -0.046324 -0.021479 -0.075910 0.056876 -0.144955 -0.047950 -0.054398 0.042892 0.024061 -0.084293 0.006258 -0.059706 -0.006889 -0.068896 0.009664 0.081222 0.134056 0.072083 -0.068723 -0.038764 -0.047898 -0.053932 -0.108468 -0.044983 0.067729 0.136206 0.026448 0.025192 0.042913 -0.098251 -0.064535 0.056493 -0.007893 -0.005390 0.042569 -0.113864 0.069215 -0.049629 0.033849 -0.019636 0.053084 0.066912 -0.047618 0.075951 0.026664 0.084934 -0.031509 0.093393 0.023762 -0.020896 0.043065 -0.051917 0.031488 -0.021865 0.018741 -0.005897 0.058103 -0.018544 0.041780 0.023259 -0.036327 0.043928 0.079415 0.031992 0.024579 -0.034653 0.078579 -0.105701 0.002200 0.086225 -0.032934 0.036709 -0.044858 0.049406 -0.090791 -0.026247 -0.036113 0.023616 -0.102991 0.086238 0.006564 -0.021397 0.082411 0.002519 -0.006464 0.029232 0.079966 0.000511 -0.051782 -0.009959 0.024226 -0.000695 -0.050356 -0.032980 -0.084406 0.006183 -0.066593 -0.029196 0.015555 0.060158 -0.060519 -0.013094 -0.026149 0.031381 -0.071184 -0.033205 0.019466 -0.032221 -0.067458 0.000551 -0.056795 -0.018241 0.065234 -0.001440 0.008019 -0.025383 -0.082680 0.020233 0.071537 0.079079 0.173285 -0.007775 0.012870 -0.077040 0.111162 0.037699 0.057458 0.040467 0.006238 -0.150220 0.085499 0.039975 0.003682 -0.065679 0.040815 0.002207 0.019280 -0.068659 -0.060635 -0.004514 0.005626 -0.050107 0.096453 -0.029410 -0.010031 -0.003032 0.095892 -0.032770 -0.011193 -0.081971 0.075320 -0.001395 0.011527 0.018672 0.102181 0.009378 -0.023820 -0.037658 0.060735 0.030762 0.022874 -0.053837 0.048557 0.047774 0.015509 -0.020447 0.052228 0.046645 -0.026576 -0.029063 -0.112640 0.040576 -0.017048 0.092386 -0.094345 -0.007137 0.058522 -0.023850 0.014723 0.000734 0.028452 -0.025804 -0.193236 -0.024777 0.003009 -0.023091 -0.092166 0.028178 0.006643 0.101883 -0.050875 0.093254 0.003398 -0.033986 0.036205 0.046672 -0.046816 0.097493 -0.000880 -0.071921 -0.063870 0.058328 -0.028269 0.025272 -0.006368 0.013205 0.055853 -0.037651 -0.038590 -0.136018
elephant 0.008022 -0.006307 0.052862 -0.039086 0.053018 -0.031090 0.079552 -0.054752 -0.016630 0.043155 0.064870 0.039780 -0.087263 0.056429 -0.011704 -0.095598 -0.032305 -0.029674 -0.048357 0.066695 0.030751 0.070846 -0.048568 -0.090701 0.008076 -0.002142 0.052513 0.044804 -0.008337 0.047682 0.017444 0.009838 0.112473 0.078856 -0.057674 -0.083457 0.078646 -0.023386 -0.016013 -0.029846 0.032315 -0.025952 -0.070109 -0.107714 -0.128704 -0.069718 0.080103 -0.063924 -0.012787 0.066563 0.076780 -0.028737 0.052296 -0.026002 -0.106411 0.045087 0.019934 -0.043475 0.017619 0.021172 0.001057 -0.059082 -0.004595 0.017321 0.044582 -0.027090 -0.060183 0.016862 0.059246 -0.035837 0.008945 0.067690 0.069927 0.076560 0.005509 0.070533 0.075943 -0.073675 0.019737 0.020676 -0.042642 -0.024232 -0.113224 0.044543 0.060530 0.066222 0.069911 -0.039691 -0.007210 0.105379 0.058474 -0.053691 -0.144817 -0.035797 -0.057730 -0.011127 0.042358 -0.104384 0.003676 -0.063598 0.128227 -0.015960 0.029187 -0.063583 -0.117676 -0.046998 -0.054976 0.053236 -0.067171 0.052852 0.017875 -0.021943 -0.130717 -0.036022 0.051263 0.030996 0.019724 -0.079580 0.003627 0.021930 -0.004671 0.039854 -0.033471 -0.127314 0.003672 -0.052562 0.065910 0.033707 0.014692 -0.026822 0.016592 0.088607 -0.049563 -0.040108 0.052821 0.019744 -0.029877 0.066520 0.026022 -0.046136 0.005485 -0.019135 0.086813 0.049430 0.021540 0.032959 0.035201 -0.092282 -0.092456 0.024967 0.010197 0.002531 -0.125339 -0.055039 0.046642 0.006099 -0.047561 -0.056246 0.019204 0.000816 -0.008528 -0.044074 0.009077 0.008937 -0.059539 0.087840 -0.049266 0.015887 -0.067985 -0.037208 0.046606 0.036617 0.019763 -0.027105 0.015759 -0.058504 0.085249 -0.151975 -0.027334 -0.044438 0.080551 -0.022405 0.068298 0.070320 0.023079 -0.073670 -0.035225 -0.029636 0.012885 0.018411 -0.064913 0.038935 -0.042526 -0.035155 0.011630 0.011400 0.068289 0.078212 -0.095688 -0.065553 0.064094 0.015412 0.001936 -0.019299 0.064472 0.044666 0.035458 -0.041209 0.022020 -0.096712 -0.022968 -0.033814 -0.038270 -0.038246 -0.122268 0.067605 -0.011691 -0.013357 0.028192 0.044214 0.080709 -0.034655 0.000436 -0.069109 0.054592 -0.000313 0.064582 0.050404 0.026424 0.019040 0.013188 -0.079569 0.007088 0.094633 -0.026805 -0.049800 0.031929 0.090875 -0.087728 -0.133155 -0.044044 0.019825 -0.020628 -0.032013 -0.015995 -0.054249 -0.054332 0.027110 0.029277 -0.108846 0.092782 0.023227 0.045662 -0.009862 0.047444 -0.082255 0.090600 0.069634 -0.001255 -0.066765 -0.009392 0.025515 -0.030649 -0.067591 0.027714 -0.044633 0.073778 0.064336 0.046199 -0.030063 -0.005690 0.055922 -0.117962 0.015645 0.091021 0.093014 -0.053155 0.039693 0.067391 0.078589 -0.105743 -0.106982 0.028358 0.029740 0.006089 -0.028271 0.079697 0.094537 -0.042104 0.020921 -0.073668 0.090852 -0.080570 -0.040496 -0.047703 -0.050029 0.065376 0.134023 0.002232 -0.025454
fish 0.055391 -0.042553 0.057704 -0.000773 0.018173 -0.053363 -0.030428 -0.090448 0.007346 0.054477 -0.107904 -0.065581 -0.037425 -0.023416 -0.016108 -0.004713 0.015792 -0.011552 -0.097531 0.009630 0.067968 0.019988 -0.098335 0.018160 0.009266 -0.059945 0.007254 0.078972 0.074388 0.008846 0.041533 -0.011235 -0.024173 0.083077 0.057029 0.042059 -0.028988 0.084551 0.050470 -0.074819 0.074875 0.007337 0.013943 -0.119237 -0.074308 0.046821 -0.033649 0.035936 -0.086278 -0.081184 0.109379 0.054568 0.004065 0.008249 -0.035329 0.010428 0.080074 -0.016744 0.033163 -0.093639 0.093450 0.053290 0.003650 -0.019106 0.081066 -0.043015 0.022827 -0.025112 -0.063692 0.057065 -0.043075 0.033677 -0.010553 -0.008169 -0.020255 -0.047083 0.039836 -0.030726 0.050683 0.049288 0.065758 -0.033047 0.039450 -0.006121 0.010392 -0.040182 -0.034163 0.030701 -0.017391 -0.024650 0.044532 0.008954 -0.078138 -0.016358 0.067278 0.047453 -0.043500 -0.083827 -0.032571 0.082020 0.028064 -0.148275 0.050434 -0.128983 0.113830 0.055668 -0.022392 -0.007781 0.036041 -0.022558 0.019987 -0.022635 -0.002429 0.081768 -0.119587 0.002828 -0.067756 -0.007484 -0.043571 0.151178 -0.006190 0.007043 -0.027784 0.038311 0.011140 -0.049789 0.101750 0.036681 0.032533 0.140820 -0.050980 -0.043076 -0.039020 0.064607 -0.047974 0.059547 -0.040227 -0.102319 -0.050845 0.024061 0.057267 0.055104 0.012832 0.053033 -0.155564 0.039783 0.007414 -0.029868 -0.046523 0.052313 0.051843 0.136332 -0.021564 -0.037737 0.122106 -0.019273 -0.040033 -0.081311 0.027603 0.043563 0.048282 -0.002307 0.031204 0.024154 0.005813 0.059172 0.032920 0.016923 -0.009651 0.065184 -0.038726 -0.013325 -0.033141 0.131855 -0.059350 0.036004 0.061734 0.048378 -0.007409 0.006019 -0.004948 -0.164502 -0.045840 0.064667 -0.049097 0.027626 0.156974 -0.055705 -0.038462 -0.017564 -0.101756 -0.055057 -0.065293 0.016106 -0.017055 -0.101959 0.024397 0.067602 -0.040166 0.052547 0.031359 -0.042897 -0.017711 -0.009992 -0.053230 -0.057630 0.013538 0.128018 -0.014744 0.007611 -0.068616 -0.012070 -0.005241 -0.006027 -0.044059 -0.006138 -0.031309 0.067023 0.115302 -0.059672 -0.016590 0.014756 0.022760 -0.060070 -0.019894 0.031656 -0.080349 0.128092 -0.001109 -0.028732 -0.000422 -0.068823 0.090259 -0.006653 -0.026476 0.088524 0.054849 -0.016086 -0.002936 -0.013418 -0.029115 0.001408 0.004557 0.045053 0.124419 -0.139676 0.124477 0.064258 -0.002578 -0.041942 -0.103578 0.065436 -0.048186 0.043113 0.008901 -0.109417 0.023417 0.016124 -0.040588 0.057327 0.110072 0.019449 0.016443 -0.063096 -0.040531 -0.017537 0.001121 0.010609 -0.003241 0.151219 0.014983 -0.062784 -0.065773 -0.094474 -0.046860 0.021963 -0.014766 -0.015665 0.040696 0.040315 0.020786 0.007430 0.017142 -0.073389 -0.091249 -0.054901 -0.038288 -0.036652 -0.017801 -0.015093 -0.080927 -0.014394 0.018978 -0.007256 0.049586 0.027798 0.014215 -0.020286 0.010834 0.032489
hammer -0.099076 0.053322 -0.021907 0.024740 -0.128579 -0.020254 -0.105648 0.013438 0.016609 0.002421 0.007248 -0.076157 0.074576 -0.071887 -0.014965 -0.066823 -0.047191 -0.071830 0.076407 0.063579 0.023879 -0.030808 -0.046503 -0.027320 -0.034270 0.007725 0.010017 0.007902 0.029900 0.012657 0.049274 0.105003 -0.080492 -0.075720 -0.054559 -0.026933 -0.087777 -0.010458 0.038896 0.044049 0.096054 0.041292 0.065086 -0.029211 -0.030846 0.069629 0.057824 -0.111514 -0.086458 -0.064570 -0.035717 0.073792 0.108400 0.016860 0.026262 0.109874 0.034059 0.029987 0.030431 0.028799 0.075936 0.032141 -0.005427 -0.030626 0.004085 -0.085665 0.025858 0.024440 0.043363 -0.065939 0.009846 0.006294 -0.001228 0.004860 -0.050232 -0.080206 0.020950 -0.134444 0.025733 0.137933 0.019472 0.039757 0.089071 0.070232 0.122813 -0.044574 -0.011545 0.035880 -0.077075 -0.006407 0.016245 0.065588 0.056732 0.056976 0.048899 0.003536 0.003654 0.049629 0.050990 -0.051289 0.018622 -0.001607 -0.008068 0.070028 -0.012437 -0.059181 -0.040766 -0.026098 0.028235 -0.016835 -0.026603 0.027599 0.005506 0.033175 0.126282 0.109988 0.020141 0.031845 0.066241 0.069684 -0.033781 -0.062195 0.055183 0.028797 0.026725 0.031362 -0.040618 -0.030153 0.061430 -0.028053 -0.035682 -0.008596 0.035159 -0.004526 0.095939 0.046098 -0.085184 0.034442 0.070806 0.193988 -0.043079 -0.026903 -0.099796 0.016680 0.039132 0.006684 -0.064550 0.031952 0.111335 0.065677 0.035187 -0.013797 0.043025 -0.006728 -0.144478 -0.082692 0.079630 0.062888 -0.013323 -0.051969 -0.009233 -0.069398 -0.015843 0.109527 -0.041603 -0.046961 -0.074936 0.028537 -0.055448 0.033378 -0.029134 0.103754 0.027398 0.031072 -0.101377 0.012822 0.002776 0.011097 0.031953 -0.007623 -0.067705 -0.136937 -0.074837 0.072763 0.062247 0.043756 0.002885 0.021860 -0.013304 -0.102032 0.011619 -0.029475 -0.037310 -0.055518 -0.012366 0.066554 0.040340 -0.051836 0.008252 -0.003091 -0.116954 0.052026 -0.048149 0.041952 -0.029769 0.047193 0.079484 0.024158 0.041265 -0.034076 -0.015816 -0.054563 0.061006 0.057217 -0.027201 -0.018545 -0.038224 -0.070387 -0.015903 -0.066861 -0.100882 0.016934 -0.068214 -0.017877 -0.162757 -0.009909 -0.032662 -0.038068 0.056079 -0.006195 0.028573 0.014689 0.020462 -0.048313 -0.006511 -0.031134 0.047980 -0.019953 0.043045 0.024832 -0.021290 0.015860 -0.020902 -0.035060 -0.052085 -0.046234 0.028463 -0.014110 -0.018520 0.044629 0.044844 -0.008068 -0.095631 0.039043 -0.103355 -0.063090 0.013620 0.109558 -0.139978 -0.097563 -0.050450 0.044152 -0.103428 -0.046166 0.081356 0.033942 -0.012793 0.075211 -0.008695 -0.067409 -0.043945 -0.047234 -0.064632 -0.002052 0.055296 -0.062655 0.025891 -0.062776 -0.020494 0.024373 0.055554 0.019913 0.016507 0.089169 0.098484 0.054724 0.028262 0.032398 0.091903 0.044023 -0.034679 0.000480 0.028137 -0.060650 -0.045226 0.116971 -0.067741 0.020773 0.044542 0.056935
horse -0.027086 -0.032507 -0.013758 -0.031643 0.075657 -0.003712 0.027099 -0.050996 0.036619 0.133810 -0.005877 -0.066375 0.049731 -0.030232 -0.077427 -0.060867 -0.061921 0.018471 -0.046653 -0.052842 -0.019464 0.027221 0.048221 0.069006 -0.033596 0.049329 -0.038381 0.095613 0.016650 0.015438 -0.071038 0.049094 -0.025355 -0.027482 -0.040421 -0.025006 0.026479 0.023805 -0.004987 0.096110 -0.052857 0.012924 -0.071002 0.024587 0.037678 -0.001323 0.035380 0.021297 0.014856 -0.070225 0.047087 0.094220 0.069117 -0.017642 0.106991 0.003953 0.073592 0.041865 0.080598 -0.081269 -0.049115 0.024147 -0.007540 -0.019167 0.079723 -0.042673 0.017927 0.012847 -0.022475 -0.122302 -0.115444 -0.006619 0.123289 -0.038121 -0.011011 0.099169 0.000508 0.002738 0.018045 -0.037191 -0.047853 -0.031095 0.001399 -0.034846 -0.015019 0.013757 0.055833 0.118656 -0.035345 0.030158 -0.054434 -0.042667 -0.098365 0.069508 -0.018994 0.036705 -0.067189 -0.141857 0.078175 -0.078748 -0.066870 0.045570 0.006425 -0.013066 0.073941 -0.007462 0.041728 -0.077326 0.073293 -0.024120 0.003592 -0.051647 -0.031615 -0.018693 0.043862 -0.012626 0.020294 -0.022030 0.065832 -0.069766 -0.066396 0.087488 -0.106205 0.078795 0.036131 0.010897 0.013215 -0.041218 0.043042 0.110493 0.049646 -0.034553 0.070107 -0.064324 -0.023405 0.000478 0.060627 -0.072086 0.049734 -0.014285 -0.094882 0.035038 -0.029013 -0.091314 0.035952 -0.065008 -0.014893 -0.070264 -0.050534 0.059243 0.021559 -0.055356 -0.021518 0.010259 0.085180 0.022971 -0.072966 -0.070086 0.038224 0.048479 -0.030802 -0.046465 0.027020 0.008489 -0.158781 -0.021032 0.028893 -0.071702 0.064583 -0.046850 0.006483 -0.048760 -0.077536 0.021975 -0.009459 0.078035 0.065130 -0.083970 0.012346 0.052408 0.050005 0.087066 0.099519 -0.048362 0.017531 0.143827 0.074022 -0.035911 -0.088780 -0.084308 0.044586 -0.011144 0.004704 -0.043780 -0.047768 0.049336 -0.021195 0.034196 -0.103689 0.092548 0.059840 0.064001 -0.138764 0.027617 -0.080407 0.022766 0.051912 0.053770 0.026240 0.092771 0.000292 -0.039750 -0.021833 0.015110 0.037327 -0.058609 0.043030 -0.004184 -0.024515 -0.064128 -0.020953 0.006935 -0.019580 0.023757 -0.072705 -0.078110 -0.042820 0.060587 -0.024022 -0.008710 0.038354 0.026723 -0.038603 -0.076272 -0.020456 -0.089754 -0.006712 -0.044723 -0.010479 0.015184 -0.026984 0.045971 0.136776 -0.111858 0.138369 -0.066380 -0.076967 -0.044303 0.035067 -0.005026 -0.030517 -0.032176 -0.027021 0.036673 0.095382 -0.029523 -0.035677 -0.030134 -0.109101 0.005251 0.027409 -0.026923 -0.033679 0.038559 0.033182 0.025238 0.023696 0.016666 0.075963 -0.061900 -0.017606 -0.126213 -0.020026 0.108078 -0.057642 -0.067516 -0.002654 0.066768 0.042316 -0.019817 0.088430 0.004526 0.077183 0.084232 -0.039275 -0.086651 0.033780 0.018617 -0.005619 0.024801 -0.011888 0.073587 -0.157177 0.085353 0.016560 0.002555 -0.058093 0.065095 -0.072159 0.000030
knife 0.074480 -0.099903 0.024785 0.005153 0.027134 -0.021460 0.024460 0.079280 -0.010688 0.095839 -0.057459 -0.042194 0.067072 -0.007105 -0.048068 -0.046691 0.072076 0.052523 -0.037748 -0.084116 0.102478 -0.008272 -0.015343 -0.071086 -0.098314 -0.070973 0.004551 -0.006050 0.098636 0.031033 -0.029886 -0.059517 0.073132 -0.025774 0.162087 -0.009831 -0.072720 -0.094403 -0.049850 0.082848 -0.011621 -0.146782 -0.027932 -0.015140 0.066299 0.042952 0.000096 0.015106 0.117223 0.050671 -0.028189 0.036585 0.068027 0.127921 0.022585 -0.019267 0.028106 -0.028572 0.017280 -0.037701 0.000060 -0.090424 0.037014 0.036613 -0.102572 0.050914 -0.031747 0.095559 0.080363 0.060872 0.016418 -0.062243 -0.116627 -0.008344 -0.073646 0.013650 -0.087897 0.035347 0.020655 -0.052250 -0.055498 0.014768 0.045371 0.023016 -0.046013 0.014176 -0.004846 -0.021801 -0.063591 -0.003574 -0.033557 -0.015610 -0.116529 0.059414 -0.022529 0.004457 0.070914 0.092634 0.030174 -0.066812 -0.011842 0.019366 -0.007649 0.011691 0.047603 0.030464 0.079052 0.052406 -0.045221 -0.024940 0.006726 0.006819 -0.030975 -0.007337 -0.017756 -0.027549 0.023413 0.062863 0.101267 0.053658 -0.034817 0.078592 -0.074119 0.038679 -0.039164 -0.030431 0.109837 -0.024378 0.013827 0.014611 0.007400 -0.068909 0.030375 0.004951 -0.009307 -0.001680 0.025541 0.043662 -0.103172 0.017448 0.082650 -0.133962 -0.073244 -0.053235 -0.099317 -0.111325 -0.055927 0.051632 -0.013954 -0.063790 0.004717 0.016651 0.018890 0.003677 0.147562 0.029976 0.025458 -0.042498 -0.054027 -0.071052 -0.064183 0.034807 0.007753 -0.025862 -0.025216 0.057607 -0.009624 0.018237 0.015079 0.023966 -0.053345 -0.130039 -0.115043 0.023368 -0.052478 -0.007931 -0.109985 -0.052947 0.017968 -0.012056 -0.061003 -0.063595 0.096782 0.000425 0.009930 -0.095880 -0.059043 -0.006830 -0.078068 0.000896 -0.063086 -0.034114 -0.046896 -0.091551 -0.096309 0.020514 -0.062758 -0.006700 -0.013589 0.019632 0.043505 -0.037854 -0.075082 0.019376 0.062832 -0.016655 0.004123 -0.001862 0.001299 0.038640 -0.020267 0.042915 0.023840 0.109492 -0.039967 0.043951 0.044705 -0.063766 0.044773 0.035723 -0.024046 -0.137237 0.030640 -0.087363 -0.019978 -0.113554 0.039860 -0.104589 -0.026661 -0.030697 0.010770 -0.071367 0.018720 0.024039 -0.025941 -0.033185 -0.146294 0.102213 -0.012713 0.030806 0.021862 -0.021953 0.040304 -0.034126 0.050727 0.102706 0.021576 -0.011541 0.053582 0.018900 -0.026383 -0.033022 0.021725 0.053477 -0.019552 0.032357 0.131670 0.054208 -0.001492 0.022070 -0.033914 -0.057952 -0.052061 -0.076730 0.065233 -0.042724 -0.081750 0.045225 0.007009 0.001828 -0.077814 -0.073342 0.095429 -0.061303 0.022965 0.026127 -0.089203 -0.085126 0.011707 -0.010473 -0.018152 0.078832 -0.088288 -0.007332 0.071199 0.041605 -0.029704 0.029398 0.032948 -0.047044 -0.078384 0.042753 0.007492 0.120012 -0.047735 0.074107 0.043695 0.019275 0.027545 -0.051059
lion -0.002001 -0.020211 -0.017487 -0.060941 0.008742 0.091048 -0.072154 0.032770 -0.105947 0.034230 0.012176 -0.063182 0.021741 -0.000021 0.096060 0.004457 0.023249 -0.018745 -0.069412 0.146372 0.010822 0.023898 0.007048 -0.082029 -0.099513 -0.103986 0.081755 0.037090 -0.037894 -0.083402 -0.035930 -0.008184 -0.074522 0.057026 -0.045096 -0.009192 -0.005169 -0.128575 0.039395 0.000481 -0.117861 -0.025565 -0.021779 -0.067110 0.029602 0.062118 0.030858 -0.094526 -0.052219 -0.115467 0.013404 -0.056093 0.028323 0.043069 0.057257 0.002158 -0.001098 -0.089439 0.135887 0.133626 -0.014376 0.022010 -0.062848 -0.023318 0.002945 -0.050387 0.106660 0.010761 -0.049142 -0.026031 -0.006338 -0.086929 0.038269 -0.002958 0.042340 0.010549 -0.040589 -0.067078 0.084552 0.032977 0.031967 0.029807 -0.003353 -0.061255 0.119380 -0.011311 0.068958 -0.010486 0.067963 -0.034109 -0.081957 -0.028445 -0.038485 0.015829 0.024153 -0.107348 -0.057979 -0.105451 -0.057116 0.000843 -0.051683 0.049816 0.026910 -0.054400 0.081503 0.062535 0.011553 -0.036254 0.113919 0.053117 -0.070546 -0.006511 -0.037209 0.048612 -0.065829 -0.037739 -0.025205 0.031561 -0.066217 0.008116 -0.103949 0.066196 -0.152346 -0.002072 0.056978 -0.043184 0.061283 0.059372 0.082160 0.072240 0.003476 -0.019596 0.021818 0.062000 -0.016841 -0.151081 -0.104829 0.107565 -0.054841 -0.028113 0.045573 0.033956 0.024956 0.023739 -0.132780 0.158354 -0.017041 0.051804 -0.000923 -0.029138 -0.029116 0.016610 0.087170 -0.069342 0.040011 0.106311 -0.041515 -0.000925 -0.065853 0.107800 -0.066855 0.022740 -0.116609 -0.058892 -0.011270 -0.074131 -0.031279 -0.073205 0.027113 -0.049523 -0.069577 0.010572 -0.105653 0.049481 -0.053308 0.093480 -0.006512 -0.053720 0.000987 0.060724 -0.138504 -0.049665 0.072089 -0.074998 -0.075734 -0.073668 -0.012280 -0.075815 0.016221 -0.092936 -0.016591 -0.017757 -0.019972 -0.029597 -0.060609 -0.033429 0.050613 0.038573 0.004373 0.061813 0.022095 -0.008943 -0.000896 -0.036151 0.097572 0.012862 -0.007267 0.090590 0.035799 -0.046365 0.018977 -0.073467 -0.008208 0.026533 0.000990 -0.013419 -0.056345 0.020453 0.032491 -0.057692 0.002847 0.019080 0.018577 0.003290 0.041282 0.034393 0.055997 0.030265 -0.049385 0.007783 -0.031226 -0.043389 0.008136 0.001499 -0.042265 0.021992 -0.048657 0.022079 -0.108277 0.084343 0.019928 0.042237 -0.011847 -0.096792 -0.086053 -0.013401 -0.029229 0.026166 0.058100 0.006174 -0.055047 0.035582 -0.021902 0.030459 0.069660 -0.049393 0.086691 -0.032279 0.014712 0.084935 0.019599 -0.058235 -0.029130 -0.008994 -0.007220 -0.024552 0.053463 -0.001050 0.111906 0.001366 -0.079001 -0.022618 0.057632 -0.030469 0.077297 -0.010901 0.024959 -0.018457 0.009697 0.009427 0.062216 -0.019100 -0.072776 -0.064501 -0.026687 0.028065 -0.046639 -0.048169 -0.026567 0.011145 -0.012781 -0.085476 -0.018695 0.078401 0.026852 0.033297 -0.053412 -0.015879 -0.087599 0.027484
meat 0.046038 -0.014918 -0.022573 -0.039417 -0.008101 0.077800 -0.036908 0.009507 0.048906 -0.004235 -0.071335 0.031649 0.093177 0.009809 -0.010174 -0.013850 -0.117382 0.032018 -0.026720 -0.052628 0.075286 -0.069473 0.002104 -0.064554 0.028399 -0.081963 0.016566 0.009302 0.049958 -0.085234 -0.018544 -0.062840 0.012272 -0.104136 -0.032003 0.036892 0.017001 -0.099759 0.071918 -0.007515 0.055366 -0.027020 0.003244 0.019946 -0.017808 0.128511 -0.008313 0.024251 -0.043036 -0.039097 -0.013359 -0.034949 -0.056208 0.027353 -0.032330 0.108025 -0.002000 -0.021829 0.040229 0.107694 -0.075013 0.068155 -0.075095 -0.033439 -0.068139 -0.042085 -0.077848 -0.031518 -0.022431 -0.000420 0.020603 0.040031 0.002281 0.066508 0.003390 0.058951 0.017709 -0.042177 -0.077312 -0.149352 -0.032218 -0.068326 -0.021247 0.060529 -0.133519 0.042438 -0.072491 -0.104720 0.129059 0.044472 -0.155887 0.085289 -0.009846 0.073220 -0.042454 0.015251 0.019901 -0.117108 0.028375 0.041034 -0.036704 0.030871 0.031486 -0.011006 0.062306 0.051502 0.099862 0.022089 0.032936 -0.000430 0.044183 0.013330 0.018110 0.041763 0.000793 -0.029508 -0.106249 0.027592 -0.070931 -0.047381 -0.020569 0.023509 0.034792 0.012995 -0.000610 0.015909 -0.025550 0.089760 0.106191 -0.047957 -0.071348 -0.061906 -0.033431 -0.070733 0.027854 0.016610 0.064400 0.017873 0.012471 -0.022544 0.074462 0.092929 -0.046685 0.038901 -0.021208 -0.011350 -0.048697 -0.069099 -0.012564 0.061988 0.093251 0.052842 -0.004009 0.080799 0.001170 -0.001625 -0.082430 0.079163 0.058040 -0.046081 -0.057098 0.118881 0.015842 -0.037415 -0.014755 0.029302 0.061787 0.061637 0.091970 0.046596 0.038459 0.063452 -0.046884 -0.029726 -0.077130 0.036538 -0.030137 0.020921 -0.004965 -0.013446 -0.024914 0.039806 0.096363 -0.024131 -0.052059 0.114400 0.010359 -0.037680 -0.014287 0.059176 -0.012588 0.009392 -0.072660 -0.019365 0.042611 0.031155 0.053566 -0.097021 -0.012234 0.017394 0.062070 0.112565 0.015118 -0.055589 -0.050334 -0.074865 0.072745 -0.006456 -0.058937 0.086338 0.074113 0.000914 -0.040162 0.019568 -0.061165 0.018763 0.022117 0.004484 0.045152 0.008431 0.023707 0.075460 -0.011004 0.086900 0.061787 -0.009813 -0.023552 -0.038526 0.083731 0.179499 -0.008287 0.020096 0.013979 -0.003894 -0.008841 0.041315 -0.076160 -0.054408 0.000854 -0.004645 -0.001288 0.039979 0.042492 -0.062835 -0.033478 0.077042 0.005872 0.021420 0.063958 -0.111451 0.076776 0.027679 -0.061104 0.073675 0.137400 0.084556 -0.007460 0.042633 0.027874 -0.052131 0.160774 -0.071126 0.112137 0.002947 0.023441 -0.028933 0.054435 0.080266 0.009469 -0.036442 -0.035633 0.029491 -0.138766 -0.112542 0.004155 0.021333 -0.016481 -0.015760 -0.099141 -0.007402 -0.010222 0.009325 0.026735 -0.116156 0.064794 -0.117359 0.031814 -0.029314 0.047728 0.035149 0.007897 -0.017259 -0.099405 -0.011487 -0.041954 -0.066846 -0.064339 0.001221 -0.003835 0.059301
milk -0.032134 -0.085980 -0.045788 0.009061 -0.104733 0.057940 -0.009716 -0.010655 0.004885 0.038574 0.039491 -0.030326 -0.033642 0.112201 -0.127056 -0.068271 -0.047512 0.064944 0.016161 0.016517 -0.043606 0.002205 -0.057936 -0.026475 -0.033603 -0.043620 -0.052593 0.014405 0.025020 -0.058471 -0.020086 0.007515 -0.020110 0.074259 -0.024733 0.027605 0.044383 -0.069737 -0.052205 -0.088618 0.022069 -0.014612 0.015448 0.015699 0.018384 0.039326 -0.015847 0.047283 0.027485 -0.086207 -0.018602 0.092619 0.199808 0.022743 -0.007485 -0.104488 0.014618 0.011532 -0.026608 0.108919 0.027306 -0.057171 -0.077079 0.035721 -0.025426 -0.068451 -0.094832 -0.004838 0.030179 0.053641 0.019847 0.117998 -0.060376 0.004270 0.015208 -0.101593 -0.000477 -0.067980 0.011970 -0.039103 0.029001 0.086299 -0.032374 -0.048372 -0.074765 0.026811 -0.039356 0.052277 0.096412 0.099421 0.114464 0.015930 0.028946 -0.055326 -0.065236 0.045893 -0.067197 0.055587 -0.027590 -0.015621 0.115192 0.015650 0.023185 -0.027539 0.046669 0.000598 -0.043723 -0.048402 -0.114030 -0.063352 0.043864 -0.010694 -0.060739 0.044241 0.028903 0.013632 -0.060674 -0.011416 0.014872 -0.019279 0.057823 0.030198 0.086886 0.004157 -0.026599 0.002628 0.156031 0.064316 0.006120 0.026069 -0.012889 -0.014618 0.082734 0.005895 0.063479 0.105021 -0.011338 0.025237 0.054271 0.039206 -0.034618 0.005018 0.106529 -0.009604 0.019609 0.031374 -0.097807 0.032391 -0.072988 0.021038 0.085356 -0.028493 -0.097841 0.003625 0.004501 0.012134 0.005226 0.028302 -0.081640 0.068192 -0.108493 -0.013446 0.048576 -0.019801 -0.079270 -0.045677 -0.026260 0.129199 -0.083037 0.029373 0.001633 -0.051600 -0.096675 -0.063805 0.021851 0.031493 0.083637 -0.047358 -0.130518 0.038105 0.027592 0.050809 -0.101953 0.083967 -0.000688 0.119528 -0.006527 0.072228 -0.028365 0.132350 -0.036689 -0.081448 0.013476 0.088968 0.051343 0.004107 0.019192 -0.001748 0.096564 0.059008 -0.004136 0.050089 0.002631 0.061697 -0.028863 0.005858 -0.035161 -0.086077 -0.091355 0.085136 0.033178 -0.025780 0.016883 0.005045 0.077848 -0.034405 -0.016733 -0.070901 0.069832 0.037090 0.020659 0.135188 0.049178 0.075972 0.032209 -0.023915 0.004615 0.002562 -0.003972 0.090159 -0.011469 0.017712 -0.006192 -0.093703 0.030787 0.049111 0.009389 0.009436 -0.030345 -0.043519 -0.047798 -0.094468 0.005407 -0.078425 -0.020333 -0.101167 -0.036681 0.041583 0.000843 -0.006296 0.006217 -0.078841 0.060066 -0.018369 0.037841 0.024291 -0.143091 0.083638 -0.021588 0.056559 -0.003107 -0.049937 0.070104 -0.063274 0.025047 -0.044535 0.004702 0.030085 0.038397 0.030335 -0.030100 -0.022240 0.005506 0.046040 0.030117 -0.006714 0.022709 0.060190 0.024360 0.065382 -0.024129 0.044092 -0.025797 -0.000991 0.009058 -0.073326 -0.011618 0.011528 0.001652 0.050903 -0.112497 -0.093411 0.050620 0.035352 0.109058 -0.020237 0.066215 0.126288 -0.108991 -0.083319
rice -0.029604 -0.081839 0.084105 -0.007378 -0.040803 0.053401 0.040324 -0.035700 0.036128 -0.050627 -0.036785 0.078915 -0.040472 -0.026952 -0.033962 -0.042612 -0.140648 -0.073616 0.008950 0.076318 0.044312 -0.044935 -0.010562 -0.089165 -0.005011 -0.016127 -0.029227 0.036177 0.030506 0.019006 0.130161 0.013747 -0.139270 -0.085144 -0.013285 -0.040684 -0.007041 0.066442 0.013655 -0.078977 0.079625 -0.014605 -0.001714 0.020816 0.035792 -0.037644 0.010435 0.075182 0.062569 -0.053844 -0.004181 0.091243 -0.017378 -0.050411 -0.045324 0.021742 0.002506 0.017558 0.020132 -0.006616 0.043657 0.073687 0.008599 0.023805 0.073551 0.025533 0.064096 -0.111118 -0.001458 0.030449 -0.001337 -0.022959 -0.000773 -0.048119 0.012929 0.029148 -0.003238 0.053768 -0.030289 -0.025657 -0.003325 -0.025723 0.036008 -0.021432 0.023880 0.057317 -0.078800 -0.003250 0.009578 -0.102163 0.014764 -0.001192 -0.078231 0.063967 0.016827 -0.122708 -0.013539 -0.018578 0.014753 -0.046835 -0.043081 0.015258 -0.059965 0.042095 0.025824 0.028709 -0.023216 0.013709 -0.022318 0.016087 -0.084504 -0.006339 -0.134966 0.006865 0.157687 -0.066166 -0.050249 0.061417 -0.052250 -0.062044 -0.012256 -0.004820 0.051276 -0.039314 -0.024337 -0.014790 -0.015137 0.019877 0.091765 -0.060883 -0.066405 -0.000443 -0.013908 -0.098686 -0.064321 -0.098119 0.012796 -0.034079 0.101266 0.016547 -0.071011 -0.059887 -0.028343 -0.054861 -0.011017 0.065380 -0.035053 -0.043419 -0.108230 -0.074095 0.020470 -0.007922 -0.001433 -0.075312 0.054719 -0.022966 -0.111333 -0.050148 -0.035227 0.003328 -0.080002 0.055895 0.002234 0.071014 0.083466 -0.019840 -0.034580 0.048468 -0.096540 0.066313 0.009519 -0.029593 -0.082581 -0.070369 -0.014981 0.019339 0.008375 -0.123277 -0.049477 0.034498 0.101195 -0.024464 0.026317 -0.000276 -0.030786 -0.059173 -0.046385 -0.081763 0.030416 0.058877 -0.018350 -0.031739 0.056861 0.149271 -0.118519 0.039032 0.004416 0.016965 0.059514 0.086548 0.017081 0.116434 -0.062635 0.037560 -0.087923 -0.079203 0.020533 0.042720 -0.055335 0.053129 -0.042699 0.081384 -0.094228 0.014811 0.050303 0.002432 -0.016079 -0.012685 -0.139858 -0.075129 0.070097 0.036344 0.059136 -0.001210 0.108383 -0.002807 0.036894 -0.026747 -0.015908 0.073923 -0.075358 0.089199 0.090334 -0.009472 0.078122 -0.024736 -0.007692 0.008204 -0.043600 0.031228 0.037789 0.043574 -0.053860 -0.089364 0.028329 -0.003480 -0.090258 -0.057001 -0.020378 0.077741 0.014166 -0.033027 -0.050033 -0.050632 -0.021440 0.008671 0.069335 0.155708 0.096994 -0.002134 0.069197 -0.009570 0.093697 0.033609 -0.019425 0.039718 -0.068958 -0.055981 -0.018398 -0.016190 -0.113488 0.048729 0.137109 -0.091628 0.079729 -0.091572 0.006096 -0.038193 0.008527 0.044029 -0.074229 -0.016356 0.035871 -0.058581 0.046386 0.074029 -0.023993 0.075929 -0.117139 -0.030588 0.048694 0.053692 0.056538 0.048762 0.001465 0.025099 0.000336 -0.081992 0.070833 0.042243
saw 0.003985 -0.039502 0.114819 -0.063625 0.007301 -0.034392 -0.011141 0.084053 0.028694 -0.037199 0.050865 0.047217 -0.003692 -0.018864 -0.035978 -0.126367 0.073523 -0.031018 -0.050330 -0.026831 -0.043858 0.039611 0.003394 -0.074355 -0.027470 -0.052674 0.050114 -0.057719 0.011366 0.007004 0.023481 0.004762 -0.006519 -0.134874 0.013634 -0.042562 -0.069709 0.099303 0.060795 -0.018419 0.021916 -0.007104 -0.097681 -0.022757 0.038160 0.012552 -0.046793 0.060807 0.012575 -0.072475 -0.018438 -0.024924 -0.049559 0.040094 -0.023454 0.006349 0.106801 -0.038963 -0.052231 0.007194 -0.026201 -0.027608 -0.060407 -0.093573 -0.032217 -0.062358 -0.061438 0.173762 0.158219 0.131746 -0.033440 -0.064814 0.029889 -0.072710 -0.017943 -0.048534 0.044582 -0.014035 0.009840 -0.014639 -0.012665 -0.109096 -0.009528 -0.007187 0.015791 -0.020894 -0.047285 0.012270 0.095632 -0.013787 0.110612 -0.146812 -0.052140 -0.002211 -0.065022 -0.151464 -0.009963 -0.049084 -0.051126 -0.017652 -0.018922 -0.031786 0.011779 -0.039643 0.064729 0.061532 -0.076561 -0.041926 0.044624 -0.077549 -0.024539 -0.007353 0.051892 0.058246 -0.007159 0.032160 0.018667 0.102103 0.001728 -0.010802 -0.023740 -0.063963 -0.066361 -0.133439 0.073419 0.108771 -0.095893 0.046033 0.022332 -0.029329 0.043104 0.001298 0.158662 0.074042 -0.046971 -0.060456 0.076397 0.005904 -0.030338 0.013405 -0.011916 0.036595 -0.073683 -0.141900 -0.019445 -0.053177 -0.037652 -0.104363 -0.045685 -0.092213 0.066968 -0.070723 -0.020813 0.080808 -0.018542 0.035817 0.056953 0.019014 -0.038203 -0.063717 0.079107 0.014475 -0.040985 -0.010278 -0.008472 -0.099797 0.028624 0.073990 -0.037321 -0.050243 -0.033903 -0.003711 0.105355 0.050687 -0.010245 -0.022896 -0.009871 -0.018441 -0.053164 -0.037816 0.023562 -0.058450 -0.083417 0.005549 -0.006181 -0.116132 0.050430 0.073615 0.101559 -0.029392 0.032940 0.075151 0.027622 0.064675 0.000612 -0.013232 0.020691 0.030820 0.032234 0.061478 0.007006 -0.013591 0.054447 0.000178 -0.030412 0.055029 -0.110294 0.070873 0.056622 0.003242 0.065439 -0.013045 0.017341 -0.089780 -0.068024 0.004597 -0.022814 -0.058937 0.064452 -0.002918 -0.027040 -0.009034 0.072377 0.044717 -0.007391 0.021110 -0.025424 0.097343 0.078488 -0.019077 0.022120 0.062240 0.046538 0.052867 0.032248 0.001927 -0.080996 0.093550 -0.018735 0.008322 0.010038 0.033350 -0.021535 -0.062908 0.075126 0.053303 0.095727 -0.005261 0.017908 0.045833 -0.061825 -0.099510 -0.030986 -0.024459 0.107024 0.130508 0.010473 0.026131 -0.015686 -0.023055 0.009743 0.023278 -0.029182 -0.006479 -0.021893 -0.056486 -0.000878 0.054867 0.013767 -0.044034 0.050727 -0.007599 0.050139 -0.037890 0.097235 0.096422 0.028343 0.076871 -0.051515 0.103033 -0.070129 0.025003 -0.031744 -0.109419 -0.065892 -0.029444 0.012753 -0.017283 0.050038 -0.016365 -0.047237 0.069778 0.071243 0.004816 -0.100963 -0.041897 -0.031173 -0.003941 0.092037 0.005605
scissors 0.027039 0.016266 -0.058162 0.050143 0.087346 0.033426 0.077466 0.007356 0.006435 0.055580 -0.003573 -0.038195 0.098611 -0.003606 -0.040279 -0.022231 -0.130747 0.065982 0.088321 -0.048610 -0.018014 0.080948 0.061586 -0.038618 0.007869 0.024875 0.066452 0.064143 0.038069 -0.031319 0.088440 0.024441 -0.059558 -0.026435 0.114203 -0.115544 -0.055179 0.049526 -0.016370 -0.060510 -0.191575 -0.025634 0.072120 -0.054294 -0.073425 0.061501 0.085941 -0.050383 -0.025974 -0.092247 0.012958 -0.042930 -0.004520 -0.137367 0.057211 -0.103273 -0.066521 -0.015260 -0.102849 -0.082170 -0.053430 -0.110793 -0.049017 -0.013663 0.083753 0.057256 -0.136478 0.004917 -0.023588 0.025450 -0.035364 0.015331 0.035153 -0.037327 -0.094116 -0.019904 0.029543 0.023314 -0.018383 0.055786 -0.007083 -0.080314 0.005621 0.056282 0.065196 -0.027272 0.014516 -0.005263 -0.059793 0.011807 -0.039704 -0.004583 -0.041112 -0.020085 0.005300 0.004488 0.014748 -0.016636 -0.022287 0.010452 -0.030108 0.003775 -0.054292 0.000953 0.047371 0.038677 0.056166 0.073525 0.001875 0.047740 -0.010453 0.039628 0.038229 0.085297 0.046827 0.039731 0.017882 -0.015785 -0.033367 0.043558 -0.083681 0.094133 0.017003 0.049361 0.045707 0.014141 -0.005161 -0.119756 0.019785 0.012969 -0.072367 0.017534 0.006250 0.081367 -0.097676 -0.031103 -0.010792 -0.027205 -0.008027 -0.108644 -0.140965 -0.028821 0.008873 -0.060398 0.031713 0.007604 0.029458 -0.008069 -0.087957 -0.011678 0.021016 0.072453 -0.090934 0.128018 -0.004394 -0.043741 -0.014380 0.049035 -0.003083 -0.047694 0.045728 0.058196 -0.000949 0.103554 0.111164 -0.135293 0.003619 0.118678 0.026528 0.078347 0.020529 -0.072641 -0.041185 0.003129 0.053724 0.007595 -0.040609 -0.038092 0.021642 -0.002715 0.126134 -0.006882 -0.079069 0.048424 0.030925 -0.011223 -0.054857 0.034585 -0.040657 -0.033928 -0.031179 0.061455 -0.081668 -0.003912 -0.022882 0.054967 -0.015060 0.054072 -0.047677 0.025027 0.013487 0.002982 0.075775 0.037837 0.029773 0.063298 0.029146 -0.004978 0.063413 0.126688 -0.028587 0.044768 0.008253 -0.005076 -0.104017 -0.055176 -0.044471 0.083722 -0.048767 0.075073 -0.042588 -0.009618 -0.033115 -0.045708 -0.096463 0.062427 0.068870 0.064393 0.059503 0.051204 0.079698 -0.031016 0.024732 0.077472 0.013822 -0.027024 -0.041361 -0.002021 -0.025855 -0.170393 0.037795 0.059484 0.036597 0.011324 -0.046130 0.001585 0.087901 -0.078384 0.124337 -0.087164 0.042216 -0.050860 -0.010161 -0.108132 0.060944 0.012184 0.081517 -0.006393 0.076052 0.000662 -0.018729 -0.023003 0.058890 0.019766 0.034957 -0.097749 0.018010 -0.038962 -0.057686 -0.117450 0.029728 -0.016844 -0.002546 -0.081795 0.007846 -0.035910 -0.016581 0.032053 0.004981 0.039487 -0.039734 -0.086797 0.017592 -0.062928 -0.011870 -0.070476 -0.027040 0.040035 -0.020026 -0.065925 0.012015 0.009454 0.005622 0.033986 0.056746 0.110393 0.036827 -0.027503 0.045741 -0.075085
screwdriver 0.012937 0.106409 0.004730 -0.014170 -0.044637 0.073742 -0.026553 0.042471 -0.014797 -0.097311 -0.004493 -0.067025 -0.041756 -0.029713 0.110805 0.015845 0.005749 -0.029661 0.052924 0.014157 0.096666 -0.037883 0.115164 -0.036887 0.024646 -0.025727 -0.015095 -0.036723 -0.063169 -0.124864 -0.048386 -0.066943 0.019071 -0.045256 0.006642 0.064025 0.040340 -0.074962 0.015245 0.039624 -0.006392 -0.066637 0.030004 -0.014628 0.005302 0.056676 0.035240 -0.032339 -0.107066 -0.003333 0.006915 -0.011906 0.025501 0.030767 -0.059123 0.050679 0.030641 0.007915 0.013832 0.142946 0.026475 -0.015405 -0.109045 -0.025390 0.018248 -0.068118 -0.009633 0.027316 0.075390 -0.092540 -0.029647 -0.019045 -0.000622 0.008174 0.051160 0.071062 0.154613 0.004523 0.019244 0.013421 -0.006765 -0.065647 -0.015360 -0.028712 -0.086825 0.015427 -0.025973 0.021467 -0.001014 0.024612 0.102260 0.023179 -0.026683 -0.008558 0.022749 -0.025576 -0.035449 0.077298 0.010185 -0.040114 0.003915 -0.004213 -0.056305 0.019655 -0.022665 -0.043463 0.056297 -0.034660 0.078516 -0.084203 0.036815 0.006479 0.018064 0.010769 0.056595 -0.013385 -0.022693 -0.007158 0.125479 -0.067926 0.052247 -0.042705 0.039360 0.085363 -0.084222 -0.054180 0.052977 0.073052 -0.036090 0.087572 -0.006992 0.031263 0.091869 -0.019024 0.098888 -0.046483 -0.005802 -0.000904 0.122946 0.007704 0.036179 0.041904 -0.050105 0.039161 -0.006745 -0.116727 -0.025499 -0.010641 -0.130679 -0.086419 0.010794 0.014686 0.030013 0.000167 -0.040284 0.052603 -0.082749 0.029394 -0.100531 0.049612 -0.047014 0.100625 -0.027705 -0.027870 -0.069311 0.033755 -0.072201 0.002047 0.025193 -0.058900 -0.068740 -0.023333 -0.090653 -0.040513 -0.023511 -0.083768 -0.015308 -0.004535 0.023975 -0.016211 -0.145679 -0.054726 0.007198 0.005567 -0.052339 0.073953 0.059225 -0.075130 -0.024936 0.028465 0.101127 -0.123072 0.036617 -0.022777 0.000642 -0.003186 0.096363 0.124156 -0.023173 -0.056288 0.155450 0.024383 -0.078351 0.078606 0.004130 -0.017730 0.073759 -0.096428 0.068709 0.014670 0.024226 0.021972 -0.101726 -0.059120 0.023343 0.009305 -0.004214 -0.097433 -0.001917 -0.047551 -0.036549 0.029516 0.006536 -0.109902 -0.019682 0.018802 0.019054 -0.013157 0.007260 -0.072083 0.128677 0.020486 -0.061343 -0.117215 -0.115644 -0.057875 0.071590 -0.021363 -0.016431 -0.068469 0.104556 0.110501 -0.166654 -0.021244 0.023318 0.046562 -0.020304 -0.032570 0.040289 0.088774 -0.116335 -0.058561 0.044464 -0.051203 -0.024740 0.068568 0.041861 -0.009333 0.031478 -0.094688 -0.000186 0.032724 0.063232 0.038973 0.021257 -0.029891 0.008226 0.093964 0.061626 0.016469 -0.001177 -0.065175 -0.086475 -0.058574 0.045126 0.031171 0.065495 -0.014849 -0.117967 -0.034947 0.048743 0.038111 0.009990 -0.007195 -0.024698 0.033392 -0.048396 0.027818 -0.000919 -0.097213 0.099189 -0.021741 0.056612 0.056765 -0.014621 -0.007882 0.009565 -0.041971 -0.022973 -0.029680
ship -0.084069 -0.056631 0.007933 0.028698 -0.114932 0.040602 0.066756 0.032399 0.089824 -0.062595 -0.077670 -0.078074 0.071609 0.140677 -0.097462 -0.015558 -0.084588 -0.116162 -0.060748 0.066285 -0.039226 0.027021 0.020119 -0.063584 0.068571 -0.068405 -0.042436 0.029967 -0.017435 -0.018788 0.039975 0.081471 -0.098008 0.006773 0.042000 0.080757 -0.164131 -0.047495 0.008757 -0.030705 0.045795 0.015735 0.036558 -0.030321 -0.012820 0.056569 0.035507 0.017214 0.027156 -0.047145 -0.047164 -0.023062 0.077045 -0.060523 0.005320 0.036594 -0.000843 -0.005439 0.019944 -0.039070 0.070597 -0.110060 0.048113 0.015212 0.083241 -0.108566 -0.036662 0.063674 -0.066002 -0.010781 0.060559 -0.055554 -0.047377 -0.076465 -0.005961 -0.031042 0.019954 0.014043 0.023565 -0.024786 0.049405 0.060247 0.057428 0.033502 -0.032636 -0.010058 -0.067275 0.013191 0.050098 -0.042899 0.073217 0.048937 0.098186 -0.061674 0.006937 -0.037750 -0.031240 0.051437 0.084767 -0.008023 -0.005180 -0.050765 -0.031819 0.006975 0.028062 0.060622 -0.029069 -0.032543 0.081006 0.004917 -0.103641 0.075932 -0.039932 0.043842 -0.016435 -0.004878 0.102824 -0.091377 -0.000939 -0.032593 -0.013280 -0.010155 0.058140 0.016785 -0.012162 0.102689 0.068551 -0.048752 -0.017325 -0.033214 0.011862 -0.014669 0.040199 -0.031644 0.019932 -0.031579 -0.033167 0.056771 -0.082436 0.016241 0.045079 0.059458 -0.052653 0.055261 -0.003733 -0.007892 0.025532 -0.065267 0.076074 0.037738 -0.032075 -0.054444 0.119195 -0.012895 -0.000312 -0.091753 -0.023912 0.030530 -0.035372 -0.003624 0.021604 -0.022893 0.068967 -0.003376 0.003307 0.002903 -0.109487 0.021931 0.026705 0.074738 0.012930 -0.007108 0.026378 0.148740 -0.067766 0.013186 0.016346 0.031632 -0.080812 0.104635 0.064357 -0.010533 0.095300 0.019415 0.113800 0.014515 -0.126519 0.005727 -0.029664 -0.072042 -0.051451 0.013725 -0.039328 0.051543 -0.079035 -0.003517 0.031492 0.009709 -0.043328 0.007842 -0.060329 -0.034211 -0.088935 0.085738 -0.022455 -0.077382 -0.021280 0.047505 0.089665 -0.055791 0.094110 -0.006500 0.059775 0.042450 -0.026240 -0.024940 -0.105437 0.015833 0.005142 -0.020189 -0.052283 0.000748 0.051408 -0.004347 -0.036308 0.016938 -0.033758 0.006462 0.020278 0.065943 0.100737 0.093766 0.048642 -0.028533 0.046877 -0.088835 -0.005301 -0.003333 -0.029806 0.026072 -0.024200 0.104417 -0.018432 0.110720 0.004134 -0.042571 0.008721 0.105398 -0.005366 0.006871 0.039117 0.056989 0.037958 -0.101956 -0.047348 -0.040302 0.161088 -0.041296 0.007865 0.144467 0.020145 0.078750 0.041935 -0.099559 -0.027482 -0.016642 -0.112155 -0.106716 0.064882 0.107459 -0.057939 -0.000695 0.080791 0.068378 -0.060513 -0.001223 0.027726 -0.095120 -0.033826 -0.043372 -0.118367 -0.061471 0.026651 0.033142 -0.070368 0.030601 0.008162 -0.017681 -0.045724 -0.127465 0.045242 0.014944 0.000268 -0.027932 -0.084294 0.040124 -0.041150 0.018091 0.041570 -0.030241
tiger -0.027921 -0.000675 0.000743 -0.100403 0.005219 -0.100763 -0.041241 0.137347 -0.052008 -0.056050 -0.027606 -0.022058 -0.087771 0.013995 0.026101 0.027689 0.020273 -0.025966 -0.058406 -0.006434 0.030890 -0.044275 -0.010429 0.005949 0.115179 0.062337 0.082878 0.048622 -0.054007 0.037894 0.103351 -0.060417 0.002541 0.012624 0.035828 0.076310 -0.010882 -0.007566 0.177045 -0.030219 -0.067039 0.005943 -0.035046 -0.015438 0.001722 -0.144124 0.015201 0.003109 0.058130 0.012478 0.069653 0.100155 0.042794 0.022654 -0.014528 0.026604 -0.005494 -0.131457 -0.001492 0.069288 0.043533 -0.019457 -0.041116 -0.015873 -0.000708 -0.084116 -0.057412 -0.012429 0.000686 0.032329 -0.068124 -0.105972 -0.001961 0.057208 -0.098070 -0.060982 -0.041253 0.070164 0.067381 -0.012158 0.042431 -0.047074 0.000032 -0.104597 -0.045605 -0.056068 -0.076595 0.027670 -0.056621 0.076717 0.029256 0.002319 0.059334 -0.008446 -0.038356 -0.040658 0.025629 -0.097205 0.041227 -0.005623 0.021914 -0.012506 -0.044033 0.089865 -0.009545 0.026089 -0.031492 -0.061873 0.004179 -0.024050 -0.010130 -0.008047 -0.019130 0.053452 0.030851 -0.120992 -0.042449 -0.019057 -0.061634 -0.035514 0.061871 0.044118 -0.087751 -0.089172 0.056535 -0.031259 0.044087 -0.046332 0.020098 -0.046873 -0.032536 0.038329 0.028625 -0.069086 0.048005 -0.011834 0.020843 0.025662 -0.032697 0.059497 -0.053417 -0.041568 -0.080174 -0.076176 0.123192 0.016201 -0.018798 0.097665 -0.112054 0.074640 0.001409 0.018194 -0.024759 -0.010094 0.104059 0.058568 -0.018979 -0.049641 0.005411 -0.049900 -0.047315 -0.033325 -0.044414 -0.045734 -0.045714 -0.069062 0.073650 -0.118954 0.062878 0.060109 -0.016981 -0.014908 0.015803 0.014324 0.036473 0.030373 0.000428 -0.059503 0.013073 0.035025 0.052700 -0.043965 0.143261 -0.115073 0.105584 -0.026884 0.001956 0.102191 0.099374 0.088267 0.058652 0.017703 -0.065829 -0.085493 -0.007723 0.055142 0.020164 0.063127 0.061734 0.082661 0.000434 -0.114187 0.024442 -0.034298 -0.034762 0.010301 -0.086239 -0.015817 -0.098589 -0.141433 -0.051141 0.088690 0.013448 0.061565 -0.014322 0.019960 -0.111263 -0.046339 -0.052371 -0.098396 0.010638 0.012692 0.009831 -0.021327 0.053933 0.001828 0.028662 -0.031558 0.013020 0.012591 -0.052442 -0.047423 0.050696 -0.079444 -0.026547 0.048807 0.036027 0.052246 0.006764 -0.015706 -0.113981 0.135622 0.034982 -0.069823 0.020341 -0.055010 -0.013221 0.041430 -0.045521 0.093109 -0.017754 -0.028898 0.083744 -0.061889 0.041159 0.106474 0.005234 0.001249 -0.021209 -0.045946 -0.004802 0.125638 0.045857 0.009026 0.059737 0.062173 -0.022372 0.009408 0.004563 0.037337 -0.074983 -0.084887 -0.041338 0.026959 -0.054212 0.034250 -0.066212 0.011812 -0.073834 0.045835 -0.090580 -0.110020 0.023760 0.020323 0.058853 0.000589 0.031487 0.020998 0.003732 0.093392 -0.020044 -0.066434 0.077173 0.078532 0.037326 -0.021610 0.020308 0.100412 -0.041069 0.033402
train -0.064216 -0.051053 0.069311 0.033941 -0.021195 -0.045537 -0.047566 0.095664 0.017402 0.051932 0.008638 0.015373 0.020120 0.000969 0.054024 -0.001288 -0.027030 0.018200 -0.009438 0.006363 -0.057200 -0.114003 -0.136179 -0.097288 -0.060486 -0.038960 -0.012785 0.031475 0.029198 -0.068918 0.098731 0.010884 -0.030107 -0.000119 -0.013126 0.012310 -0.053401 0.079516 -0.081195 0.018891 0.047693 -0.013709 -0.045689 -0.012303 0.048015 0.008859 -0.022789 -0.113044 0.037431 -0.111066 0.055297 -0.072154 0.082242 0.050195 -0.014182 0.003121 0.120077 -0.013254 -0.031741 -0.020955 -0.047635 -0.012040 0.002915 -0.169966 -0.051238 0.074772 0.069119 0.131261 -0.113484 -0.117631 0.059775 -0.053683 0.058722 -0.056444 0.061098 -0.006899 0.008692 0.102121 0.037342 -0.023446 -0.133333 0.099709 0.002015 0.023668 -0.058268 -0.021884 -0.033801 -0.041572 -0.138240 0.033822 0.007637 -0.041036 0.052137 -0.011524 -0.021514 -0.057178 0.075701 0.124017 -0.037438 -0.063191 -0.001637 0.052144 -0.025564 -0.017418 0.036314 0.019768 -0.013054 -0.004880 -0.013094 0.044828 -0.009080 -0.014815 -0.002290 0.049514 -0.020627 0.098104 -0.037745 -0.070826 0.029677 0.026845 -0.021501 0.187150 0.030403 0.061535 0.047484 0.037166 -0.029201 0.008967 0.032937 -0.067624 -0.126284 0.073449 0.033429 0.022534 0.003773 0.046468 -0.075182 -0.022739 -0.029996 0.067689 -0.015531 -0.046471 0.045432 0.040134 -0.005037 0.009250 -0.060449 -0.023243 -0.047922 -0.016165 0.046176 -0.062359 0.026256 0.043593 -0.045781 0.117042 -0.025128 -0.058370 -0.056227 0.013588 -0.007409 0.004667 -0.115301 -0.042574 -0.072852 0.047253 -0.043878 -0.040815 -0.012802 0.096457 0.036116 0.046858 -0.045650 -0.021280 -0.004453 -0.074705 -0.015641 -0.011540 0.038052 -0.111710 -0.025114 0.006846 0.090676 0.044721 -0.033150 -0.037422 0.022843 0.033109 -0.053106 0.010100 0.086914 0.031665 -0.038683 -0.083929 0.049509 0.022173 0.060637 0.058001 -0.050727 -0.005995 -0.050798 -0.090711 -0.024487 0.057481 0.006248 -0.022081 -0.088212 -0.019938 -0.007741 -0.005603 -0.028654 -0.020364 0.026103 0.014756 -0.085883 0.030063 -0.029658 0.019892 0.022726 0.029828 0.117168 -0.035095 0.043685 -0.071191 0.034468 -0.076421 0.066331 -0.067341 -0.071616 0.038826 0.037544 0.083867 -0.019024 -0.026972 0.005910 -0.078867 -0.049605 0.010232 -0.070303 -0.122157 -0.081309 -0.003898 -0.074203 0.058189 0.032597 0.048020 -0.009266 -0.007807 -0.064915 0.020584 0.054549 0.015683 -0.074801 -0.099095 -0.018301 -0.021602 0.109066 -0.074323 -0.085725 0.012271 -0.033988 0.156341 -0.072848 0.072732 -0.052294 -0.003866 -0.026302 -0.043502 0.082880 0.031144 -0.050664 0.075607 -0.046463 0.083001 0.027917 -0.042151 0.008415 -0.036931 -0.099379 0.063162 -0.022809 -0.058925 -0.059736 0.023533 -0.109248 -0.057062 0.029458 -0.076125 0.020789 0.028739 0.045796 -0.024889 -0.039500 -0.035974 0.093953 0.047039 -0.001663 0.007008 0.104294 0.076766
truck -0.085658 0.013754 0.118920 -0.014367 -0.006761 -0.027259 0.021164 -0.037701 0.089064 -0.055082 -0.042398 0.010485 -0.025906 0.001385 0.004488 -0.024651 -0.003674 -0.089184 0.061724 -0.124640 -0.049618 0.061457 -0.139326 0.101151 -0.039783 -0.024620 -0.014674 0.066343 -0.009107 0.032308 0.049521 0.106579 0.016074 -0.029350 -0.098591 -0.046822 -0.043046 -0.038228 0.048466 -0.119388 -0.031193 0.033530 -0.014603 -0.023717 0.033456 0.089214 0.075104 -0.044682 -0.085753 -0.002053 -0.063281 -0.058433 -0.027457 0.059118 -0.042045 0.003607 0.068610 0.025808 -0.031574 0.019994 0.080629 0.033731 0.003169 0.003337 0.015735 0.081700 0.003224 0.039014 0.096667 -0.056204 -0.000046 0.092615 0.115817 0.025782 0.018281 0.006386 -0.081869 -0.029978 0.056541 -0.015542 0.003490 0.024892 -0.000833 -0.016824 -0.133720 0.006841 0.009843 0.010101 -0.023546 0.031148 -0.053398 0.086012 0.034438 0.055708 -0.010313 -0.129357 -0.068771 -0.091027 0.022941 0.015312 0.130484 -0.029595 -0.057811 -0.101194 0.149109 0.044037 0.075121 -0.018464 -0.010616 -0.025186 -0.138880 -0.057385 -0.004038 0.015136 0.067918 0.006880 -0.025281 -0.038712 -0.019175 0.112510 0.013725 0.005409 0.098966 0.026118 0.040856 -0.045909 0.077098 -0.065823 -0.001840 -0.067247 0.091692 0.038098 -0.021613 -0.058928 -0.008074 0.015580 -0.111432 0.055958 0.055802 -0.002701 0.020408 0.043480 0.038268 0.001993 -0.032303 -0.034786 0.008364 -0.110675 0.022883 -0.072105 0.014493 -0.022538 -0.031879 -0.103867 0.030099 0.012817 -0.004054 0.016904 -0.053711 0.055286 0.005395 0.044917 -0.037622 -0.032699 0.024555 0.019406 -0.009542 0.060763 -0.109110 0.035153 -0.090701 0.096484 0.012649 0.085160 0.085826 -0.056509 -0.033107 0.064293 -0.045653 -0.015185 -0.029372 -0.061281 0.108662 0.051075 -0.026205 -0.073708 -0.021961 0.045042 0.096571 0.122395 0.015108 0.090953 0.015825 0.048919 0.027802 -0.018320 0.092588 -0.025380 -0.049082 -0.057996 0.047614 0.048977 0.034838 0.022826 -0.079519 0.048364 0.034356 -0.005622 -0.059718 -0.048452 0.029640 -0.046188 0.032694 0.003991 0.040990 0.068930 0.033159 0.029672 -0.068928 -0.022681 0.093924 -0.012382 0.107185 -0.094047 0.085024 -0.058963 -0.061498 -0.060823 -0.058594 0.096942 -0.057800 0.014979 -0.012731 -0.090894 0.035493 -0.000942 -0.074369 0.062380 -0.051046 -0.103209 0.058511 -0.031892 -0.075114 -0.027540 -0.045880 0.009019 -0.066680 0.049575 0.030082 -0.011916 0.110018 0.022673 0.018817 -0.015208 -0.006747 0.060171 -0.038126 0.051752 -0.040125 -0.041268 -0.061879 -0.079707 0.023156 -0.083945 0.050658 0.048942 -0.031197 0.049465 0.036888 0.057602 -0.057783 0.029395 0.063217 -0.003868 0.040787 -0.032163 0.130345 0.058141 -0.016694 0.064376 0.002033 0.001492 0.061380 0.097376 -0.016652 0.113691 0.075517 0.046931 0.034624 0.056214 0.023759 -0.002664 0.085573 0.022211 0.038841 -0.039603 0.071705 0.009276 0.087757 0.031254
water -0.004120 0.042462 -0.050686 -0.094633 -0.056851 0.056486 -0.039448 -0.034525 0.052749 0.030471 -0.039697 0.009927 -0.018184 0.050550 0.018186 -0.064835 -0.071201 -0.077054 0.032340 0.038915 0.018236 -0.066611 -0.073588 0.051090 -0.142945 0.025770 -0.020378 -0.020864 0.136416 0.024475 0.017426 -0.023632 -0.110003 -0.072931 -0.110267 0.002880 -0.068587 -0.017383 -0.012957 0.022194 0.006251 -0.016212 -0.007121 -0.046752 0.030339 0.003549 0.126463 0.068263 0.003910 0.059369 -0.070014 -0.027220 -0.084255 0.071908 0.031552 -0.069854 0.070259 0.036402 -0.055807 -0.000267 0.002597 0.107703 -0.027247 0.035638 0.014816 0.082365 -0.040737 0.051259 -0.003813 -0.020528 0.011682 0.119101 0.046709 -0.044057 -0.047088 0.045620 0.082601 -0.049114 -0.050416 -0.030331 -0.073259 0.033248 -0.006527 -0.038369 -0.103215 -0.018752 -0.050670 0.041679 0.031802 0.035986 0.000508 0.058535 0.055522 0.018335 0.085030 -0.003716 -0.053105 -0.073718 0.116832 -0.073281 0.046700 0.004117 -0.011857 0.060528 0.084264 -0.024621 0.019656 0.018435 -0.106372 0.044686 0.036781 -0.008019 0.079531 -0.095798 0.063494 -0.042158 -0.064816 0.057386 -0.011794 -0.032204 0.099550 -0.087726 -0.064518 -0.056737 0.027301 -0.000611 0.021432 -0.050702 -0.040952 0.004236 -0.105263 0.037513 0.003268 0.045027 0.035272 0.033987 0.029795 -0.119798 0.022789 -0.015112 0.047457 -0.044985 -0.059163 0.083175 -0.051709 0.046090 -0.093952 -0.008548 0.027344 0.000263 0.000584 0.049820 -0.125407 -0.043132 -0.091659 -0.047960 -0.053301 0.035137 -0.014112 0.040549 0.079780 0.089477 -0.013553 -0.148757 0.019740 0.064319 -0.069693 -0.019827 0.039561 0.033336 0.047097 0.025570 -0.130255 0.048202 -0.028283 0.118272 0.105791 -0.000059 0.064939 -0.033255 0.022639 0.013980 0.056144 -0.082449 0.114236 0.027037 0.074895 -0.024295 0.006444 0.004872 -0.001355 -0.007225 0.039897 0.156521 -0.104888 -0.032740 -0.111080 -0.015328 0.013287 0.026564 -0.005359 -0.111910 -0.053718 0.015552 -0.017073 0.115477 0.090221 -0.001824 0.016775 0.058100 0.088078 0.068019 -0.018402 -0.047525 -0.011275 -0.011668 -0.063624 -0.056587 0.020483 -0.081272 -0.037627 0.117466 -0.139871 0.049539 0.027514 -0.043276 0.024417 -0.071528 0.026605 0.012714 0.001373 -0.002032 0.022803 0.033091 0.081252 -0.024561 0.003248 0.027573 0.023862 -0.094843 -0.020586 0.044640 0.074962 -0.103122 0.064735 -0.058101 0.022280 0.011500 -0.041244 -0.022210 0.018711 0.070822 0.006367 0.061550 -0.034128 -0.041653 -0.076991 0.011734 0.018249 0.069643 0.022090 0.032103 -0.106797 0.014374 -0.033540 0.019027 -0.050704 -0.017976 0.089638 0.075958 0.005294 -0.055893 0.036634 -0.032142 -0.011307 -0.020271 -0.038274 0.019837 0.065200 0.073165 -0.029320 -0.102631 -0.109325 0.004154 -0.083169 0.005763 0.007299 0.043546 -0.128741 -0.001579 0.023158 -0.019548 0.000514 -0.050981 -0.024433 0.038321 -0.055662 0.021400 0.059196 -0.013394
wrench 0.004304 -0.060737 0.028451 -0.058370 -0.060777 0.045584 0.011301 0.056764 -0.093896 -0.121920 -0.033378 -0.038705 -0.009248 -0.001966 -0.013895 -0.126467 0.064011 0.057679 0.099502 -0.030932 -0.060382 -0.050830 -0.046410 -0.027938 0.028941 0.035210 -0.125690 -0.003251 0.020813 0.082981 0.047679 -0.036105 0.021612 0.087586 0.030109 -0.021769 0.141210 0.037732 0.037806 0.037707 -0.031728 -0.004489 -0.006169 0.041144 -0.004387 -0.023877 0.004643 0.027851 0.010978 -0.092119 0.078963 0.068818 0.002060 0.022357 0.090516 0.040572 0.013261 -0.062412 0.118865 0.017708 -0.027821 -0.030161 -0.019716 -0.111535 0.016315 0.084578 -0.020207 0.065370 0.012840 -0.000716 -0.023256 0.034606 -0.008488 0.068358 -0.050508 0.011879 0.122058 0.075596 -0.070779 -0.005102 0.058539 -0.048831 -0.003808 0.021570 -0.066107 0.006485 -0.043071 0.061089 0.048025 0.020022 0.070778 -0.018009 0.001856 0.069193 -0.068122 -0.032381 -0.066040 0.098767 0.018803 -0.014307 0.049537 0.104936 -0.067981 0.006875 0.052991 0.056216 -0.080726 0.022357 -0.045619 -0.024783 0.012646 -0.061242 -0.023708 0.042087 0.030869 0.044112 -0.054323 -0.011105 0.091977 -0.000396 -0.010269 -0.095842 -0.042656 0.001941 -0.038112 -0.041745 -0.018608 -0.068886 0.115841 -0.161524 0.033242 0.020794 -0.005119 -0.028667 -0.002069 -0.035123 -0.000300 -0.013478 -0.163727 0.065120 0.043082 -0.013993 0.027703 0.077075 -0.084869 -0.001915 -0.058988 -0.030232 -0.011250 0.047469 -0.021445 0.115792 -0.040148 -0.062264 -0.041952 -0.021322 -0.017589 -0.039667 -0.045376 -0.012168 -0.061661 -0.056446 -0.045457 0.004339 -0.139293 0.030158 0.085658 -0.024132 0.017801 -0.029140 -0.120318 -0.009084 0.053937 0.007588 -0.008538 0.029322 0.035074 -0.015988 0.046178 0.068177 -0.051820 -0.011474 0.049748 0.039655 0.046884 0.023092 -0.055199 -0.006141 -0.107040 -0.101350 -0.015216 0.114802 0.049831 -0.056016 -0.036764 0.091290 -0.042331 0.029393 -0.088654 -0.020666 0.027818 0.013901 -0.017095 -0.038093 0.013631 0.029783 0.030773 -0.065008 0.015660 -0.048647 0.013150 -0.067839 -0.017288 0.093583 0.060236 -0.083944 -0.035023 0.010525 0.050394 -0.170103 0.098894 0.057208 0.009772 0.012105 0.025570 -0.051906 0.022284 -0.013960 -0.056336 -0.003799 -0.014828 -0.032869 -0.036416 -0.003141 -0.058829 -0.039142 -0.042303 0.056980 -0.026936 0.060193 -0.106651 -0.049467 0.081749 -0.120335 0.097843 -0.021581 -0.016025 -0.111485 -0.063950 -0.029503 0.015804 -0.100861 -0.042936 -0.010721 0.001287 -0.001466 -0.020198 0.071090 -0.043330 -0.092821 0.007185 0.077610 0.128127 -0.002209 -0.014946 0.007832 0.022334 0.008986 -0.080578 0.009583 0.047170 -0.009771 0.043589 0.002344 -0.005676 0.151994 -0.024457 -0.012545 -0.027096 0.073029 0.084178 0.046284 0.000754 0.077687 0.113177 -0.025289 0.072394 -0.098054 0.080678 0.000425 -0.061853 -0.001684 0.073551 -0.049424 -0.006648 0.004200 0.119119 0.013735 0.081693 0.080018
