32 768
airplane 0.023443 -0.048832 -0.045520 0.016693 0.031569 0.003071 -0.005605 0.058618 0.021904 -0.011765 -0.040160 0.021484 -0.040274 0.021621 -0.087747 0.015221 -0.014601 -0.001317 0.005786 0.114195 -0.022366 0.015252 0.005541 0.027431 0.003765 0.066500 -0.002800 -0.006590 0.040629 0.009299 0.006707 0.005764 0.005292 0.032534 0.084673 -0.048291 0.037308 -0.025161 -0.015758 0.031824 -0.082166 -0.048633 0.016355 0.037311 0.023924 -0.089625 0.009366 0.000195 -0.052856 0.043915 0.000018 0.017033 0.031090 0.005641 0.015210 -0.084096 0.017801 0.033151 0.056296 0.027136 0.017800 -0.008086 -0.042683 -0.004472 0.014079 -0.019493 0.005940 -0.022279 -0.015619 -0.010331 -0.034585 -0.071662 0.048110 -0.026241 -0.007221 0.066126 -0.018200 0.046282 -0.073286 0.044974 0.002739 -0.042851 -0.001664 -0.018830 0.084082 -0.014300 -0.028525 0.011914 0.062716 -0.026822 0.038527 -0.013717 -0.007177 -0.015088 0.078445 0.032514 0.099657 0.002059 0.006544 0.015997 -0.070148 0.052528 -0.016121 0.007427 -0.011136 -0.052058 -0.021694 0.040162 0.024176 -0.043851 -0.010489 0.029802 -0.076796 0.055185 -0.000573 -0.008041 -0.013539 -0.002632 -0.038603 0.023811 0.016423 -0.008607 -0.027873 0.012440 0.034580 0.038402 -0.058303 0.058214 -0.026905 0.014592 -0.060421 -0.031284 -0.032998 0.036352 0.004655 -0.001862 0.039615 -0.009588 -0.023602 -0.022466 0.000560 0.018594 0.031351 0.057378 0.029336 -0.020945 0.014348 -0.035039 -0.023462 0.027615 -0.044102 0.020882 -0.029353 0.006018 -0.009233 -0.032067 0.052031 -0.031985 -0.043031 -0.023307 -0.033785 0.021170 0.031469 -0.008643 0.015589 0.018258 -0.013262 -0.018534 0.000176 0.019339 0.050192 -0.099089 -0.065615 0.056813 -0.028636 0.055102 -0.002665 0.036498 -0.006929 0.011457 -0.044885 -0.008584 -0.041249 -0.026384 -0.032559 0.049628 -0.019665 -0.008336 -0.041030 -0.008864 0.037286 -0.028150 -0.024137 0.011775 0.004271 -0.007816 -0.038452 0.030317 0.004373 -0.033966 -0.032887 -0.025678 0.016512 0.000882 0.003393 -0.045192 -0.043780 0.001827 0.011423 0.023707 -0.022126 0.030389 0.035836 -0.005996 -0.057880 -0.013655 0.051515 0.001438 0.070968 -0.010799 -0.027146 -0.017597 -0.036120 0.058821 0.031635 0.002868 0.008623 -0.026447 -0.049352 0.024472 0.060858 0.009143 -0.011646 0.036966 0.063036 -0.005452 0.027116 0.010838 -0.048188 0.026439 0.090879 -0.028860 0.012171 0.035422 0.023602 0.058161 0.028253 -0.013679 -0.003735 -0.040978 0.026970 -0.006977 0.045957 -0.026788 0.004589 -0.001870 -0.038220 0.048315 -0.003689 0.018866 0.017201 -0.027057 0.009743 0.003882 0.011565 -0.031042 -0.057732 0.030964 0.003540 -0.048261 0.021257 -0.001213 0.020326 -0.003380 -0.026981 0.029378 -0.015176 0.038066 -0.016860 -0.008446 -0.024078 0.055726 0.030973 -0.009506 0.011853 -0.032497 -0.005679 0.035990 -0.013441 -0.019176 -0.013190 0.006621 -0.001421 0.061534 0.000280 0.017133 -0.059018 0.028079 0.031107 0.031659 -0.020123 -0.021564 0.016326 0.047906 -0.036273 -0.015470 -0.024512 0.049699 0.041125 -0.020409 0.023931 -0.058792 -0.045938 0.012243 -0.006138 -0.002543 -0.052960 -0.022802 -0.022206 0.028344 -0.004065 -0.027786 0.055938 0.000903 -0.018428 -0.029867 -0.025959 0.029486 -0.057743 0.020230 0.010606 0.040200 -0.021218 -0.037127 0.100960 0.017201 0.023912 -0.060006 -0.011092 -0.027270 -0.060935 0.053872 -0.009857 -0.017500 0.006395 0.030092 0.058150 -0.009968 -0.009998 0.041539 0.044913 -0.037820 0.024206 0.077125 -0.034865 -0.037188 0.000593 -0.034344 0.037599 0.005496 0.038628 0.057421 0.033347 0.023908 -0.037464 -0.013346 0.015597 -0.014262 -0.042066 -0.012409 0.014636 0.093407 -0.044397 0.064542 0.035336 -0.022115 0.018473 -0.056421 0.059970 -0.000077 0.035558 0.038379 0.046235 0.069594 -0.072636 -0.007125 0.011602 -0.030569 0.004540 -0.001605 0.041621 -0.036163 0.045556 0.004487 0.054440 0.034999 -0.008457 0.034585 0.015589 0.001371 -0.010266 -0.011836 0.019268 -0.041296 0.006825 0.003341 -0.006940 0.048596 -0.046635 0.004771 -0.001637 0.072342 -0.029840 0.049020 -0.018626 0.057263 0.000310 -0.053535 0.019118 -0.023674 -0.065840 0.038533 0.000594 0.003608 0.002884 -0.015673 -0.027699 -0.014746 -0.058551 0.016396 0.035898 0.042943 -0.042001 -0.089184 0.040602 0.018744 0.043037 0.013392 -0.000518 -0.025492 -0.003419 0.015173 0.032261 0.004609 -0.073432 -0.020894 -0.033178 0.003834 -0.061291 -0.017571 0.062937 -0.033171 -0.062187 0.001619 -0.010949 0.023123 -0.024013 0.022941 0.070625 -0.074826 -0.004346 -0.009351 0.027675 -0.014109 0.014162 0.013495 -0.060502 -0.048847 0.032216 -0.032440 -0.020784 0.077398 0.039936 0.009211 -0.034270 -0.067373 -0.017363 0.061721 0.007565 -0.027134 -0.009348 -0.068894 0.002137 0.027692 0.025264 0.074700 0.039656 -0.021733 0.012236 0.011319 -0.032129 -0.042234 0.024333 -0.009174 0.035284 0.021961 0.028033 -0.009313 0.006962 0.037939 0.009812 -0.014379 0.006300 -0.019664 -0.016287 0.036632 -0.062500 0.027243 -0.018701 -0.032972 0.014932 0.031994 -0.048804 0.007841 0.035114 -0.009243 0.006503 0.088897 0.065956 0.016553 0.042570 -0.004609 -0.028317 0.017800 -0.082668 -0.006961 -0.007877 0.008740 0.005422 0.025676 -0.015990 -0.040300 0.014732 0.024837 -0.008890 -0.030559 -0.043304 -0.000429 0.010047 0.012531 -0.012628 -0.021760 -0.021528 0.030990 0.015376 -0.005460 0.001514 -0.016332 -0.002192 0.019684 -0.053512 -0.010566 -0.032707 0.017224 0.012501 -0.010732 0.015343 0.013303 -0.043151 0.010927 -0.070270 0.029524 -0.036161 0.043780 -0.038112 -0.009884 0.013467 -0.065998 -0.057156 0.040848 -0.027211 0.063521 -0.006455 -0.046656 0.053003 0.039583 -0.047550 -0.033497 -0.078563 -0.004460 0.025658 0.044249 0.035211 0.018737 0.007378 0.038458 0.003682 -0.084674 0.010523 -0.015293 -0.003831 0.041763 -0.026960 -0.033797 -0.069863 0.009891 -0.017499 0.027528 -0.002850 0.001390 0.011388 0.064106 0.024443 -0.000107 0.004983 0.001789 0.043999 0.042493 0.001601 0.059943 -0.084345 0.091951 0.005392 -0.039917 -0.031203 -0.026269 0.010037 0.020197 0.083749 0.023136 0.081304 -0.049421 -0.044510 0.002658 0.083026 0.015908 0.003892 0.046954 0.014548 0.026796 -0.026135 -0.018339 0.071011 -0.045783 0.021887 -0.037206 -0.012739 -0.062863 0.045418 -0.024368 0.025713 0.023062 0.020439 -0.006538 -0.062299 0.033613 0.044041 -0.031331 -0.000289 0.019495 -0.033731 -0.038922 -0.078691 -0.003637 -0.008711 0.006404 0.048678 -0.027381 0.007445 0.021589 0.008055 0.044292 0.045127 0.062319 -0.030877 -0.066389 -0.011548 -0.016295 -0.041363 -0.013069 -0.010580 -0.010042 0.001854 0.025477 -0.004828 -0.051838 -0.002109 -0.036563 -0.004453 0.033501 0.057194 -0.024030 -0.018913 -0.045785 0.019011 0.016676 0.081538 -0.010497 0.021147 0.000148 0.040362 -0.035854 0.023060 -0.009106 -0.027483 0.012388 0.033527 -0.022737 0.054831 0.000262 0.025749 0.033294 0.045966 0.014435 0.013039 -0.047628 0.011239 0.025001 0.014960 -0.021210 0.026600 -0.003471 0.014086 0.000465 0.041904 0.005061 -0.028638 0.029207 0.082660 -0.008142 -0.038322 -0.019612 -0.004886 0.032714 0.020394 -0.000433 0.013506 -0.065981 -0.022161 -0.036370 0.018163 -0.005898 0.032159 -0.020540 -0.066871 0.030798 0.012484 -0.005742 -0.000669 0.046122 0.043187 -0.016971 -0.037553 0.045298 -0.007115 -0.006322 0.023591 0.016911 0.033134 -0.007218 -0.061762 0.020565 0.020364 0.025256 -0.116807 0.056067 -0.031411 0.045634 0.022449 -0.010808 -0.095585 -0.034000 -0.021429 -0.008943 0.017604 0.025700 0.081884 0.006815
apple 0.081056 -0.003395 0.018574 -0.002673 -0.004736 -0.029267 0.014092 -0.013798 -0.040098 -0.007034 -0.001025 0.040537 -0.078402 0.055886 -0.023892 -0.008411 0.068545 -0.030763 -0.001506 -0.039010 -0.020795 0.017083 -0.005100 0.002366 -0.020067 -0.069041 -0.008535 0.064862 -0.012004 -0.048882 -0.007903 -0.043436 -0.051943 0.032541 0.024622 -0.018106 0.038199 -0.066819 0.000806 0.058019 -0.022024 0.038839 0.003536 0.025451 -0.005363 -0.010091 0.002883 -0.017582 0.070524 0.029449 0.022393 0.014146 -0.022629 0.047869 -0.032288 -0.030665 0.020863 -0.034259 -0.056420 -0.008150 0.001861 -0.024056 0.004476 -0.013701 0.073924 -0.002352 -0.034854 -0.034584 0.095504 0.003050 0.014959 0.011929 0.057663 0.008035 -0.045152 0.013862 0.030942 -0.055021 0.008516 0.022081 0.018285 -0.027034 0.030868 -0.006814 -0.002719 0.014235 -0.050791 -0.008320 0.066937 -0.032731 0.007630 -0.058377 -0.006126 0.015990 -0.003160 0.001859 -0.055591 0.026189 -0.005611 0.061534 -0.026548 0.050038 -0.001530 0.024771 0.006315 -0.000232 -0.000320 -0.031057 -0.042444 0.006667 -0.002947 -0.036386 -0.020740 0.002867 -0.027298 -0.014069 -0.026556 -0.057907 0.012155 0.020483 0.046873 -0.024696 -0.013531 0.061741 0.059033 0.025117 0.002607 -0.033557 0.010124 0.020909 -0.003886 -0.046161 -0.027945 -0.013782 -0.012118 0.017888 0.006399 0.006203 -0.024956 0.000370 0.026154 -0.001141 0.009637 0.070790 -0.001312 0.002327 0.002646 0.026496 -0.028290 -0.023598 0.013682 -0.011940 0.056531 0.041122 0.004266 -0.046808 0.109446 -0.017573 -0.036563 0.037094 -0.019251 0.007678 -0.004960 0.049773 0.048249 -0.070499 0.022195 -0.024343 0.007564 0.038016 0.005091 -0.003121 0.013367 -0.058077 0.049517 0.033799 -0.053437 0.013315 -0.020885 -0.001412 0.002394 -0.004455 0.006356 -0.053217 0.055111 -0.004108 0.040795 0.034987 -0.034437 0.048791 0.021815 0.009651 0.002614 -0.026439 -0.023100 -0.031363 -0.013813 -0.009729 0.002652 0.017142 0.028913 0.013706 -0.016207 -0.024507 0.028628 -0.019843 -0.012569 0.059538 -0.036616 0.016168 -0.019186 -0.063284 -0.066709 -0.008935 0.003766 0.075631 0.025355 0.023572 0.037593 0.007112 -0.046388 -0.031466 0.000356 0.037809 0.010604 0.023905 0.117021 0.018102 0.037548 -0.032860 -0.005622 0.036547 0.051403 0.040691 -0.051217 0.016999 0.032941 -0.006892 -0.046824 0.005734 -0.028354 -0.041365 -0.014771 0.012460 -0.044872 -0.021107 -0.134402 0.035806 -0.041183 -0.003434 0.045279 -0.005107 0.001245 -0.008919 -0.019283 0.002010 0.035468 0.067520 0.018274 -0.010965 -0.008924 0.012028 -0.002426 0.004821 -0.033018 -0.030871 0.032169 0.022926 0.005345 0.023291 -0.102047 0.001267 -0.015579 0.007432 0.027436 -0.019473 0.042487 0.021547 -0.034022 -0.058798 -0.032121 -0.010317 0.016413 0.006964 0.058492 -0.055596 -0.005334 -0.025666 0.036677 0.019747 0.037277 -0.029268 0.048580 -0.028616 -0.014028 0.035943 -0.058216 0.052298 -0.017693 0.011558 0.024753 -0.035183 0.026402 0.012532 0.024021 -0.046503 -0.014497 -0.018928 0.015602 0.035644 0.005762 -0.005934 0.004251 -0.002589 -0.053342 0.000985 0.031740 -0.042371 -0.040327 -0.014365 0.014374 -0.035942 0.025596 -0.028778 -0.028474 -0.003517 -0.015978 0.001442 -0.036499 -0.034933 -0.037570 0.019912 0.016906 0.005357 -0.048142 -0.048453 0.078740 -0.064115 0.046244 0.034976 0.005042 -0.040856 0.039359 0.006055 -0.040335 -0.024267 -0.044487 -0.018337 -0.010428 -0.008077 0.009698 0.024750 -0.008677 -0.045440 -0.037125 -0.051593 -0.023628 -0.011716 -0.005221 0.004179 -0.006682 0.032746 -0.003758 -0.025627 -0.020080 0.011791 -0.101650 -0.019091 0.006261 -0.011218 -0.033994 0.033057 0.006283 -0.010248 -0.029626 -0.004515 0.001352 -0.035458 -0.080733 0.021720 0.001526 -0.068121 0.012237 -0.000968 -0.031045 -0.044587 -0.000783 0.004294 -0.035560 -0.024257 -0.005267 0.038984 0.078154 -0.004443 0.039566 -0.026218 0.012664 -0.011689 -0.025167 -0.013724 0.015054 0.067677 -0.045578 -0.017259 0.018444 -0.021434 -0.030795 -0.032786 0.034473 0.012562 -0.006338 0.035443 -0.043054 0.050687 0.013114 0.040765 -0.009579 0.016599 -0.014933 -0.042886 0.012262 -0.009205 0.007574 -0.014391 0.034158 0.021773 0.017450 0.017143 -0.020558 0.061974 -0.078524 -0.028582 -0.037080 -0.027494 0.023715 -0.043695 -0.002467 -0.027031 0.014611 -0.042424 -0.036066 0.006655 -0.082253 0.031527 0.069352 0.015489 -0.035679 -0.021518 0.042277 0.009896 -0.024590 -0.022550 0.057315 0.002741 -0.053597 -0.007093 0.022228 0.010520 -0.024546 0.048433 0.015517 -0.008097 0.055805 0.072123 0.003697 0.020384 0.000889 -0.034077 -0.006942 -0.039414 0.026869 -0.010792 -0.001263 -0.001023 0.048751 -0.002303 0.055122 0.070987 -0.040675 -0.012999 -0.007086 0.040406 0.028223 0.016358 0.001947 -0.014870 -0.018086 -0.025186 -0.018669 0.005190 0.013527 0.088419 -0.037063 -0.068862 -0.014948 -0.085526 0.003705 -0.017917 -0.019311 -0.029561 -0.003724 -0.017031 0.037821 0.022669 0.010572 0.032391 0.005691 0.024380 0.003753 0.000755 0.030427 0.000302 -0.031198 -0.020244 0.011600 -0.012070 0.018271 0.025691 -0.031519 0.022295 0.006524 0.015773 0.007536 0.050017 -0.033527 0.051622 0.018967 -0.045506 0.129891 -0.005740 -0.071325 0.007625 -0.041749 -0.004961 -0.018725 0.015437 -0.050851 0.004746 0.009252 -0.010858 0.007366 0.040582 0.029927 -0.033028 -0.027044 0.029286 0.071889 0.005758 -0.054667 0.030591 -0.006249 -0.100901 0.069424 -0.046975 -0.033437 0.038045 -0.049940 -0.021061 0.019837 -0.029950 -0.018107 -0.007826 0.020978 -0.035272 0.003216 -0.019904 -0.036709 -0.042117 -0.027275 0.035545 0.007431 0.012874 0.028614 -0.014510 0.056989 -0.014414 0.066185 -0.018123 -0.007378 -0.042137 0.064236 0.010733 0.083068 0.034582 -0.020338 -0.051975 0.061375 -0.050472 -0.010246 -0.055234 0.035055 -0.063365 -0.075915 -0.044375 0.082701 0.005585 0.026909 0.068855 0.026264 0.081244 0.006535 -0.040101 -0.027097 0.005372 -0.035605 0.066625 0.015755 0.030223 -0.006633 0.008967 0.013916 0.016166 0.008950 0.031571 -0.031301 -0.054500 0.047761 0.039100 -0.030720 -0.019638 0.018096 -0.003737 0.048995 0.001809 0.016206 0.040304 0.009616 -0.001118 0.004403 0.076478 -0.048049 -0.037417 -0.081131 0.007517 0.011230 -0.010604 0.011018 0.011594 -0.001606 -0.023044 0.009758 -0.014527 0.020752 0.053656 0.049787 0.027606 -0.005903 -0.023057 0.030950 -0.091952 0.026150 0.015877 0.112917 0.034514 -0.009314 -0.028735 -0.035877 -0.089879 0.030692 -0.003588 -0.059965 -0.058801 -0.056681 0.022034 0.005556 0.034596 0.062432 0.053273 -0.073702 -0.032929 -0.015114 -0.002878 0.008467 -0.072194 -0.036080 -0.004205 0.005767 0.020277 0.025156 -0.005118 0.022989 0.035840 -0.024673 0.023309 0.039864 0.059462 0.065507 0.069228 0.053475 -0.026467 0.008481 -0.014006 0.003301 -0.043477 -0.001818 0.021320 0.011259 0.004805 0.071599 -0.021099 0.021152 0.018429 0.047258 0.050338 0.064034 0.003578 0.044224 -0.023753 -0.015263 0.036949 0.004481 0.010463 -0.047168 0.018156 -0.070664 0.022580 0.047100 -0.034988 -0.082337 -0.011871 -0.011518 -0.029892 0.025206 0.030945 -0.007738 -0.008480 -0.003965 0.045644 -0.027172 0.003439 -0.023203 -0.001650 -0.061585 -0.008014 -0.019293 -0.033804 0.020432 -0.083481 -0.047044 0.090375 -0.031859 -0.001738 -0.014760 -0.027356 -0.006245 0.010586 -0.017828 -0.023660 0.013631 0.102608 -0.031037 0.041353 -0.005232 0.049333 -0.006326 0.036227 -0.033942 -0.006614 -0.042372 0.061406 -0.000275 0.015906 0.001594 0.042673 0.049807 -0.025977 0.002425 -0.054229
axe 0.058415 -0.068237 -0.043784 -0.029914 -0.063134 -0.008512 -0.005496 -0.016569 -0.075740 -0.052466 0.055974 0.046642 -0.010868 0.024834 0.023735 -0.004119 -0.030327 0.026859 0.001109 -0.013971 -0.020821 -0.029264 0.036908 0.024534 -0.031745 -0.014059 0.073655 -0.071244 0.019563 0.025034 0.040526 0.007854 -0.030692 -0.100558 -0.008680 0.008742 -0.066842 0.032998 0.005714 0.010401 -0.001210 0.020183 -0.016567 -0.036697 0.030778 0.016603 -0.052379 0.033928 0.036974 -0.085699 0.049242 0.030049 -0.002657 0.000567 -0.009028 0.031400 -0.026557 -0.007962 -0.018628 0.065172 -0.018294 0.003922 0.001513 0.025310 -0.048921 0.005306 -0.048666 -0.027800 -0.024013 0.002472 -0.000254 0.003841 -0.011244 -0.015198 -0.034469 0.040097 -0.057818 0.035479 -0.011992 0.006361 0.067652 -0.015411 0.025473 -0.085680 -0.032848 -0.037518 -0.047033 -0.043542 -0.016279 -0.080156 0.044570 0.008419 0.010308 -0.001604 -0.033191 0.000053 0.057065 -0.027336 0.057702 -0.021953 -0.086049 0.000770 -0.038708 -0.000307 0.001864 -0.039586 0.051708 -0.012640 0.013596 -0.018579 -0.038905 0.025368 -0.040625 0.074480 -0.013298 0.012810 -0.069268 -0.047813 0.056867 0.027766 -0.020448 -0.070333 0.011287 0.059528 0.040393 0.011950 -0.002087 0.027161 -0.026231 -0.059057 0.004499 -0.065394 0.020498 0.026366 -0.058624 0.020368 0.019351 -0.035923 0.075634 -0.002406 0.032207 -0.015948 -0.036818 -0.010719 0.039808 -0.046641 0.018358 -0.021205 -0.017927 0.067036 -0.031913 -0.054562 -0.052663 0.061055 -0.023531 0.011914 0.001076 -0.011432 0.000673 0.007131 -0.019587 -0.018447 -0.007920 0.092844 -0.026876 -0.005804 -0.034463 -0.010199 0.016243 0.014728 0.068328 0.035498 0.020144 -0.019428 0.071829 0.065670 -0.064891 -0.005921 0.031354 -0.013207 -0.011748 -0.012783 0.023359 0.035829 -0.020117 0.019563 0.003786 -0.003112 0.049314 -0.020200 -0.023285 0.006826 0.022840 0.017687 -0.052123 0.058293 0.011674 -0.039360 -0.002229 0.001329 -0.033425 -0.017690 0.019436 -0.001122 0.052885 0.034014 -0.026407 0.035674 0.014535 -0.019123 0.035465 -0.009581 -0.048598 -0.013887 -0.058396 -0.025704 -0.022672 -0.020042 -0.013796 0.012438 0.059656 0.020090 -0.011980 -0.001845 0.004853 -0.000442 -0.031881 -0.028389 -0.000781 -0.027713 0.001685 0.042733 0.030757 -0.025300 0.014309 -0.048046 -0.008109 -0.049418 -0.084614 -0.036107 0.029018 -0.027167 -0.028614 0.009804 -0.004978 0.000719 0.032803 -0.034699 -0.004598 -0.029707 -0.023695 0.027530 0.012081 -0.016196 0.053542 0.002830 0.031166 0.006915 0.035598 0.039853 -0.011324 0.049560 0.028126 -0.005594 0.005399 0.001679 0.005007 0.054442 0.008620 0.045821 0.000984 0.061696 -0.006517 0.042102 -0.006701 -0.010837 -0.018779 -0.078994 0.000357 -0.017376 -0.003679 -0.008908 -0.021546 0.024862 -0.022391 0.010581 0.083198 0.049698 -0.009586 -0.039383 -0.011061 -0.018483 0.024975 0.007209 -0.088332 0.080515 0.025964 0.010014 -0.013247 0.036750 -0.003870 0.018725 0.006038 0.012650 0.020361 -0.036753 -0.040232 -0.028719 0.055040 0.004551 -0.075109 -0.016364 0.033591 0.023516 -0.008779 -0.011493 -0.039840 0.028174 -0.047123 0.043997 -0.002933 -0.063485 -0.024848 0.002083 -0.012773 0.011749 0.031179 0.019645 -0.038603 -0.030583 -0.025381 0.035777 -0.055670 0.034049 0.012410 -0.034850 0.063202 -0.020010 -0.033159 -0.045031 0.035609 0.014339 -0.004297 0.022322 0.022669 0.042175 -0.042381 0.028360 0.001733 0.055729 0.030685 -0.009014 -0.073740 -0.017912 -0.049943 0.006463 0.004269 -0.035171 0.015547 0.043192 0.023426 -0.036497 -0.032958 -0.021097 -0.055702 0.062865 0.007047 -0.009712 0.046057 -0.031282 -0.008863 0.043741 0.000078 -0.019963 -0.005963 0.019988 0.024224 -0.034479 -0.031107 -0.042693 0.016579 -0.005681 -0.030391 0.061670 -0.048255 -0.011194 -0.038910 0.022430 -0.041544 -0.018135 0.004529 -0.010206 -0.004737 0.060615 -0.074327 -0.001317 0.021690 -0.030950 0.000558 -0.035328 -0.069331 -0.003918 0.017093 -0.079554 0.037414 -0.023000 0.034614 -0.028093 -0.059215 0.010296 -0.008563 0.018764 -0.010321 0.028678 0.054396 0.050169 0.044036 0.048152 -0.044407 -0.034703 -0.031306 0.014125 -0.048411 0.031981 -0.020737 -0.060915 -0.059924 0.017232 0.012537 -0.011268 -0.040602 0.083942 0.053293 -0.013490 -0.078945 0.010909 0.010575 0.040899 0.045633 0.018930 0.003047 0.000055 0.004944 -0.029079 -0.012610 0.022518 -0.010122 -0.014213 0.000806 -0.005951 0.012894 0.022095 0.049727 -0.033724 0.033975 0.067412 0.032437 -0.006560 0.007668 0.002030 0.039329 -0.031798 -0.037905 -0.008929 0.043586 0.000740 0.008371 -0.014142 0.007418 0.002954 0.020852 0.020789 0.009403 0.038589 -0.021925 -0.023234 0.014455 0.014159 0.026850 -0.042901 -0.018841 -0.011866 0.054316 -0.030706 0.046185 0.025017 0.024283 0.056072 -0.081392 0.012810 0.035154 -0.032534 0.048966 0.026221 -0.009218 -0.022987 -0.020665 -0.026302 0.000949 0.022688 0.021095 -0.038033 -0.029376 0.023100 -0.048831 -0.003082 0.008913 0.079520 -0.003553 0.034620 0.001201 -0.039721 0.050107 -0.020958 -0.015644 -0.031358 0.022830 0.067040 -0.001531 0.015834 0.026508 0.020549 0.031940 -0.050557 -0.008493 0.003193 0.021569 0.013177 -0.010180 -0.028130 0.045932 0.077295 0.010668 -0.066622 -0.044662 -0.010735 -0.054106 0.022427 -0.092197 -0.004102 0.057650 0.036067 -0.001645 -0.029762 -0.031772 -0.006918 -0.016338 -0.029215 -0.032182 0.027299 -0.003968 0.007203 0.020774 0.038207 -0.014793 -0.028995 0.026807 0.000699 -0.041543 0.050879 -0.026699 0.064336 0.043449 0.023410 -0.001143 0.001021 0.074224 0.051580 -0.030403 0.064340 0.034900 -0.013502 -0.006174 0.012174 0.068406 0.002432 0.005845 -0.038242 -0.024910 0.059213 0.020577 -0.038418 0.010717 -0.013173 0.001988 -0.029728 -0.022845 0.005841 -0.001874 -0.115933 0.030897 0.000125 0.015783 0.031672 -0.000341 0.008177 0.043371 -0.044945 0.025462 0.002505 -0.030484 0.008985 -0.068331 0.040864 0.019547 -0.017946 0.040263 0.050183 -0.040067 -0.018290 0.083758 0.026486 0.051203 0.004332 -0.089626 0.033950 0.032833 -0.057524 0.035248 -0.027073 0.011278 0.018801 -0.059267 -0.021915 0.098979 -0.003763 -0.022381 0.001196 0.009714 0.008199 0.051825 0.033507 0.017025 0.051436 -0.033242 0.065457 -0.037972 -0.006849 -0.000163 0.002943 -0.037045 0.046978 -0.002383 -0.035786 0.051252 0.004316 0.062270 -0.000790 0.054932 -0.047937 -0.011456 -0.002577 0.003483 -0.024219 0.042203 0.053334 0.032498 -0.026160 -0.043649 -0.024197 -0.043497 0.008272 -0.071857 -0.052856 -0.028831 -0.012218 0.033345 -0.010210 0.043544 -0.015090 0.010351 -0.039706 -0.089932 0.017283 -0.052151 0.046429 0.049452 0.019813 0.010622 0.009325 0.015557 0.048925 -0.001421 0.070694 -0.051616 0.043802 -0.037459 -0.022127 0.037052 -0.022586 -0.033541 0.011502 0.014898 -0.052963 0.015947 -0.021628 0.020248 -0.011666 -0.047080 0.030022 0.004975 -0.010329 -0.016927 -0.012523 -0.016506 -0.002393 0.020990 0.004744 0.029837 0.034994 -0.050672 -0.020361 0.037137 -0.007039 -0.020966 0.044970 -0.065825 0.025226 0.047098 0.048823 -0.018725 0.007456 -0.020436 0.006349 -0.002427 0.038195 -0.025137 0.042655 -0.026785 -0.047553 0.017797 -0.021351 0.038215 -0.032830 -0.013991 0.029609 0.080217 -0.006560 -0.011657 -0.004028 -0.035690 0.023676 -0.012157 -0.020928 0.003986 0.059787 0.037121 -0.092118 -0.062581 -0.041325 0.003901 0.036648 0.016219 0.023973 0.035992 0.032911 0.025707 0.013311 -0.032850 -0.049125 -0.071578 -0.023211 -0.043520 -0.100493 0.040522 0.066888 -0.019344 -0.013102
banana -0.020253 0.023879 -0.018733 0.018222 -0.034159 0.051077 -0.004519 -0.017929 0.026725 0.064813 0.000416 -0.011958 -0.023761 -0.022641 0.074415 -0.018544 -0.008112 -0.002124 -0.060650 0.027598 0.033553 -0.029057 0.018115 -0.035362 0.029328 0.014204 -0.015726 -0.056115 0.069540 0.035425 0.035149 0.029025 -0.020250 0.010104 -0.024838 0.017347 0.008547 -0.006696 0.028290 0.012097 -0.019419 -0.078192 0.009740 0.049969 -0.018960 -0.072547 0.017039 -0.029858 0.018988 -0.069520 -0.077701 0.031890 -0.018223 0.043824 0.016764 0.029364 0.037033 0.032158 -0.000247 0.012586 -0.047859 -0.000892 0.024236 -0.037815 0.003437 -0.038668 -0.002549 0.024804 0.002918 -0.053115 -0.005168 0.050765 0.026361 0.023912 -0.008421 -0.022033 -0.023778 0.002189 0.009763 0.017478 0.083554 0.007100 -0.019704 -0.066499 0.071390 -0.000752 -0.076510 -0.035693 0.038212 -0.054111 -0.011159 0.048650 -0.044848 0.034999 -0.001939 -0.033034 -0.049783 0.058492 0.016565 0.014519 0.002278 -0.027965 0.018876 -0.025225 -0.044094 0.006934 0.003850 -0.006917 -0.073573 -0.004402 -0.003843 -0.021689 -0.002184 0.028816 -0.006812 -0.031830 0.010471 0.001633 -0.073327 -0.043283 0.036250 -0.005777 -0.023418 -0.040331 -0.021526 -0.010248 -0.009877 -0.070532 -0.053623 0.042807 0.011707 -0.024963 -0.008569 -0.009300 0.016852 -0.021334 -0.037480 -0.039194 -0.063844 -0.045396 -0.007249 -0.064021 -0.013214 0.069426 0.017395 -0.001367 -0.005757 -0.005004 0.009450 -0.044467 0.039825 -0.057998 0.016866 0.020628 0.001688 -0.014732 0.086322 0.001929 0.002115 0.012924 -0.002326 0.010348 0.076905 -0.009036 -0.016572 -0.009904 -0.038750 0.006002 0.001796 0.039517 -0.005596 -0.090867 0.050786 -0.023861 0.015733 0.004468 0.039212 0.078433 -0.033569 0.004755 -0.032817 -0.011569 0.052785 -0.016142 0.070331 0.032090 -0.053528 -0.025683 0.025700 -0.020824 -0.017672 -0.017689 0.023968 -0.099493 -0.014743 -0.044596 0.059382 -0.050097 -0.042026 0.021010 -0.023581 -0.072282 0.018483 0.011342 0.038878 -0.000927 -0.010470 -0.069618 -0.001042 0.046221 0.017382 0.004409 0.009938 0.028452 -0.090509 0.037520 0.060968 0.005707 -0.010387 0.021716 0.027274 0.003269 0.026547 -0.025295 0.034458 -0.030532 -0.014869 0.001151 0.091937 -0.023150 -0.014564 -0.029119 0.060182 -0.027388 -0.061127 0.022092 -0.027908 -0.028876 -0.018610 -0.059572 -0.013040 0.022374 -0.054257 -0.040769 -0.020306 0.070561 0.000749 -0.018852 0.010232 -0.000178 -0.017491 -0.012713 -0.002258 -0.015350 -0.060240 -0.007060 -0.008935 -0.067643 0.042512 -0.021408 0.018521 0.006913 -0.026550 -0.032166 0.019021 -0.026751 0.069922 -0.027588 0.033750 -0.055631 0.071248 -0.007103 -0.026987 -0.034282 -0.028572 0.019130 -0.005583 0.015290 0.078149 -0.004651 -0.015707 0.004706 0.024234 0.021341 -0.036140 -0.033938 -0.009802 -0.024101 0.021157 0.003510 -0.027206 0.002544 0.018107 -0.033541 0.035537 -0.066134 -0.000798 0.006342 -0.030069 -0.042202 -0.020924 0.005759 -0.044382 0.002686 0.002423 -0.021038 -0.006024 0.053688 0.005978 -0.012941 0.040418 0.026595 -0.009326 -0.023600 0.015250 -0.023149 0.011733 0.013178 -0.023833 -0.030497 0.008139 -0.020478 0.023939 0.058360 -0.048883 0.047721 -0.028818 0.000523 0.036925 -0.037434 0.036378 0.070687 -0.032697 -0.020875 0.015829 0.019691 0.009942 0.052580 -0.081897 -0.002333 -0.016001 -0.010325 0.040353 0.012695 0.046152 -0.056031 0.014075 -0.000869 -0.029111 -0.068941 -0.065757 -0.018743 0.049861 0.000499 0.014818 -0.006113 0.077763 -0.027620 -0.006471 -0.010191 -0.016119 0.030535 0.019920 -0.014747 -0.031567 -0.060480 -0.053159 -0.041399 -0.028940 0.026540 0.018530 -0.014351 0.045578 0.055153 0.000162 -0.075607 0.054684 0.038252 -0.000390 0.019271 -0.009142 -0.032258 0.006251 0.009960 -0.007665 0.018458 0.081861 0.007151 -0.074215 0.042234 0.033316 0.025388 0.029719 -0.042255 0.028054 0.032305 -0.061856 -0.007530 -0.033743 0.066596 0.035748 0.068820 -0.025768 0.047180 0.059288 0.038844 -0.039565 0.001506 -0.012679 -0.000177 0.038764 -0.023322 -0.031520 -0.031297 0.012443 -0.023806 -0.039246 0.027743 0.076044 -0.011268 -0.007001 0.006358 0.065151 0.027047 -0.051517 -0.096094 -0.076896 0.011007 0.066774 0.077553 0.008252 -0.021871 -0.017723 0.066857 0.018561 0.033281 0.041186 -0.019671 0.027709 -0.034940 0.025138 -0.009325 -0.053879 0.008760 -0.006935 0.010578 0.041793 0.011062 0.014449 -0.052634 0.078565 0.046013 -0.017593 0.045394 0.006674 0.046567 0.039466 0.010552 0.045940 -0.044138 0.001733 -0.039723 -0.013934 -0.001496 -0.031116 -0.030563 -0.002459 -0.006422 0.037510 0.052102 0.053959 -0.035720 0.021518 -0.029656 0.061465 0.017924 0.027493 0.010550 0.057776 0.013760 -0.007890 0.009553 -0.012134 -0.043086 -0.015185 -0.097215 0.033520 0.022262 -0.039671 -0.000596 0.028071 -0.017736 -0.034474 0.034771 0.034588 0.059181 -0.042366 0.027661 0.001138 0.002130 0.013114 -0.065249 -0.035082 0.002149 0.055493 -0.023987 -0.042523 0.012927 0.016100 -0.096271 -0.013691 -0.022206 0.038992 -0.012058 0.007595 0.014155 0.038700 0.012939 -0.079797 -0.003823 -0.028790 0.043797 0.060149 0.038563 0.030844 0.060317 -0.027021 0.048951 0.024050 -0.004569 0.029575 -0.032139 0.022011 -0.004380 0.033817 0.070905 -0.002052 -0.002411 -0.008517 -0.048235 0.048297 -0.005490 -0.089519 0.073887 0.022393 -0.017250 0.012131 0.030090 -0.008314 -0.040714 0.014658 -0.034531 -0.029467 0.032924 0.046237 -0.012254 -0.061149 0.002777 0.078774 0.003637 -0.003592 0.022986 -0.067038 0.006176 0.009205 -0.003350 0.019747 0.002991 -0.001804 0.033035 -0.004426 -0.020302 0.074144 -0.017902 0.014729 0.014685 -0.001610 0.004502 0.033719 -0.039189 0.000923 0.014226 -0.008418 -0.000155 0.011602 -0.015501 -0.005910 0.007617 0.025461 0.023886 -0.017421 -0.004081 0.086802 -0.041561 0.055845 -0.008482 0.015186 0.004730 0.057173 0.023851 0.021949 -0.017611 -0.049293 -0.040143 -0.028273 0.048061 0.016628 0.042994 -0.020638 0.022663 -0.002105 -0.011880 0.052311 -0.044395 -0.006309 -0.005606 -0.016405 -0.010731 0.024406 -0.050098 0.044369 0.032601 -0.052330 -0.003010 -0.032466 -0.006410 0.029511 -0.038878 0.024654 0.053726 -0.013357 0.097254 -0.006725 -0.013605 0.034054 0.025870 -0.014879 0.011949 -0.065770 0.000601 0.057298 0.026025 -0.040251 0.054360 0.001639 -0.061043 -0.029635 0.042097 0.035252 -0.077743 -0.008745 0.084740 -0.044392 -0.017616 0.010300 -0.017074 0.007538 0.004222 -0.020069 -0.008774 -0.056321 0.023683 -0.007267 0.020654 0.060949 -0.011461 0.000540 0.034242 -0.000792 0.025109 -0.024843 -0.034585 -0.022371 0.065670 -0.049435 -0.055729 -0.019270 0.006062 0.009857 0.067320 -0.003056 -0.015428 0.017633 0.031491 -0.011410 -0.002816 -0.060279 0.029086 0.021165 -0.023749 0.001251 0.036722 0.020291 -0.020044 -0.027822 -0.017894 0.009683 0.030194 0.004144 0.044850 -0.009284 -0.002902 0.004496 0.088893 -0.001228 -0.016641 -0.002257 -0.057215 -0.037547 0.024078 -0.051323 -0.004496 -0.002206 0.016186 -0.036483 -0.052041 0.050002 -0.039601 -0.013959 0.006340 0.044873 0.050817 0.044768 0.027924 0.050341 0.037075 -0.031331 -0.044186 -0.003316 0.019190 0.012736 0.009254 0.025083 -0.032614 0.006716 0.049414 0.063398 0.013071 -0.061754 -0.037502 -0.040997 -0.041444 0.050074 -0.041295 0.012515 -0.009190 -0.016530 -0.050176 -0.001268 -0.023103 0.000561 -0.007341 -0.028367 -0.014817 -0.037709 0.011371 0.040072 0.056243 0.011293 -0.009956 -0.003948 -0.029427 0.034013 0.001637 0.037269 -0.009130 -0.049779 0.052520
bicycle -0.108809 -0.033570 0.086103 0.048858 0.051085 0.018040 -0.074398 0.015330 0.033378 -0.004473 -0.036383 -0.024617 -0.060750 0.050659 -0.045433 0.004068 -0.010242 0.012577 -0.006042 -0.028915 -0.032429 -0.015305 -0.032218 -0.030049 0.038271 0.008894 0.028519 0.031677 0.038142 0.038279 0.023261 -0.006695 0.002702 0.053281 -0.002947 0.036505 0.044175 0.034386 -0.031405 -0.005921 -0.030049 -0.004686 -0.012171 0.039719 0.019872 -0.034834 0.051333 -0.093391 -0.006607 0.061080 0.094098 0.022871 -0.061018 0.022982 -0.024419 0.017788 -0.026366 0.054573 0.055515 -0.028592 -0.024457 -0.036368 -0.066813 0.001166 0.073036 -0.028419 -0.035427 0.020328 0.060577 0.007829 -0.019618 0.045454 0.011142 0.066216 0.006372 0.045806 0.033836 -0.032905 -0.011137 -0.008013 -0.063584 -0.011679 0.032978 -0.027120 0.000675 -0.023415 -0.012015 0.059503 -0.001328 -0.054535 0.069430 0.000563 -0.003802 0.029736 -0.069943 0.042201 0.022663 -0.030750 0.045671 -0.031803 0.055686 -0.056805 -0.042704 -0.062173 -0.017196 0.028608 -0.012533 0.027222 -0.027973 -0.003948 -0.042196 0.024339 0.014193 0.015114 -0.040297 0.005056 0.029137 -0.014941 -0.006071 -0.054987 0.031559 -0.038110 0.023272 0.000787 0.007616 -0.004956 -0.015846 -0.042913 0.042483 0.009312 0.036842 -0.002180 -0.011166 -0.035707 -0.041522 0.048009 0.021819 0.003420 0.015066 0.049088 0.005875 0.053581 -0.013719 0.048683 -0.020902 0.043257 -0.027165 0.050311 -0.048676 -0.021462 -0.006771 0.038390 -0.045469 0.002328 -0.005548 -0.007411 0.000231 -0.047066 0.060735 0.010317 0.015544 -0.047070 -0.000402 -0.012109 0.036052 0.032406 -0.013684 0.060072 -0.022862 0.012783 -0.025656 0.023823 -0.084372 0.030451 0.066479 0.008999 0.004414 -0.048692 0.046578 -0.007416 0.010932 -0.012948 -0.007032 0.005686 -0.023202 0.000963 0.018737 -0.011203 0.005760 0.038134 0.037701 0.057842 0.026406 0.024952 -0.013746 0.054373 0.049554 -0.066892 -0.010827 0.015788 0.022915 -0.014300 -0.045989 0.021379 -0.048600 0.096669 0.072546 -0.022755 0.102932 0.005879 -0.040045 0.037200 0.014413 -0.011846 0.014640 0.032661 0.001764 -0.028766 0.018428 0.012702 -0.042121 0.104081 0.008064 -0.038156 -0.053630 0.105867 0.011520 -0.010917 0.060504 0.002275 -0.061067 -0.039421 0.026798 -0.031022 -0.047361 -0.044615 0.009967 -0.060518 0.037687 0.039338 0.011598 -0.009406 -0.004543 0.005553 0.057213 0.026118 0.023662 -0.012062 -0.044841 0.003677 -0.056650 -0.010868 0.044242 -0.006691 0.019039 0.044523 0.035089 -0.026924 -0.034656 -0.014769 0.012483 0.063426 -0.030735 -0.036824 0.048825 0.058599 0.014884 0.003207 -0.038969 -0.070930 0.010587 -0.009643 -0.033958 -0.018946 0.040485 0.054850 0.004228 -0.001275 0.023028 -0.027421 -0.003322 0.024101 0.002285 0.023248 0.010284 0.006516 0.058930 0.022835 -0.043926 -0.027793 0.048058 0.030937 -0.050601 0.008112 -0.062794 -0.001499 -0.033948 0.014281 0.036075 0.015417 -0.016540 0.123787 -0.050906 0.007190 -0.011730 -0.019852 -0.008804 0.019380 -0.030183 -0.029159 0.025452 0.029213 -0.004878 0.049874 0.008043 -0.002826 -0.025095 0.006324 0.041717 0.043148 0.055710 -0.012865 -0.024825 0.016624 0.015587 0.012771 0.008060 -0.008088 0.048787 0.039499 -0.030139 -0.025249 0.037111 -0.013752 -0.009890 -0.010730 -0.017385 0.002939 0.038009 0.018711 -0.068843 -0.009238 0.018941 -0.010397 0.070767 0.024360 -0.021529 -0.004483 -0.024745 -0.039486 0.009733 -0.026665 0.038154 0.062166 -0.011970 0.028702 -0.013865 -0.047597 0.020173 -0.028182 -0.023379 -0.027982 -0.072115 0.002332 -0.018104 -0.008078 0.035844 -0.054953 -0.009150 -0.004544 0.054518 0.055293 -0.033879 0.083159 0.017122 0.013013 0.007892 0.051915 -0.025708 -0.038365 0.024607 -0.063444 0.000696 -0.008487 -0.017752 -0.026341 -0.000601 -0.011492 0.013380 0.016085 0.062392 -0.029981 0.023077 -0.034339 -0.033804 0.034442 -0.006347 -0.045247 -0.006908 -0.066667 0.029620 -0.019156 -0.073999 -0.049473 0.078036 0.002561 0.082959 0.041462 -0.013053 0.033734 0.008469 -0.001753 0.006979 -0.002164 -0.000172 -0.021905 -0.036221 -0.056558 0.003180 -0.022763 0.014315 0.046295 0.023876 0.055085 -0.037515 -0.013103 -0.064133 -0.003994 0.052465 -0.039889 -0.010912 -0.021543 -0.042946 0.054228 0.032779 0.013809 -0.021035 0.003011 0.021716 -0.012395 -0.007262 0.070522 -0.028037 0.019010 -0.029027 -0.016672 0.004377 -0.027433 -0.029737 -0.036470 0.014855 -0.084031 0.009451 -0.020670 -0.034745 -0.041800 -0.003311 0.030573 -0.035318 -0.001587 -0.031861 -0.003489 0.025729 -0.022239 -0.015081 -0.008254 0.017144 -0.010732 0.048685 0.010150 0.006124 0.061175 -0.085200 0.030022 0.036121 0.001972 0.033730 0.054080 -0.044609 0.021109 0.028464 0.005342 0.052387 0.062198 0.026807 -0.044334 -0.005021 0.018389 0.005191 0.039065 -0.049454 -0.006648 0.076113 0.047607 -0.058013 0.015275 0.000872 0.046169 -0.078303 -0.001117 0.010099 -0.097282 -0.065626 0.027591 0.052662 0.025628 -0.005526 -0.059725 -0.043637 -0.013259 -0.014921 0.013411 0.018126 -0.000158 -0.025820 0.000140 0.028016 0.012631 0.018364 0.096341 0.020628 -0.013206 -0.031437 -0.016572 0.040937 0.012289 0.027572 0.030591 0.003080 0.081367 -0.027328 -0.021316 0.022261 -0.022849 0.012488 0.012796 0.018866 -0.035950 0.012039 -0.084308 0.055194 0.096507 0.015807 -0.023744 0.012393 0.009292 0.043979 0.025518 -0.038690 -0.036860 -0.028078 -0.005459 -0.005764 0.021872 0.050295 -0.019848 0.004809 0.005085 -0.034354 -0.023233 -0.010196 0.049179 0.030788 -0.020401 0.031453 -0.023422 -0.008015 0.026984 0.038432 0.036684 0.000308 -0.007402 -0.026140 -0.050471 0.021799 -0.037253 -0.026037 0.002038 0.017590 0.048781 0.023295 -0.017677 -0.055503 0.010529 0.049085 -0.028692 -0.009092 -0.067780 -0.038110 -0.056331 0.016395 0.007458 -0.001569 0.015934 -0.002109 -0.000436 -0.000987 0.043784 -0.056259 0.070292 -0.002632 -0.018877 -0.016817 0.003182 -0.019666 0.033512 -0.005510 -0.001272 0.001868 0.071124 -0.026843 0.027179 -0.000775 -0.015801 0.004493 -0.012928 0.036703 -0.001113 0.008144 0.036575 0.083352 0.023812 0.026910 -0.055305 -0.039510 0.020444 -0.016608 -0.041923 -0.029353 -0.001082 0.041726 0.004768 0.013617 -0.009924 0.032956 -0.051298 -0.028480 -0.022375 -0.021304 -0.010500 -0.031789 -0.003901 -0.001675 -0.052028 -0.022235 0.044836 -0.028113 -0.002501 -0.047280 -0.001730 0.036288 0.020885 0.002354 0.030371 0.013113 -0.021847 0.006950 -0.019997 -0.025285 0.054705 -0.041517 0.043583 0.040014 0.038166 -0.030878 -0.016457 -0.012413 0.006760 0.039950 0.001313 -0.028495 -0.041378 0.044434 0.056033 -0.031063 -0.026192 0.008546 0.003689 0.022835 -0.061591 0.003190 0.033305 -0.065304 0.055383 -0.013236 0.019556 0.006111 0.051605 0.035405 0.000318 0.019775 0.027456 0.017037 0.017564 -0.004167 0.074663 0.031597 0.003156 0.037241 -0.032692 0.037472 -0.024464 0.035954 0.023457 -0.041145 0.022024 -0.029762 -0.024415 0.009528 -0.005874 0.014120 -0.040872 0.013419 -0.027758 0.030167 -0.040286 -0.036154 0.059380 0.046718 0.011748 -0.049020 -0.041441 0.021070 -0.015110 -0.064835 0.037679 0.018792 0.039160 0.064729 -0.034523 0.011153 -0.034521 -0.056316 -0.015671 0.019118 -0.037321 0.019166 -0.007655 -0.045298 -0.032599 -0.020862 -0.031453 -0.066485 0.030791 -0.007200 -0.015402 -0.018268 -0.058315 0.041002 0.012336 0.001924 0.021730 0.033254 0.016409 0.038537 0.076132 0.046085 -0.053859 0.010648 0.006196 -0.054009 0.023715 -0.014073 0.042960 0.058163 0.025020 0.014687 0.044158
bird -0.004123 -0.034428 0.014399 0.022252 -0.020079 0.008312 0.034533 -0.027779 -0.022426 -0.007270 -0.032383 0.049586 -0.059440 0.004490 0.038871 -0.051164 0.039848 0.018444 0.043634 -0.020191 0.057908 0.000922 0.040081 -0.019182 -0.042691 -0.057837 0.020297 -0.050530 -0.019231 0.033210 -0.066890 0.063964 -0.004577 0.068614 -0.034407 0.060868 -0.021098 0.026808 0.033656 -0.010025 0.013504 -0.001081 -0.006284 -0.021756 0.047644 -0.010222 0.013815 0.026638 0.040250 -0.015597 0.021951 -0.032562 -0.016481 0.050598 -0.002542 -0.071188 0.069680 -0.040716 0.012065 0.050574 0.020059 -0.018189 0.018707 0.002599 0.011872 0.015956 -0.014502 -0.015716 0.011890 -0.075414 -0.040305 0.046928 -0.018410 0.020580 -0.031953 -0.026773 -0.011507 -0.075964 0.046713 0.073883 0.016526 0.032462 -0.002826 -0.048676 0.054155 0.042245 -0.060653 0.042191 -0.020666 0.025263 0.001132 -0.022459 0.000814 0.011452 -0.022976 -0.041330 0.008974 0.012621 0.006056 0.031936 -0.022623 0.020709 -0.038837 -0.071949 0.019275 -0.004028 0.007693 -0.028226 -0.074338 -0.000621 0.025929 -0.049685 -0.011735 0.031038 0.011651 -0.039620 0.069196 -0.014013 0.028651 0.021742 0.015267 -0.022671 -0.021399 -0.005449 -0.002956 0.055278 0.042698 0.006854 0.000242 -0.044591 0.015748 -0.029221 0.007961 -0.005581 0.016990 0.009491 -0.012266 0.006457 0.030845 0.009504 0.022647 0.056520 0.004208 0.037165 -0.008140 0.033371 0.007595 -0.022162 0.037331 -0.011191 0.055219 -0.022496 -0.003482 -0.012950 -0.023426 -0.016722 -0.019778 0.007029 0.034059 0.001862 0.005406 -0.024969 0.053352 0.012095 -0.027534 -0.047493 0.035375 -0.032554 0.017826 -0.059216 -0.004833 -0.035775 -0.008578 -0.002517 0.016296 -0.006267 -0.045574 0.036067 0.026328 0.006988 0.028166 -0.018496 0.037908 -0.065392 -0.011818 -0.025515 -0.048906 -0.076528 -0.017863 0.019695 0.111487 -0.032290 -0.011039 -0.009728 0.103075 -0.021759 0.005721 0.022734 -0.034253 -0.001988 -0.004752 -0.021663 -0.018327 0.012531 -0.101770 -0.017804 -0.032498 0.004321 0.012880 -0.031173 0.041426 0.019584 0.015220 -0.020242 -0.009139 0.027636 0.015070 0.032468 0.017192 -0.004533 -0.003772 0.010663 0.010446 0.054593 -0.011584 -0.010899 -0.004127 -0.009353 -0.005258 -0.081069 0.005712 -0.057843 -0.007610 0.008781 -0.024917 -0.058712 0.056345 -0.007422 -0.026072 0.006413 -0.053203 0.062741 -0.002365 -0.011776 0.067961 0.076933 -0.014977 0.033117 0.047307 -0.005595 -0.031985 -0.016837 0.020983 -0.016204 -0.035926 0.001721 -0.040785 -0.019682 0.050538 -0.006720 0.026113 -0.044796 -0.029103 0.006417 0.033233 -0.063325 0.015240 -0.069693 -0.018183 -0.057496 -0.066396 0.003807 -0.008399 0.003879 -0.013806 -0.133668 0.018689 0.058933 0.060391 0.030277 -0.044792 0.061095 -0.050924 -0.048243 -0.030406 -0.034695 0.047173 0.033257 0.051144 0.072689 0.036359 0.062775 0.017062 -0.005536 -0.036630 0.057122 0.010872 -0.019355 -0.001355 -0.057489 -0.002962 0.020387 -0.030701 0.020957 -0.037730 -0.024618 -0.014324 -0.003097 0.040343 -0.027216 0.007294 -0.022959 -0.035600 0.013839 0.026972 -0.015916 0.027098 0.069094 -0.037479 -0.058638 0.026188 0.040186 -0.023924 0.045550 0.015256 -0.006208 0.005019 0.041421 -0.029987 0.055019 -0.023026 -0.016149 -0.007709 0.105611 0.028639 -0.031680 0.031188 0.000389 0.002302 0.012499 0.023214 -0.024218 0.039076 -0.000158 0.002994 -0.037490 0.049860 0.008377 -0.019795 -0.050775 0.011407 0.016685 -0.020689 0.035882 0.015257 -0.018441 -0.004492 -0.015161 -0.039448 0.026711 -0.003339 0.066705 -0.052282 -0.044589 0.008788 -0.009150 0.004365 0.017996 0.042852 0.004592 0.014066 0.009829 0.012864 -0.070229 0.012127 0.020421 -0.002133 -0.037087 0.050890 -0.010264 -0.011728 -0.000449 0.002377 0.028798 -0.012090 -0.069713 -0.022998 -0.035595 -0.007951 -0.041728 -0.014160 -0.025442 0.021675 -0.047441 -0.047190 0.038155 -0.020967 -0.086766 0.002332 0.004575 -0.018951 0.012412 -0.011323 -0.019655 -0.000938 -0.032075 0.013054 -0.082559 -0.018054 0.011614 -0.004821 0.063936 -0.031598 -0.019962 -0.012983 -0.002706 0.052517 -0.013431 0.007568 -0.050424 0.009421 -0.017935 -0.008544 -0.016267 -0.050306 -0.036355 0.005834 -0.054854 0.027487 0.006726 0.020708 0.083580 0.042590 -0.023664 -0.003468 -0.022398 -0.002839 0.031844 -0.035027 -0.049685 -0.043455 0.044663 -0.044638 0.030671 -0.029089 -0.035234 -0.011485 -0.059737 0.049157 -0.083399 0.029414 0.030121 -0.023677 0.016538 -0.014993 0.012129 0.064790 -0.009141 -0.002056 0.017615 0.043000 0.048503 -0.040630 -0.041032 0.026398 -0.006262 0.016524 -0.010538 -0.022029 0.037346 0.014282 -0.013155 0.032744 0.011014 -0.075686 -0.034836 -0.040891 0.022547 -0.024209 -0.056826 -0.040832 -0.014588 0.014796 0.078771 -0.002394 -0.006131 -0.016714 -0.042773 -0.034673 -0.004989 -0.029540 -0.007066 0.042781 0.086857 0.040688 0.038252 0.027576 -0.025817 0.054712 -0.014942 0.017740 0.002328 0.014564 -0.029652 -0.021580 -0.011575 0.014610 -0.006815 -0.091113 -0.008549 0.047821 -0.031443 0.018095 0.046304 0.045876 0.056011 0.010533 -0.056505 -0.018552 -0.007392 -0.027859 -0.005933 -0.033125 -0.062795 -0.034515 -0.071670 -0.009022 0.045017 0.120539 -0.002138 0.059254 -0.018340 0.021444 0.018164 -0.007234 0.054226 0.009210 0.018816 0.013333 0.034052 0.031086 -0.030517 -0.054415 0.004848 0.015456 0.026475 -0.003206 0.004966 -0.027646 -0.048125 -0.051498 -0.016638 0.002139 0.078855 -0.044151 -0.012529 -0.006635 -0.055864 0.016203 0.029873 -0.029374 -0.063653 -0.000538 -0.022094 0.036908 0.008857 -0.008184 0.039151 0.080251 0.029791 0.063278 -0.042719 -0.020097 0.013279 -0.018050 0.022530 -0.037758 -0.033263 0.004546 -0.000882 0.012712 0.058598 0.043766 0.012388 0.000483 -0.021111 -0.003328 -0.010397 -0.004284 -0.021238 -0.027422 0.074143 -0.060833 0.019273 -0.016714 0.001042 0.008831 -0.005518 -0.016585 0.033760 -0.058894 0.031911 0.006572 -0.011053 -0.012215 0.010631 -0.044712 0.027512 -0.013156 -0.020168 -0.003764 -0.016204 0.011956 -0.013626 0.009498 -0.038642 -0.022752 0.073904 0.026130 0.017393 -0.001125 -0.003559 -0.069591 0.020114 -0.026878 0.059000 0.018912 -0.017850 0.044910 0.051790 0.012151 -0.014147 0.050505 -0.023841 -0.042513 0.045888 -0.015095 0.035100 -0.065782 -0.047016 0.002182 -0.017506 -0.034282 0.018753 0.006418 0.044012 0.086794 0.018596 0.103204 0.001143 -0.028675 0.042630 -0.035871 0.029691 -0.002827 0.020617 0.036537 -0.044296 -0.060567 0.080091 0.055959 0.022918 -0.007119 -0.020017 -0.032227 -0.004341 0.034048 -0.043825 -0.057201 0.088151 0.052675 -0.018803 0.041799 0.039424 0.021969 -0.022800 0.002590 -0.013559 -0.055541 0.010548 0.005146 -0.032784 0.042820 0.034567 -0.049157 -0.007984 -0.016155 0.002376 -0.019637 -0.035194 0.032891 0.047555 0.025646 -0.052771 0.020357 -0.010208 -0.061816 -0.046001 0.005908 -0.023764 -0.022000 0.036432 0.019245 -0.025473 -0.075770 -0.016693 -0.016433 -0.008170 0.050995 -0.065173 0.008133 0.040404 0.051134 0.014122 0.040760 -0.005213 -0.002168 0.045252 0.016018 -0.123187 0.016901 -0.041819 0.020759 0.038817 -0.055163 -0.007954 -0.069126 0.001802 -0.060354 -0.011722 -0.000389 0.002980 0.038646 -0.023814 -0.020088 -0.037721 -0.024878 0.064389 -0.001676 0.027783 0.031672 0.021062 0.013066 -0.008594 -0.021492 0.024504 -0.022902 -0.012203 -0.074100 -0.000654 -0.006674 -0.080984 0.000288 0.023331 -0.015928 0.022364 0.033518 -0.006663 -0.032692 -0.011422 0.050804 -0.037136 0.020320 -0.034243 -0.011170 -0.002491 -0.050586 -0.042978
boat -0.018066 0.001281 -0.003363 -0.006992 -0.007103 0.069366 -0.106897 0.075076 0.057189 0.018791 0.037849 0.041040 0.021609 -0.052273 -0.049430 0.006785 -0.032684 0.025892 0.038645 0.032134 -0.003224 0.020027 -0.011376 0.004696 0.029729 0.007307 -0.029461 -0.007913 -0.013120 -0.021260 0.030573 -0.030362 0.103925 0.020054 0.046120 0.046643 -0.026664 0.015100 -0.011447 0.004689 0.001829 -0.012179 -0.054139 -0.023992 0.007185 -0.029457 0.041396 -0.008644 -0.045900 -0.016770 0.013140 0.045002 -0.054668 -0.002783 -0.064334 -0.004892 0.021145 -0.003804 0.053982 0.019423 -0.013523 -0.005864 0.012257 -0.036566 0.013716 0.049770 -0.043499 -0.032966 0.027222 -0.048431 -0.009674 0.025819 0.000150 0.053251 -0.047521 -0.068995 0.002776 0.038290 0.010622 0.015500 0.024559 -0.007259 0.059137 0.002636 0.030993 -0.078780 -0.029601 -0.045609 -0.048383 0.047121 0.034000 -0.046925 -0.025560 0.002563 -0.047591 -0.048512 -0.022667 -0.001607 0.020924 -0.019590 0.027932 0.048616 -0.026416 -0.103031 -0.034388 0.006122 0.016423 0.026181 0.064254 0.018507 0.048693 -0.038635 -0.057248 -0.037311 0.012872 0.019546 0.018011 -0.005676 0.034649 0.037060 0.028162 -0.019732 0.022156 0.024673 0.012183 0.016124 -0.039190 0.019546 0.065760 -0.000204 -0.042391 -0.029152 -0.002568 -0.009583 0.013593 0.020248 -0.028285 0.065285 0.017734 -0.001114 -0.060166 0.010516 0.018439 0.064287 0.063406 -0.023870 0.003180 -0.008203 -0.094248 0.029662 0.002832 0.031080 0.003723 0.030154 -0.055292 -0.026353 0.010952 0.003864 0.037634 -0.028953 0.025846 0.036526 0.013292 -0.032823 0.019669 0.059696 0.039943 0.021939 0.003207 0.022186 0.042234 -0.024935 0.051264 -0.034230 0.037685 0.006272 -0.006673 0.006674 0.035923 0.025462 -0.028724 -0.007087 -0.003685 -0.001552 -0.102037 -0.029975 0.016942 0.050263 -0.087219 0.016745 -0.016982 0.010656 0.023323 0.020643 -0.020658 0.010030 -0.038635 0.023295 -0.011661 0.056105 0.015058 0.007414 -0.014493 0.002838 0.034430 -0.074552 -0.006667 -0.041156 -0.016366 -0.010878 0.007283 -0.000454 0.003392 -0.002022 0.038089 -0.002713 -0.040189 -0.020086 -0.007679 0.014908 -0.046858 -0.039713 0.050985 0.038717 0.026140 0.013996 0.033781 0.038574 -0.028257 -0.036552 0.016319 -0.058953 0.011950 -0.007836 -0.001414 -0.029363 0.026281 -0.018839 -0.030084 -0.051363 0.045323 -0.054047 -0.082747 -0.026811 0.013035 -0.007376 -0.018598 0.005912 -0.008390 0.015150 0.002880 0.023300 -0.032240 0.017558 0.004415 -0.011810 -0.013389 -0.057469 0.020728 -0.005997 -0.019889 0.000590 0.036300 -0.033304 -0.000802 0.070364 -0.040398 0.017114 0.049213 0.025136 0.009513 0.037132 -0.072461 -0.032766 -0.085638 -0.038929 0.041927 -0.035929 0.039502 -0.004901 0.027239 0.020970 0.021480 0.010459 -0.044273 0.048945 0.035606 -0.003482 -0.066312 -0.003691 -0.011838 -0.020565 0.030628 -0.037517 0.009351 -0.086567 0.039846 0.002125 0.015973 0.034226 -0.033505 0.041121 -0.088429 0.020725 0.006621 0.005327 0.037118 -0.011581 0.042828 -0.033516 -0.004030 -0.025502 0.090935 0.028182 -0.048685 0.037191 0.037597 -0.022681 -0.046864 -0.011516 0.027194 0.037566 0.041094 -0.032270 -0.035343 -0.024143 -0.051377 -0.065930 -0.004314 -0.001314 -0.008262 -0.023727 0.048849 0.039625 0.013474 0.013117 0.010161 0.020120 -0.011719 0.064536 0.039709 -0.020997 0.025465 0.004758 0.013764 -0.021844 0.002819 0.012013 0.000458 -0.021226 -0.014144 -0.008984 -0.004189 0.002158 0.014877 0.019742 -0.074656 0.052967 -0.042518 0.012993 0.004328 0.008487 -0.034509 -0.112830 -0.047710 0.035994 0.015544 -0.008566 0.026956 -0.098482 -0.047548 0.008847 -0.007034 0.024074 -0.028785 0.008723 0.020358 -0.013729 0.008537 -0.038880 -0.005501 -0.019839 0.054801 -0.024350 0.024664 -0.047756 -0.014419 0.019722 0.021480 -0.032960 0.018601 -0.021839 0.036883 -0.032674 0.020150 -0.072596 0.002700 -0.025566 -0.026468 -0.048187 -0.005140 -0.038780 0.023465 -0.017029 -0.014580 0.019642 0.068514 -0.002313 -0.074767 0.058774 0.013832 -0.007360 -0.018911 -0.036700 0.013152 0.003386 -0.015383 -0.010113 0.048736 0.015649 0.020654 0.038858 0.069458 0.023200 0.011394 0.005352 -0.006125 0.029712 0.005377 -0.026982 0.034177 -0.016789 0.042946 0.013972 -0.042856 -0.046702 0.034589 0.034870 -0.060794 0.052950 0.065256 -0.044639 0.033880 -0.000277 0.012762 0.037337 0.009940 -0.056270 -0.031236 -0.000071 0.027957 -0.057571 -0.029808 0.012270 0.009657 0.022102 -0.014296 -0.003797 0.014273 0.021499 -0.026501 -0.028381 0.069835 0.026745 0.006927 -0.034897 0.051658 -0.020771 0.033808 -0.009144 -0.041140 -0.037671 0.005611 -0.022297 0.032872 -0.062523 -0.057142 -0.010399 0.007870 -0.001953 0.019680 -0.006292 -0.055309 0.059914 0.048821 -0.065916 -0.041321 -0.004688 0.017430 -0.037538 -0.022891 0.079796 -0.013396 0.015240 0.067611 0.039304 -0.078399 -0.017326 0.035789 -0.006581 0.000526 0.044431 -0.010821 -0.026252 0.043594 0.011389 -0.002763 0.051239 0.043371 -0.049528 0.000696 -0.077825 0.034938 -0.027254 0.060028 0.004929 -0.033948 0.032254 -0.022184 -0.031132 0.069127 0.006936 -0.025670 0.012831 -0.044371 0.004696 0.057086 0.056449 0.031850 0.034592 -0.055528 0.012107 0.025474 -0.005592 0.042354 0.003312 0.038713 -0.005762 0.022877 -0.044572 0.012546 -0.049987 -0.003001 0.042142 -0.004051 0.007394 0.061573 -0.044035 0.110334 0.071002 -0.017770 0.063196 -0.039940 -0.033969 -0.017582 -0.049934 0.008787 -0.038967 -0.051050 -0.063989 0.029106 0.033269 0.022697 -0.025009 0.039108 0.012525 -0.008580 0.009812 -0.009677 -0.029354 0.004370 0.006527 -0.006840 -0.026637 0.063628 0.011475 0.003860 0.051656 -0.011231 -0.026771 -0.032005 0.031945 0.001203 -0.031388 -0.046849 -0.043509 0.009046 0.002924 -0.016633 -0.010688 -0.020864 0.017370 0.003376 -0.006815 -0.002079 0.047257 -0.071589 -0.024616 0.003391 -0.030962 0.021686 0.008577 0.050655 -0.029394 0.024785 -0.028634 -0.033649 -0.027127 0.051093 -0.045500 -0.003385 0.011385 -0.071172 -0.025618 0.027717 0.069307 0.016963 0.086359 -0.005168 0.000384 0.069928 -0.017102 -0.001404 0.074673 -0.005924 -0.032328 0.000258 0.056609 0.000137 -0.004293 -0.064228 -0.021681 0.023316 -0.041300 -0.030430 -0.028267 0.061401 0.046702 -0.059795 0.041390 0.008953 -0.039831 0.041814 -0.054488 0.049940 0.070882 0.095955 -0.041783 -0.023404 0.024978 -0.049971 -0.050323 0.011850 -0.029276 -0.002539 0.002655 0.035299 0.049442 0.039435 0.037607 0.007915 0.045288 0.039908 0.036197 0.007292 0.004477 0.000786 -0.024631 0.021864 0.015353 0.002270 0.036677 -0.050256 -0.042590 0.005986 -0.026057 0.014306 0.063049 0.000595 0.060777 0.011039 0.040756 -0.060588 0.000593 0.019353 0.018739 -0.021126 -0.022404 -0.011174 -0.019201 -0.002050 -0.022110 -0.009181 -0.042623 0.006931 0.005971 0.027923 -0.012150 -0.005849 0.050709 -0.002259 -0.051304 -0.000965 0.014153 0.019560 -0.000403 -0.001678 -0.009304 -0.010014 0.114477 0.012159 -0.025355 -0.009655 0.040762 0.002428 0.024658 -0.026833 -0.010332 0.063947 -0.010195 -0.023148 -0.004360 0.064204 0.025073 -0.012468 -0.047437 0.016944 0.033470 0.007134 -0.004128 0.015177 0.005908 0.035564 0.070757 0.025850 0.024308 -0.035641 0.027317 0.023234 0.050526 -0.076198 -0.021040 0.041923 0.043312 -0.028111 -0.080262 -0.056651 -0.040504 -0.079516 -0.015285 0.034486 0.012730 -0.013731 -0.004532 -0.023544 0.029145 -0.045382 -0.039320 -0.026369 0.000185 -0.029989 0.024364 -0.005783 0.056577 0.011997 -0.049794 -0.040641 -0.019194
bread -0.036905 0.067458 -0.023384 -0.082876 -0.045368 0.039695 -0.035601 0.002960 0.061975 0.015469 -0.008627 -0.022234 -0.003064 -0.052294 0.054704 0.027643 0.032972 -0.004967 -0.074974 0.019630 0.003769 -0.033300 -0.023180 -0.053345 0.042922 0.001217 0.058409 0.039281 -0.007391 -0.030062 0.037396 0.080508 -0.006886 0.028663 0.022391 -0.009210 -0.026278 0.003986 -0.008366 -0.038123 0.011397 -0.025094 0.009292 0.061919 -0.014756 -0.003234 -0.008054 0.052066 0.019089 0.032271 0.031786 -0.033075 0.089063 -0.032829 0.023695 0.026049 0.003803 0.004095 0.002675 -0.000742 -0.019499 0.028811 -0.044702 0.011268 -0.042538 -0.022384 0.055426 0.028585 -0.033694 -0.066916 -0.026051 0.013668 -0.024205 -0.095252 -0.038525 0.003285 0.028551 0.027978 0.027096 0.002586 0.039326 -0.095882 -0.024796 0.048428 0.020393 0.020648 0.053520 0.015004 0.004112 0.032790 -0.067513 -0.019163 0.030375 0.032250 -0.016276 -0.012166 0.080365 -0.032074 -0.011692 0.010726 -0.025981 0.087411 -0.065218 0.013745 0.040129 0.049029 -0.070680 0.009655 -0.048073 0.033990 -0.047027 0.024228 0.013037 0.002039 -0.018361 -0.090372 0.005270 -0.017481 0.050790 0.022338 0.003992 -0.027804 -0.041401 -0.067790 0.002323 -0.061167 -0.003760 0.002360 0.006975 -0.001764 0.045632 0.004721 0.001558 0.028403 -0.014393 -0.038684 -0.064518 0.012979 -0.006099 0.083536 -0.083000 0.003664 0.044853 0.014344 0.016125 -0.022962 -0.005865 -0.004601 -0.051608 0.042659 0.019054 0.018267 -0.013757 0.030526 -0.008900 -0.037817 -0.005448 -0.027976 0.047911 0.027079 0.080844 -0.027697 0.022053 -0.032920 -0.047631 0.047515 -0.072209 -0.038994 -0.007913 -0.032245 0.039124 -0.032129 0.016921 -0.039498 0.031372 0.010595 -0.036322 0.041377 0.037293 0.052362 -0.036865 -0.023289 0.002661 0.010031 0.052610 0.005340 0.097329 0.023127 0.013967 -0.025424 -0.019293 0.003308 -0.015270 0.104367 -0.001068 -0.017559 -0.048775 -0.000175 -0.039127 -0.029365 -0.007820 0.060113 -0.010189 -0.020736 -0.018961 0.076836 0.048430 0.021048 -0.017618 0.008706 0.067360 -0.072764 0.015926 0.014229 -0.044210 -0.010414 -0.034948 0.010313 0.014017 0.009546 0.009702 -0.036190 -0.045587 -0.043337 0.000704 0.003216 0.019820 -0.006854 0.028536 0.013382 0.018358 -0.071213 0.014605 -0.010544 0.006998 0.013795 -0.030578 0.011568 0.023786 -0.038195 0.009185 0.027836 -0.026317 0.051063 -0.021953 -0.020644 -0.014198 -0.008124 0.066368 -0.073692 0.025732 -0.003252 0.045740 0.011237 0.030297 0.005580 -0.020309 0.059539 0.000838 -0.019825 0.038725 -0.039447 0.015996 -0.045640 -0.009931 0.033134 -0.032105 -0.009954 -0.015579 -0.060060 -0.002225 -0.082104 0.046429 0.032463 0.026066 0.016048 0.036492 -0.085096 -0.010168 -0.026464 -0.007799 0.022223 0.022617 0.012844 0.018830 -0.086349 0.038698 0.006182 0.060710 0.000625 -0.023930 0.001937 0.026823 -0.031246 -0.001908 0.022544 0.039937 0.012142 -0.062645 0.013705 0.017845 -0.046625 0.021610 0.040662 0.054107 0.031262 0.031984 0.013493 -0.081893 -0.001046 -0.031780 0.021738 0.006296 -0.052367 -0.012931 0.048413 0.004072 -0.021458 -0.002504 0.016326 -0.024103 0.028076 0.000741 0.061524 0.068786 0.014540 -0.033238 -0.017601 0.008720 -0.003788 -0.006886 -0.018375 0.017666 -0.025102 -0.026551 -0.041667 -0.029641 0.031305 0.043626 0.023260 0.024975 0.027859 -0.003671 0.036665 -0.019123 -0.064195 -0.002116 0.040841 0.002329 0.000965 -0.007199 0.016340 0.019295 -0.049690 0.013351 0.009223 0.033377 -0.033750 -0.028737 -0.041286 0.041106 -0.033644 0.021279 -0.018798 -0.021051 0.034120 -0.042637 -0.000695 -0.032402 -0.068287 0.016660 0.044154 0.050381 -0.026361 0.045943 0.048653 -0.068889 -0.009386 -0.004105 -0.079556 -0.020559 0.016804 0.000191 -0.025542 -0.061440 -0.061066 0.000364 -0.014296 -0.008661 0.000161 -0.061420 -0.038528 -0.014608 -0.060571 -0.004602 -0.057862 -0.028559 0.041297 -0.025533 -0.086608 0.013964 0.011531 0.016386 0.012199 0.009397 0.006742 0.026237 -0.031099 0.064928 0.031909 -0.034609 0.030471 0.021624 0.005512 0.017263 0.020260 0.035226 -0.004732 -0.014786 0.037254 -0.015160 0.032797 -0.040594 0.043223 0.025180 0.002375 0.006443 -0.026562 -0.036388 0.029425 0.007947 -0.013015 -0.002982 -0.064854 0.028719 -0.052611 -0.024831 0.008691 -0.026995 0.033869 -0.004784 -0.006243 -0.044121 -0.014964 -0.003224 -0.012057 0.001857 0.021271 -0.033375 0.038205 -0.017959 -0.024899 0.024822 0.025908 0.038285 0.020905 0.000776 -0.012415 -0.003112 0.019922 0.025663 -0.057764 0.105937 0.015717 -0.006813 -0.002627 0.024087 0.010030 0.012292 0.031420 -0.004595 -0.023627 0.020617 -0.031271 -0.020568 -0.026632 -0.010262 0.125597 -0.012736 -0.036355 0.010808 0.016041 -0.031510 -0.066738 -0.015605 0.033212 0.005737 0.000576 0.034573 -0.017114 0.053011 0.012665 0.044062 -0.029341 0.054493 -0.024519 0.024468 -0.051946 -0.025292 0.042687 -0.008215 -0.023906 0.111514 0.014152 0.028171 -0.028778 0.005949 0.004908 -0.033592 0.041656 0.043309 -0.014267 0.002685 0.011834 0.028530 -0.000188 -0.021399 0.024525 -0.002232 0.027740 -0.011400 0.010504 0.032759 0.036940 0.019888 0.015548 -0.031635 -0.012616 -0.019567 -0.110158 0.004813 -0.024463 0.044841 -0.000105 0.006332 0.034728 -0.005951 0.031623 0.005692 -0.000108 0.033389 -0.007568 0.057940 0.036496 0.015388 -0.076456 -0.003216 -0.011756 0.021267 0.015530 -0.024774 -0.053939 0.025367 -0.021545 -0.034971 -0.035627 0.056769 -0.052248 -0.063824 -0.027656 0.000706 -0.008727 0.014094 -0.014453 0.007877 -0.101148 -0.012686 0.002203 -0.016029 0.018677 0.087098 0.024147 -0.000532 0.054082 0.091960 -0.035500 -0.002438 -0.037542 -0.045121 -0.054677 0.010606 0.081422 0.020624 0.010883 -0.019837 -0.021658 -0.021221 -0.020874 0.034371 -0.027320 -0.024758 0.004244 -0.067519 0.034848 -0.002350 -0.022978 0.024826 0.064446 0.024107 -0.036382 0.007245 0.018899 0.017722 -0.035105 -0.030608 -0.046031 -0.011399 0.022550 -0.018484 -0.005243 0.043523 -0.043341 0.020555 0.075732 0.078983 -0.046037 0.015021 0.030987 -0.030263 0.027852 -0.026767 0.004559 -0.026080 -0.017073 -0.024834 0.009251 -0.016994 0.008788 -0.001325 0.097837 0.004721 0.008392 0.035224 0.033545 -0.017867 -0.027161 -0.008304 -0.042808 -0.025433 -0.001144 0.046963 0.046509 -0.002562 -0.002138 -0.033537 0.026581 0.000263 0.020182 0.070664 0.032109 0.013916 0.030397 0.026334 -0.004896 0.039603 -0.030906 0.008407 0.054573 0.022370 0.052531 -0.017787 -0.029389 -0.044779 -0.025848 -0.029206 0.055216 0.044658 0.005006 -0.029822 -0.040151 0.105384 0.052317 0.007972 0.024131 -0.008820 -0.009696 -0.029436 -0.008682 -0.027440 0.023559 0.083888 -0.030069 -0.022711 -0.003357 0.001581 0.042345 -0.059554 0.019463 -0.040559 -0.015643 0.033079 0.029321 0.038189 0.021048 -0.045514 0.018623 -0.042750 0.012583 0.019068 -0.014749 -0.033305 0.024906 0.001808 -0.002454 0.015012 -0.029605 0.019577 0.006609 0.029013 0.131804 -0.033579 -0.025802 0.013825 -0.045399 -0.021040 0.031971 0.007004 -0.002621 0.011636 0.004679 -0.001611 -0.000023 0.017664 -0.000777 -0.011521 0.012632 -0.013781 -0.029044 0.011881 -0.002957 0.003694 -0.049910 0.013135 -0.051443 0.022525 -0.043241 -0.015620 0.006019 0.041518 0.006991 0.031381 0.042993 -0.012393 0.021188 0.065221 0.021233 0.066512 -0.055926 -0.041220 0.009277 -0.011391 -0.003924 -0.008890 0.076665 -0.019542 -0.012275 -0.027070 0.032579 0.037094 -0.008233 -0.076837 0.027998 0.026861 0.003857 -0.013389 0.100506 0.026387 -0.023984
bus 0.032586 -0.014218 0.013072 0.077557 0.035322 -0.012465 -0.074141 0.020250 0.119611 0.038388 -0.075602 -0.017026 -0.015381 0.049230 -0.074653 -0.007541 0.013697 0.013283 0.048733 0.032432 -0.047602 -0.005122 0.013502 -0.015051 0.065103 -0.036171 -0.042589 0.088035 -0.055230 0.055960 -0.023388 0.058664 0.018275 0.012731 -0.065004 -0.023767 -0.027044 -0.010726 -0.021729 -0.012989 -0.011703 0.034739 0.020048 0.043557 0.025517 0.109497 -0.024554 -0.049389 0.026592 0.024098 0.011189 0.012476 -0.007551 0.048647 -0.001239 -0.006340 0.051536 -0.027161 -0.006276 -0.004856 0.002288 -0.048511 -0.021179 0.000916 0.063851 0.100835 0.039005 0.011072 0.040143 0.003265 0.004945 0.030305 -0.030613 -0.014944 -0.030183 0.014533 0.030030 0.088633 0.003145 0.030191 -0.011064 -0.002050 -0.029905 -0.001269 -0.007555 -0.009904 -0.051435 -0.051919 0.039147 -0.009596 -0.005908 -0.008867 0.006194 -0.012467 -0.014988 -0.046546 -0.036817 0.017195 0.041622 -0.041480 -0.005711 0.023907 -0.007421 0.009159 -0.024019 -0.010665 0.054516 0.040229 0.047764 0.071372 0.062264 -0.048781 0.006090 -0.058973 0.015932 0.031473 0.019358 -0.027987 0.039914 0.042979 -0.011449 0.015927 -0.029579 0.010514 0.050042 -0.003887 -0.008786 0.010979 0.059195 -0.006972 -0.046281 0.036315 -0.037113 0.011035 0.011321 0.009488 0.003690 -0.052240 -0.005211 0.005013 -0.011469 0.026812 -0.009863 0.019157 0.043796 -0.007671 -0.005347 -0.020893 0.072268 0.058591 0.004111 0.086692 -0.007914 -0.002863 0.008926 0.014385 -0.006146 0.040064 -0.021560 0.015349 -0.034364 -0.051271 0.000251 0.077989 -0.029978 0.040722 -0.086315 0.003052 0.075262 -0.041519 0.077150 -0.023647 -0.013553 -0.032480 -0.057052 0.000216 0.051056 -0.033590 0.029118 0.020201 0.007757 -0.000769 -0.036580 0.019545 -0.005994 0.011097 -0.018559 0.003574 0.020259 0.031260 0.057224 0.024332 0.034999 -0.011638 0.106594 0.017771 -0.021796 0.023490 0.029102 0.023614 0.001493 0.016587 0.046057 -0.040546 -0.033657 -0.023360 0.026359 -0.008649 -0.022876 -0.040706 -0.036830 -0.031076 -0.011977 -0.047373 0.035580 -0.069380 -0.046772 0.039180 -0.038042 0.015665 0.014219 0.015330 -0.060872 0.026217 -0.020250 -0.081503 -0.006462 0.028223 0.011641 -0.047128 0.035165 -0.038363 0.015365 -0.048274 0.010464 0.025621 0.012388 -0.024290 -0.068180 0.021104 -0.006986 0.005548 -0.001054 0.094173 -0.007363 -0.039046 0.027203 -0.008199 -0.017348 0.017367 0.001480 -0.006790 0.006007 -0.036032 0.011458 0.025212 0.039969 0.013227 -0.062774 -0.048945 0.014609 0.001892 0.101465 -0.010360 0.100367 0.039960 -0.002682 0.049661 0.021327 -0.014958 -0.047821 -0.015221 -0.029948 -0.025127 -0.046571 -0.018979 -0.043552 0.010323 -0.054447 -0.037262 0.019865 0.030262 -0.089717 -0.003799 0.007184 0.040457 -0.024890 -0.049233 -0.017032 -0.092723 0.026313 -0.013624 0.007960 -0.023896 -0.006765 -0.068182 0.006041 0.047953 0.024697 0.027028 -0.025562 0.014178 0.016032 0.000931 0.011231 -0.037249 0.008668 -0.022322 0.040702 0.045157 -0.016502 -0.000439 -0.011234 -0.009323 0.030373 -0.040182 -0.021068 -0.022927 -0.027884 -0.026524 0.042843 0.036520 -0.004604 0.066100 0.014551 0.012134 0.037764 -0.008867 -0.002888 0.019483 -0.018283 0.030917 0.000654 -0.014013 -0.019133 0.008679 0.049620 -0.069515 -0.028627 0.080714 -0.025099 0.015214 0.004117 -0.002536 0.039239 0.005754 0.030838 0.012929 0.012036 0.003102 -0.054869 -0.051297 -0.035453 0.013110 -0.020154 0.044613 -0.008015 0.031670 0.003120 -0.011127 -0.028882 0.061378 -0.046157 0.042183 -0.014253 0.056028 -0.035222 0.059360 -0.000822 -0.022177 0.030159 0.026584 -0.000909 0.042101 -0.022246 0.038537 -0.019950 -0.012099 0.029099 -0.030536 -0.023983 0.000425 -0.055421 -0.029751 0.017288 0.051108 -0.014753 -0.022854 -0.013824 0.011552 0.032863 0.015438 -0.009133 0.003450 -0.048606 -0.034141 0.015489 0.003199 0.018490 -0.020983 -0.031990 -0.017827 0.035613 0.023229 0.062967 0.067180 0.002406 0.027810 0.046150 0.042187 -0.060711 0.003037 -0.010712 0.019615 -0.039551 -0.018756 0.023146 0.003331 -0.060436 -0.059930 -0.063869 -0.018517 0.003160 0.011026 0.067955 -0.032042 0.008504 0.039002 0.034976 -0.040052 0.013425 0.050487 -0.006851 0.056664 -0.006535 -0.017482 -0.023688 0.010316 -0.069421 0.029473 -0.013113 0.006530 -0.032447 0.031796 -0.063562 0.046791 0.009076 -0.063103 0.001633 -0.008579 0.023961 -0.023795 -0.058249 -0.023068 -0.023041 -0.015418 0.059295 -0.036072 -0.007126 0.020052 0.005814 -0.011823 -0.037683 0.000307 0.011390 0.022756 -0.048874 0.070653 -0.014665 -0.020382 0.003789 0.012810 0.044243 -0.066872 0.006963 0.069754 -0.095244 0.013014 -0.014709 0.021906 0.082451 -0.064140 0.058152 -0.048383 -0.060352 -0.022191 0.037452 0.015725 -0.016949 0.068064 0.028463 0.008212 0.014998 0.017685 -0.016670 0.033280 0.000040 0.015835 0.039137 -0.006617 0.000661 0.025552 -0.017543 -0.024758 -0.050868 0.029047 -0.047744 0.031595 -0.000784 -0.001530 0.008371 -0.023900 -0.041477 -0.032150 0.022768 -0.013781 -0.011582 -0.008294 -0.051081 -0.038703 0.032319 -0.020020 0.005760 -0.002982 0.058794 -0.060320 0.012209 0.064689 -0.003292 -0.014501 -0.008302 0.000067 0.002503 0.025918 -0.021053 0.037506 0.043698 -0.013281 -0.011298 -0.013580 0.045929 0.031391 -0.030832 0.031216 0.044771 0.035192 0.038419 0.016967 -0.066567 0.001228 0.014234 0.035426 -0.031795 0.027880 -0.033376 0.034506 0.038027 0.062474 -0.039685 0.006844 0.050776 0.009597 -0.068770 -0.046610 -0.016718 -0.047294 -0.005219 -0.016531 -0.006905 -0.019221 0.015845 0.065155 0.077950 -0.021952 0.005558 -0.011422 -0.012146 0.055412 -0.037983 0.020639 -0.073224 0.017849 0.053516 -0.053237 -0.009122 -0.019787 -0.045354 -0.024844 0.036850 0.031637 0.013560 0.017423 0.043545 -0.001762 -0.075080 0.013731 0.031771 0.015396 0.020904 -0.036742 0.006707 -0.014351 0.021825 -0.012964 0.024583 0.030835 0.046890 -0.018972 -0.021615 0.013020 0.038982 0.043859 0.047758 0.031377 0.006164 -0.063887 -0.006397 -0.028335 -0.070924 -0.019364 -0.013324 0.028598 -0.000089 -0.087953 -0.024561 0.017807 0.043156 0.015586 0.048376 0.069385 0.041917 -0.007461 0.038198 0.012778 0.009853 -0.074861 -0.046383 -0.045217 -0.030776 0.031336 0.062860 0.044520 -0.039960 -0.060713 -0.010001 -0.011341 0.007421 -0.052593 0.041253 0.010774 -0.008261 -0.016213 -0.025084 0.015896 0.055116 0.018301 -0.009508 0.042683 0.027352 0.012858 0.030171 -0.013328 -0.012335 0.039775 -0.040758 0.019002 0.000479 0.042162 0.014587 0.015172 0.009221 0.043381 -0.035373 0.008157 -0.001625 -0.029583 0.021615 -0.002660 -0.005001 0.031943 0.002772 -0.007978 -0.016587 0.013700 -0.026991 0.006699 0.044009 -0.026589 0.045443 0.076211 -0.026179 -0.070354 0.013206 0.004741 -0.026726 0.002647 -0.019498 -0.017912 0.027131 0.016503 -0.015069 0.063002 0.004847 0.019840 -0.016487 -0.043950 0.012933 0.030626 0.026738 -0.018816 -0.019500 0.023678 0.009600 -0.025805 -0.059155 0.008568 -0.051420 -0.017654 0.022790 -0.045535 -0.051921 0.039369 -0.000578 0.033593 -0.003845 0.034557 -0.031073 -0.004924 0.016897 -0.020266 0.044878 -0.015076 0.002618 -0.040021 -0.024956 -0.007059 0.056765 0.010182 -0.041907 0.054351 0.034880 -0.041579 0.016117 0.064091 -0.019912 0.027084 -0.002345 0.031100 0.018171 0.037748 0.052303 -0.052317 -0.089197 -0.014258 0.009829 0.045114 -0.002509 0.056657 -0.075338 0.028993 0.038882 0.035823 -0.042292 -0.002672 -0.033698 0.052840 0.054467 0.057618
car 0.002798 0.016704 -0.015642 -0.026294 -0.007120 0.019755 -0.017516 -0.001740 -0.021583 -0.028316 -0.033717 0.057092 0.041657 -0.020946 -0.028410 0.011554 -0.011924 -0.002611 -0.018794 -0.039041 0.003093 -0.004188 -0.004335 -0.016594 0.016056 0.070048 -0.011082 0.008251 0.007150 0.023752 0.038696 -0.004611 -0.006189 -0.021047 0.001065 0.049645 -0.026639 -0.011249 -0.013035 -0.019225 -0.101495 0.003769 -0.019543 -0.007183 0.061000 0.018840 0.009219 0.028677 -0.017559 0.004287 0.018526 0.038378 0.005531 0.028026 0.030385 -0.068725 0.025859 -0.000825 0.023589 -0.017541 0.055021 0.002718 0.009804 0.006532 0.008481 0.017686 -0.054307 0.028187 -0.029503 -0.051233 -0.043560 -0.023120 0.019195 -0.032350 0.018498 -0.049135 -0.045559 0.019996 -0.031947 -0.019967 -0.004856 -0.020594 -0.013168 -0.012509 -0.000289 0.056089 -0.007164 -0.088075 0.066585 0.029035 0.074262 0.018739 0.007727 0.004655 -0.013029 -0.053588 -0.022932 -0.024060 -0.049915 -0.097086 -0.070820 0.027351 -0.006994 -0.010162 0.045557 0.039881 0.005465 0.026565 0.076983 -0.066983 0.098835 0.009147 -0.035796 0.009038 0.008057 -0.094668 -0.039764 0.045298 0.027104 -0.000063 -0.092586 0.005001 -0.030260 0.028860 0.048100 0.021258 0.049681 0.038620 -0.044051 -0.034811 -0.095170 -0.054689 0.015024 -0.027057 -0.020591 -0.038393 0.032020 0.003007 -0.095946 0.000090 -0.030536 -0.118003 -0.027464 -0.019750 -0.016332 -0.017727 0.063354 -0.026242 -0.013845 -0.004129 0.044534 -0.019363 -0.025622 -0.025571 0.055674 -0.043856 -0.017447 -0.074903 0.003882 -0.011797 0.040924 0.051655 -0.038253 -0.004863 -0.050480 -0.008661 -0.009903 -0.027522 -0.020022 0.008384 0.006732 -0.091334 -0.020031 0.022580 -0.010304 0.004934 -0.020864 0.015904 0.009394 -0.061901 0.011840 0.011463 -0.024802 -0.034130 -0.073638 0.000135 -0.076056 -0.020189 0.041005 -0.027648 -0.004679 0.001456 0.015935 0.011333 0.040357 0.016482 0.060256 0.048558 -0.043350 0.072892 0.004530 -0.054485 -0.042711 0.007303 -0.016080 0.002184 0.010474 0.018863 0.067692 0.001215 -0.033935 -0.024646 0.000229 0.023031 0.082879 -0.009850 -0.059694 0.038793 0.033463 -0.016266 -0.012893 -0.006325 0.002624 -0.061606 -0.083865 -0.028722 0.007328 -0.030106 -0.014399 0.002110 -0.073712 -0.015319 -0.025591 0.046128 -0.008425 0.028618 0.082596 -0.022385 0.004760 -0.051494 0.003837 0.037267 -0.008291 0.024772 0.027042 0.055125 0.034149 0.000448 -0.048895 -0.078689 -0.026237 0.092426 -0.040417 -0.051362 -0.024755 0.012944 0.054532 0.011404 0.016510 -0.016028 -0.011450 -0.073629 -0.016616 0.003064 -0.026690 -0.026673 0.007739 -0.024334 -0.030556 -0.005175 -0.031587 -0.006582 0.015018 -0.000857 -0.016832 -0.011379 0.031933 0.053185 0.024697 -0.026016 -0.017173 -0.001248 -0.051051 0.009511 0.020433 -0.058604 -0.016200 -0.002130 0.007792 0.090640 0.008625 -0.003224 -0.023399 0.030670 -0.007738 0.077085 -0.058484 0.010131 0.016691 -0.021299 -0.053448 -0.015073 -0.061995 -0.002785 -0.036460 -0.056375 -0.005785 -0.041956 0.011515 -0.044558 0.035593 0.002850 -0.049771 -0.004206 -0.027579 -0.020684 -0.083212 0.059877 -0.018335 -0.014245 0.047782 -0.030926 -0.035988 -0.014630 -0.043754 -0.043560 0.050743 -0.037856 0.033578 -0.017353 -0.047600 0.012254 0.072056 0.008866 -0.035291 0.032511 -0.030684 0.031361 -0.007256 0.042556 -0.075011 0.058951 -0.013032 0.039327 -0.025057 -0.018330 -0.032060 -0.008172 -0.016529 -0.007006 -0.050431 -0.013489 0.050950 0.008051 -0.051353 -0.065928 -0.001289 0.038715 0.003713 0.007858 0.024306 0.009661 -0.006906 -0.062287 -0.044506 -0.002935 -0.002460 -0.002505 0.069034 0.011261 0.015871 0.038439 0.063921 0.048310 -0.013671 -0.021044 -0.074874 0.028670 -0.050851 0.032672 0.007229 -0.002816 -0.012401 -0.005989 -0.096120 0.015598 0.085778 -0.037451 0.023104 -0.029524 -0.013517 0.020014 0.035560 -0.001310 0.023825 -0.028629 -0.009218 0.002514 -0.017265 0.039823 0.034789 -0.048340 -0.010479 -0.001597 -0.050044 0.063289 -0.048201 0.035940 0.001794 -0.038392 -0.047663 -0.052135 -0.022483 0.027127 -0.025131 -0.058178 -0.023023 -0.010469 -0.016335 0.060981 -0.010221 -0.025990 -0.019651 0.005583 -0.025162 -0.003855 -0.014993 0.021245 -0.016205 -0.033856 0.037594 0.022260 0.036865 0.004404 -0.029309 -0.005106 0.059758 0.016808 -0.068061 -0.021459 0.044697 -0.013401 0.072423 0.056289 -0.067592 0.008227 -0.020882 -0.061872 -0.027103 -0.022013 -0.019336 0.015555 0.028384 -0.043425 -0.070287 -0.036608 -0.023870 0.043776 0.031521 0.025283 0.018758 -0.020808 -0.034485 0.022350 0.031925 -0.020740 0.017660 -0.054430 0.013990 0.021256 -0.015521 0.009128 -0.010447 -0.027937 0.029063 0.037221 0.020638 -0.016894 0.032477 0.009394 -0.029391 0.000837 0.015115 -0.023115 0.085256 0.046215 0.061498 -0.052463 -0.025806 -0.046548 -0.004449 -0.008832 -0.028425 0.002188 -0.007955 0.042662 0.032720 -0.005209 0.014413 -0.033069 -0.052423 0.038358 0.027982 -0.020168 0.015418 0.004816 0.007216 -0.050642 0.027309 0.013268 0.036097 -0.035595 -0.070942 0.013891 -0.068640 -0.004548 0.057855 0.024273 0.011539 -0.069320 0.008233 -0.007819 0.041498 -0.017777 -0.070881 0.005121 -0.004155 0.027816 0.042548 -0.045379 0.036665 0.004127 0.000957 0.018500 -0.045649 0.030170 -0.047923 0.000309 0.033418 0.021855 -0.003059 -0.017064 0.033657 -0.023393 0.013975 -0.002193 -0.008727 0.041438 -0.054378 -0.014400 -0.039434 -0.021226 0.030794 0.028146 0.006629 -0.028426 -0.000423 0.012397 0.032304 0.000326 -0.070358 0.005808 -0.007606 -0.001764 0.057669 0.038426 -0.122896 0.016038 0.017909 -0.010601 0.038350 -0.010144 -0.051897 0.007168 -0.020016 -0.045070 0.046907 -0.038769 0.027592 -0.043140 0.016281 -0.014272 -0.085356 -0.016323 -0.030482 -0.002806 0.023718 -0.018267 0.009191 0.012328 -0.041252 0.035638 -0.032360 0.021660 0.008553 0.038354 0.029824 -0.035835 0.011719 -0.002042 0.011398 -0.014789 -0.050302 -0.055146 0.025999 0.054489 -0.012076 0.052017 -0.002203 -0.051022 -0.000318 0.054136 0.025126 0.011962 0.060074 0.050116 0.032863 -0.034300 0.046666 0.002648 -0.008128 -0.027078 -0.079316 -0.074754 0.023209 -0.044651 -0.024292 0.039710 -0.044256 -0.037775 -0.027806 0.009631 0.032285 0.020821 -0.022262 0.016807 0.031488 -0.002023 -0.040285 -0.009277 0.027033 -0.051533 -0.010870 -0.016413 -0.004964 -0.006065 -0.019997 -0.065963 -0.028487 -0.020554 0.000373 -0.045552 0.002720 -0.023305 -0.054878 0.037849 0.014268 -0.064833 0.033511 -0.019011 0.053611 -0.011687 -0.049266 -0.031778 0.011417 0.025726 -0.033374 0.026555 -0.008290 -0.009527 -0.022688 0.023611 0.015245 0.023960 -0.045282 0.019758 -0.042470 -0.031381 -0.014246 0.029445 -0.019591 0.004434 -0.046168 0.004146 -0.015722 0.013320 -0.020853 -0.035180 -0.030094 0.001303 -0.046752 0.072048 0.003496 0.025953 0.011408 0.058221 0.045142 0.037717 0.003785 0.023847 -0.005852 0.011894 -0.016995 0.030334 0.067126 -0.004292 -0.045785 0.060740 -0.038827 -0.023002 -0.052943 0.026467 -0.004540 -0.033251 0.024942 -0.016015 -0.046061 -0.031871 -0.020710 0.017063 -0.033771 -0.019462 0.040656 -0.010334 -0.011492 0.010248 0.035738 0.006363 0.000656 -0.009766 -0.038532 -0.016917 0.014411 0.012362 0.021766 0.014834 -0.019964 0.026684 0.063437 0.004337 -0.054194 0.003681 -0.051949 -0.024833 0.003825 0.065487 0.068179 -0.017596 0.003110 -0.030655 0.036979 0.017815 -0.040760 0.043472 -0.030402 0.026816 -0.013027 -0.034526 -0.009496 0.063710 0.024048 -0.016114 0.023286 0.009058 0.065520 -0.001105 0.000919 -0.026473
cat -0.003775 -0.039214 -0.017424 -0.040072 0.004334 0.008383 -0.048040 0.037676 -0.020528 -0.043591 -0.037209 0.022620 -0.049432 0.008109 0.030248 0.058357 -0.003068 0.030220 0.041565 0.031316 -0.021258 0.026872 0.036044 0.022414 0.019601 -0.037375 0.054135 0.058301 -0.029101 0.030782 -0.020439 -0.011126 -0.027344 0.029635 0.002290 -0.048790 -0.003708 0.007657 -0.050571 -0.070670 0.030375 -0.033514 0.014644 0.028055 -0.000256 0.004850 0.005250 -0.024172 -0.023866 0.074743 0.003221 -0.024975 -0.079642 -0.000492 0.015445 0.033360 -0.010599 -0.023885 0.048186 0.025701 0.016890 0.052783 0.037109 -0.023735 0.023932 0.071368 -0.016852 0.036538 -0.008623 -0.035696 -0.042321 0.064551 0.033372 0.008324 0.013937 0.002215 0.052219 -0.050938 -0.020676 0.051246 0.003257 0.028826 -0.017784 -0.003681 0.010954 0.028125 0.017175 -0.022252 0.018259 -0.025646 0.059588 -0.013165 0.028068 0.007271 0.003390 0.018319 0.011706 -0.009448 0.038172 -0.026287 -0.012480 0.058058 0.040009 -0.019424 -0.002288 0.034302 -0.010764 0.010958 -0.051209 -0.000909 -0.046978 -0.001458 -0.029921 0.027741 0.015787 0.057445 -0.010021 -0.022908 0.038870 -0.044524 -0.045139 -0.047788 0.011005 0.031763 -0.019587 0.000315 -0.009663 -0.024989 -0.007720 -0.003743 -0.042118 -0.001010 0.054455 0.002233 -0.065926 0.050657 -0.009808 0.001873 -0.036427 -0.084511 -0.027715 -0.034996 -0.007087 -0.030782 0.014618 0.025303 -0.027764 0.037647 0.005244 0.042113 -0.021873 0.032206 0.022120 -0.035742 -0.023352 0.011737 -0.041559 -0.054396 0.007876 -0.001703 -0.045480 0.015517 0.003682 -0.011906 0.001740 0.002277 -0.016114 -0.032649 -0.027083 0.015931 -0.004968 -0.033941 -0.013845 -0.016643 -0.023270 0.003966 0.001255 -0.051172 -0.012363 0.017529 -0.021957 -0.043468 -0.021310 -0.017302 0.037371 -0.027885 -0.037272 -0.010472 0.036210 0.019971 -0.109736 -0.009071 -0.001711 -0.039397 0.024025 0.038009 0.040297 0.029423 -0.017936 0.062123 -0.009584 -0.003050 -0.004902 0.051234 -0.023776 0.009562 -0.021716 0.004538 0.045219 0.004748 0.040888 -0.067099 -0.055856 -0.010339 -0.027282 0.018259 0.001270 0.063424 0.021999 0.016304 -0.028246 0.039446 -0.110062 -0.035075 -0.011009 0.072599 0.023036 -0.073992 0.002844 -0.021468 -0.040641 0.034247 -0.039661 -0.018213 -0.054787 -0.000686 0.023324 0.027751 0.019960 -0.019631 -0.005646 0.012159 0.015481 0.017816 -0.007537 0.069094 0.034179 0.048359 -0.009363 0.029783 -0.080703 0.006877 0.056135 0.058896 0.031214 -0.042045 -0.016721 0.015236 -0.108463 0.036833 0.017331 -0.040275 0.014183 0.012195 -0.074381 -0.072247 -0.004281 0.019174 0.014627 0.000931 -0.007459 0.005241 -0.076359 -0.009154 -0.009534 -0.010131 0.008787 -0.020460 0.027059 0.015162 0.081163 -0.007571 -0.034431 -0.049397 -0.065132 0.076089 0.003966 -0.033848 -0.018846 -0.023428 -0.010803 0.035242 -0.014955 0.008193 0.003064 -0.029717 -0.051268 -0.005097 -0.039143 -0.041874 0.010709 -0.015867 -0.000042 -0.086723 -0.046724 -0.014319 -0.035381 0.007136 0.016465 -0.017716 -0.018129 0.008763 -0.043555 0.014326 0.035621 0.021718 0.009086 0.054322 -0.026165 -0.000471 -0.079587 0.026208 0.018830 0.046778 -0.030164 0.003160 -0.013334 -0.022299 0.020010 -0.040752 0.052057 0.035767 -0.047944 -0.034675 0.057790 0.045551 0.052796 -0.026691 -0.002008 0.013104 0.030490 0.009976 0.003507 0.035636 0.075301 -0.011140 0.064033 -0.026710 -0.009366 0.014459 -0.015076 -0.023952 -0.008561 -0.024601 0.031241 0.000828 -0.031571 0.031226 -0.107037 0.071759 0.048571 0.023777 0.035240 0.114969 0.034399 0.009909 -0.003778 0.016127 0.035832 -0.002140 -0.016073 -0.003429 -0.005305 -0.056295 -0.036264 -0.003472 -0.029296 0.054648 -0.084665 -0.034450 0.009204 -0.037288 0.038692 0.012947 -0.055782 -0.004680 0.001009 -0.035554 -0.024144 -0.041903 0.060623 0.041817 -0.034741 0.000534 -0.004217 0.025029 0.032851 0.022098 0.034211 -0.039389 0.008504 0.019123 -0.022052 -0.033834 -0.006130 -0.003052 -0.050139 0.019755 0.022325 -0.001012 -0.027141 0.036116 -0.014198 -0.010853 -0.071984 0.009941 -0.025634 0.046595 -0.034663 0.017289 -0.032022 0.026360 -0.007534 -0.015086 0.067823 0.013530 -0.009842 0.014688 -0.084933 0.053980 0.027086 0.017026 0.026497 0.014177 -0.010240 0.012189 -0.009171 -0.004607 -0.013289 0.027893 -0.057996 -0.040433 0.007912 0.024204 -0.014077 0.020366 0.027875 0.055008 -0.001776 -0.050700 0.031088 -0.094441 -0.011478 0.057905 -0.002848 -0.027671 0.055448 0.012185 -0.000336 -0.046937 0.033841 -0.002663 0.006673 -0.097989 -0.000002 -0.024835 -0.038714 0.054439 0.011808 0.020183 -0.004991 0.039055 0.042956 -0.000305 -0.014843 -0.006195 0.027129 0.012207 -0.045414 -0.028203 0.064813 -0.005004 0.033048 -0.010489 0.024140 0.007197 -0.000829 -0.007383 -0.011918 -0.032004 -0.010837 -0.043432 -0.014262 0.065071 0.017222 -0.039154 0.064699 0.023813 0.006841 -0.005938 0.024102 0.055381 -0.007173 0.050315 0.044193 0.052160 0.015478 0.020672 0.018556 0.024172 -0.011711 -0.015641 0.046703 -0.053521 0.057304 -0.036294 0.065215 -0.050850 -0.028737 -0.024754 0.008898 0.008858 -0.045403 -0.006966 0.011013 0.063053 0.009551 0.039545 -0.003304 -0.051638 -0.031431 0.040029 -0.011373 -0.023133 0.054166 0.000632 0.010999 0.005590 0.004013 0.017326 -0.031485 -0.012657 0.007919 -0.013460 -0.085987 0.029106 -0.004330 0.001415 -0.020469 0.040943 0.020135 -0.035597 -0.066004 0.008651 -0.048644 0.036909 -0.092627 -0.014296 0.023774 -0.000465 -0.009779 -0.063208 -0.060299 0.007805 -0.009159 -0.024982 0.054884 -0.014697 -0.004255 -0.055360 0.033165 0.004679 -0.004349 -0.038386 -0.013937 -0.021607 0.012792 0.032589 -0.041708 -0.024536 -0.028786 -0.080091 -0.042148 -0.030129 0.051986 -0.075642 0.066540 0.009687 -0.038203 0.006765 -0.006528 0.044975 0.019272 0.003555 0.007627 0.091023 -0.046403 0.007956 0.016832 -0.015450 -0.025838 -0.005666 -0.092768 0.001449 0.008148 0.041943 0.046201 0.021210 0.010940 0.039991 -0.015980 0.048763 0.015528 0.071358 0.069268 0.035522 0.026590 0.037142 -0.015597 0.038607 0.043969 0.016523 -0.021010 0.006421 0.007043 -0.004617 -0.032511 0.025233 0.004546 0.014523 -0.038129 -0.006153 0.085360 -0.005935 -0.069185 -0.065355 0.049504 0.042165 -0.068448 0.015798 0.005123 0.017654 -0.032727 0.027083 0.041499 0.029930 -0.032458 0.035730 -0.073414 -0.069585 0.040261 0.022321 0.011680 -0.033261 0.006068 -0.007400 0.059598 0.048470 -0.010327 0.064115 -0.064675 0.064333 0.007470 -0.043479 -0.009580 -0.013661 -0.002702 -0.013850 -0.043210 -0.040808 -0.000038 -0.022012 0.000077 -0.049332 -0.006754 0.065145 0.049094 -0.038477 -0.039420 -0.060226 -0.013592 -0.023637 -0.010021 -0.004314 -0.051651 -0.024919 -0.025519 0.011949 -0.005829 -0.034925 0.023239 -0.031514 -0.000507 -0.011165 -0.018329 0.016014 0.005929 0.032924 -0.083480 -0.030302 0.032181 -0.005814 -0.010049 -0.019094 0.021737 0.027182 0.027739 -0.020217 0.026641 0.006267 -0.030068 -0.019776 0.001473 0.056181 0.047044 -0.003597 -0.019917 0.043658 -0.016966 0.019408 0.107930 0.045894 0.076480 0.038984 0.061688 0.006349 0.019063 -0.035773 0.088043 0.002528 -0.063705 0.028873 -0.046984 -0.004337 0.001655 -0.019586 -0.006510 -0.044346 0.036334 -0.048053 0.043160 -0.041907 0.063518 0.060117 -0.000233 -0.010765 -0.007082 0.013427 0.052722 0.008115 -0.021692 0.005771 0.041692 0.006595 0.045408 0.006504 0.040383 0.008232 0.025107 -0.058937 -0.001856 0.026712 0.071213 0.024171 -0.004635 -0.024360 -0.040061 -0.001521
coffee 0.021560 0.061872 -0.010117 -0.006946 0.032969 -0.031641 -0.021497 0.035937 0.013448 0.048895 -0.040720 -0.012416 0.008584 -0.057489 0.083988 0.014355 0.040057 0.039444 -0.067074 -0.037878 0.007650 -0.007298 0.047739 0.055913 0.023596 0.000726 -0.041988 -0.001223 0.058555 -0.012171 -0.008871 0.000382 -0.008719 -0.014585 -0.001980 0.039201 0.019814 -0.009134 0.019854 0.031900 0.049416 -0.018348 0.032985 -0.011002 -0.097730 -0.036761 -0.044872 -0.005470 -0.001790 0.021966 -0.007336 -0.011760 -0.045187 0.006568 -0.026898 -0.049547 0.038770 -0.000049 -0.011641 -0.007289 0.012085 0.053105 -0.053804 -0.008237 -0.011117 -0.016630 -0.049781 0.003138 0.055019 0.016923 -0.022963 -0.014509 0.037991 -0.000577 0.051590 0.001834 0.028864 -0.007354 0.030392 -0.002143 0.014416 0.058591 -0.024158 -0.022602 0.039690 0.034616 0.028498 -0.045874 -0.021950 0.004443 -0.018611 -0.004009 0.011756 -0.058194 0.015774 -0.005820 0.064129 0.021132 -0.004357 0.030589 0.023406 0.040787 0.014029 -0.010335 -0.028246 -0.050358 0.007704 -0.023129 -0.013134 0.005663 -0.030616 0.005641 0.031214 0.077867 0.022357 -0.005758 0.036404 -0.036603 -0.039069 -0.010514 -0.018935 0.021244 0.008758 0.040309 -0.042732 0.025662 -0.075134 -0.024010 0.087081 0.003082 0.048982 0.003516 -0.035884 0.047700 0.031056 -0.000350 -0.018550 0.011176 -0.007034 -0.001725 -0.031997 0.006288 -0.007224 0.075841 -0.026228 0.041955 -0.035886 0.026463 -0.039670 -0.018267 0.008851 -0.006392 0.009215 0.010237 0.024731 0.000763 0.080072 0.056218 0.000330 -0.062041 -0.047436 -0.052515 -0.008117 -0.011505 -0.000748 0.020715 -0.051698 0.021317 0.064073 -0.037401 -0.003546 0.002870 0.053685 0.004778 -0.018593 -0.000999 -0.031316 0.029443 -0.001481 0.042675 0.021570 0.041622 -0.002670 -0.009263 0.085893 0.026273 -0.001495 -0.054751 0.006896 -0.039021 0.038758 0.008684 0.006849 0.023706 -0.034215 0.021030 -0.010148 -0.008366 -0.034194 0.039809 0.028486 0.058817 0.006325 -0.003464 -0.005122 0.057506 0.018483 -0.018280 -0.049808 -0.043454 0.009918 0.052990 0.050017 0.009877 0.074257 0.042892 -0.015922 -0.042127 0.012462 -0.069097 0.017946 0.073634 -0.010918 0.009578 -0.029496 -0.101443 0.004785 -0.002533 0.011315 -0.004841 0.003599 0.013629 0.069599 -0.021641 0.039393 -0.002226 -0.047313 0.024166 -0.018788 0.035172 -0.027773 0.003946 -0.021436 -0.044755 0.016983 0.015102 -0.012440 -0.005637 0.008928 -0.036899 0.005699 0.012794 0.050554 0.032818 0.029446 0.036673 0.050044 0.019339 -0.022807 -0.045038 0.026001 0.021965 0.026942 0.059839 0.043024 0.044570 -0.051336 -0.011560 -0.026700 0.015013 -0.050420 0.011200 0.044917 0.026079 0.019114 0.031856 0.078300 0.000833 -0.026944 -0.002231 0.005738 -0.070595 0.025675 -0.024215 -0.000778 -0.026455 -0.073134 0.014388 -0.003280 -0.076194 0.027478 -0.001849 0.008560 -0.034603 -0.041071 0.030134 0.023799 0.007078 -0.021171 -0.015855 -0.030181 -0.003142 0.015966 0.030214 0.000879 0.037706 -0.050737 -0.015758 0.058003 0.025518 -0.051433 0.001888 0.003391 -0.016634 -0.025910 0.021042 -0.060293 -0.040160 0.020963 0.030898 0.051899 -0.001981 -0.034617 0.070470 0.064288 -0.029832 -0.026103 0.007967 -0.040586 0.075719 0.007175 0.000643 -0.028629 -0.001519 -0.045706 -0.002754 -0.020479 -0.035655 0.050047 0.047237 0.039065 -0.083913 -0.031424 -0.014049 0.006879 0.001869 0.022368 -0.024088 0.027596 0.028409 -0.013261 0.013032 0.073592 0.065472 -0.029755 -0.003396 -0.008256 -0.025363 0.093901 0.064162 -0.045006 0.013357 0.015711 0.016435 -0.029186 -0.031949 -0.062042 0.017458 -0.022109 0.037495 0.050486 -0.052800 -0.052421 0.014889 0.026569 -0.020077 0.017811 -0.075500 -0.015436 -0.060233 -0.075431 -0.003995 0.010430 -0.029139 -0.007522 0.063360 -0.001823 0.027731 -0.025753 -0.087035 0.014142 0.022762 -0.029784 0.019800 0.032429 -0.026423 -0.002579 0.000451 -0.019918 -0.027335 0.045417 0.011720 0.050287 -0.006940 0.062143 -0.055747 0.025880 0.080857 0.011851 0.027840 0.025858 -0.034732 0.059359 -0.016455 -0.067414 -0.017194 -0.101446 -0.048275 0.037631 -0.010954 0.011779 -0.024677 0.038960 -0.025326 -0.013652 0.022501 0.015983 -0.074426 -0.009439 -0.044248 -0.058815 0.090181 0.051180 -0.012770 -0.017743 0.005274 -0.040924 0.024058 0.001192 0.012046 0.019071 -0.054831 -0.033682 0.025128 0.004470 0.033164 0.047576 0.013703 0.049350 0.041369 0.052228 0.019228 -0.049982 0.005310 0.004251 0.001853 0.047421 0.032548 -0.017395 -0.026127 -0.006799 -0.040866 0.041022 -0.018623 0.076655 0.012708 0.004376 -0.018181 -0.000475 -0.054280 -0.001381 -0.022051 -0.005610 0.042085 0.048840 0.023894 0.061428 0.030669 0.033889 0.006572 -0.052654 -0.036780 0.012292 -0.020082 -0.034997 -0.037454 0.004347 -0.034327 0.005784 -0.032741 -0.090911 -0.004131 -0.034955 0.026100 -0.035548 0.000677 -0.006817 0.049650 -0.053356 -0.023790 0.002261 0.026196 0.036020 0.015255 -0.006188 0.122247 -0.014526 -0.005961 -0.018398 -0.066528 -0.037573 0.006458 0.004978 0.031601 0.027924 -0.051094 -0.005473 -0.026500 -0.034207 -0.016520 0.025859 -0.015615 0.021168 0.025849 -0.031100 0.070294 0.003125 -0.016745 0.065175 0.018604 0.037347 0.028236 -0.026154 -0.023626 0.000437 0.020879 -0.016433 -0.025251 -0.048908 -0.043244 -0.005592 0.012093 -0.016242 0.037755 -0.009164 0.007412 0.014567 -0.031074 0.038563 -0.023112 0.025064 -0.030020 0.005280 -0.006549 0.003798 0.008308 0.031659 0.049160 -0.030997 -0.002457 0.019416 -0.055118 0.052469 0.053839 0.031136 -0.019712 0.003965 -0.005189 0.019859 0.036336 -0.030229 0.057351 0.057411 0.045263 0.020118 -0.061641 0.013088 -0.022576 0.000720 0.009351 0.003652 -0.018392 0.035997 -0.027099 0.040794 -0.006075 -0.013843 -0.008367 -0.056764 0.029066 -0.048991 0.010945 -0.119295 0.029537 0.056531 -0.007316 -0.018503 -0.041079 0.023296 -0.002218 0.050448 -0.002805 0.066805 0.055576 0.032204 -0.005845 0.008516 0.053620 0.030287 -0.014663 -0.027847 0.031509 -0.028141 -0.016678 0.002194 0.048736 -0.021230 -0.030537 -0.018197 -0.027834 0.025072 0.011386 0.006939 -0.035038 -0.015578 0.011181 0.010021 0.006307 -0.041202 0.009445 -0.035577 -0.081074 0.017263 -0.001708 0.020979 0.007318 0.000115 0.062856 -0.089012 0.013802 -0.025065 -0.025995 0.038019 0.016509 -0.026921 0.037480 0.016759 0.096332 -0.016745 0.004100 0.016879 0.055923 0.069569 -0.024397 0.011482 -0.023354 0.028557 0.004445 0.022434 -0.030576 0.100111 -0.062624 -0.042966 0.007828 0.018803 -0.040800 0.005052 -0.059016 0.081462 0.004140 0.011093 -0.053780 0.020348 0.063365 -0.042880 0.005464 -0.035478 0.003379 0.011811 0.059496 -0.088234 0.002996 -0.016428 -0.001644 0.005052 0.007557 0.025026 -0.054923 -0.002396 -0.069544 -0.015618 -0.018942 0.009833 0.012935 0.022436 0.049393 -0.010111 0.001042 0.003225 0.015397 -0.032553 0.051634 -0.074692 0.003126 0.055900 0.099281 -0.052600 -0.008513 0.009143 -0.023492 -0.003484 -0.018528 0.062767 0.015936 0.015311 -0.014320 0.012176 0.042579 0.030286 0.000593 0.003061 -0.031857 0.005682 0.060814 0.038069 0.058982 0.017374 -0.030054 0.022774 -0.038075 0.018324 -0.022303 -0.047155 0.057049 0.013180 0.000826 -0.060551 -0.031607 -0.018679 0.020637 -0.091302 0.050381 0.018018 -0.049605 0.031296 -0.073912 0.008690 -0.024822 -0.019142 0.002453 0.029514 -0.019212 0.005402 0.000152 0.004537 0.024645 0.014292 -0.000232 0.048707 0.057149 0.025538 0.029305 -0.003368 0.029481 0.018568 0.032291 -0.023711 0.022298
dog -0.007193 -0.014870 0.026100 -0.013065 0.021780 -0.016239 0.076275 0.008317 0.019068 0.025946 0.044639 -0.013575 -0.015253 -0.039620 -0.034773 -0.000914 0.016799 0.037394 -0.008929 -0.021742 0.020912 -0.032690 0.030437 0.036699 0.114866 0.011046 -0.059597 -0.052268 0.027035 -0.091683 -0.022246 0.004112 0.038652 0.026653 -0.025759 0.029009 0.022792 -0.009995 0.000005 -0.051850 0.003172 -0.038305 0.002607 -0.019429 0.006252 0.023323 0.000433 -0.026592 0.045121 0.037144 -0.020459 -0.038094 -0.009446 0.005694 -0.007954 0.025489 -0.005697 0.047210 0.029954 0.022072 -0.006580 0.008249 0.010578 0.015688 -0.003699 0.000175 0.049980 -0.025713 -0.071279 0.026683 0.086597 0.025013 0.010848 -0.000133 0.019059 -0.065450 0.070729 0.003161 -0.016522 -0.000508 0.050866 -0.026139 0.033074 -0.008175 -0.019912 -0.021641 -0.053348 -0.046647 -0.056194 0.081895 -0.008399 0.013710 0.028949 0.025327 -0.005652 0.065330 -0.017554 -0.002764 0.039275 -0.006146 0.030430 -0.015761 0.033856 0.015159 -0.053805 0.024775 -0.022231 0.003917 0.035983 0.028193 0.032399 -0.044145 -0.023844 -0.000392 -0.057008 0.052386 -0.058281 0.005359 0.039815 -0.005183 -0.021196 0.089502 -0.011396 -0.076724 0.043021 -0.006596 -0.002765 -0.048939 0.005664 0.033668 -0.036284 -0.035217 -0.022600 -0.044013 0.008026 0.043449 0.009019 -0.018427 0.027387 -0.048321 -0.016521 -0.032801 -0.066001 0.026463 0.044120 0.031059 -0.014610 0.003735 -0.026929 -0.026094 0.021473 -0.005304 0.001311 0.028569 0.011055 0.041626 -0.022837 0.042547 0.029214 -0.012563 0.035463 0.025614 0.036518 0.052013 0.031114 -0.013187 0.013220 0.004777 0.025019 0.005196 0.057880 0.021968 0.011779 -0.033915 -0.043922 -0.015991 0.030175 0.048084 -0.014857 0.005995 -0.018823 0.018014 -0.026162 -0.009551 -0.016921 -0.021698 -0.067269 -0.016712 -0.063418 -0.022142 0.020048 -0.005518 -0.072338 -0.030303 -0.026156 -0.040794 -0.045012 -0.043285 0.055474 -0.059126 0.001161 -0.006209 -0.011455 -0.068440 -0.056238 -0.031286 0.024330 0.025350 -0.013264 0.016113 -0.030864 0.017505 0.001980 0.050291 0.006828 -0.031340 -0.051347 -0.039849 -0.002861 0.080460 0.050801 -0.004419 -0.001069 0.043084 -0.023129 -0.039924 0.046391 0.040420 -0.013232 0.000208 0.019717 0.003022 -0.093825 -0.033475 -0.012900 -0.020170 -0.008245 -0.013568 -0.003728 0.017501 -0.020728 0.022430 0.006613 0.037637 0.016846 0.029071 0.009467 0.007706 -0.015318 0.061660 -0.000877 -0.034746 -0.010633 -0.024974 0.000554 -0.002475 0.062576 0.037287 0.047404 0.053894 -0.020080 -0.030976 0.047677 0.028684 0.000356 -0.003016 0.002715 0.008764 0.050324 -0.078686 -0.034947 -0.045874 -0.043855 -0.021744 0.064022 0.003167 -0.024115 0.002101 0.007485 0.002793 0.029545 0.038806 -0.024957 -0.038661 -0.057308 0.033161 -0.057072 -0.021764 0.047657 -0.013521 -0.003938 -0.042956 0.046670 0.054362 -0.003069 0.022958 -0.039184 0.022182 -0.003472 0.031899 -0.064891 -0.036190 -0.045939 -0.023307 -0.026742 0.007929 0.101639 -0.010867 0.006929 -0.045000 -0.018284 -0.015454 0.057783 0.065598 -0.023306 0.008379 0.025729 -0.025341 -0.004356 0.049567 -0.014905 0.036789 0.066356 0.004334 -0.045363 0.068779 -0.004506 -0.043188 0.051177 -0.050052 -0.039564 -0.009054 0.044418 0.032360 0.013977 0.011812 -0.005741 0.066378 0.009469 -0.016555 -0.000755 -0.061709 0.031376 0.030012 -0.025475 -0.027045 -0.021397 -0.020519 -0.022084 0.086762 0.044443 0.073957 0.023106 0.040737 0.026698 -0.039431 -0.000549 0.029368 0.021456 0.007175 -0.074530 0.074026 -0.008296 0.085913 0.016589 -0.051794 -0.037276 0.073805 -0.002034 0.070672 -0.033048 0.009311 0.039423 -0.053244 0.053596 -0.039090 -0.011091 0.009323 0.054877 0.043117 0.004062 0.017232 -0.053194 0.015107 0.060860 0.030473 -0.015709 -0.098098 0.010028 -0.051856 0.007165 0.026825 0.000024 0.004203 -0.052060 0.046175 0.015861 -0.082632 0.018480 0.034830 0.030377 -0.037804 0.028857 0.032212 0.017852 0.009783 0.004750 0.004303 -0.019894 0.005318 -0.010239 0.000513 -0.004686 0.028394 -0.044918 0.027292 0.049720 0.058512 -0.044053 -0.013436 0.038465 -0.009127 -0.005095 0.008533 0.019098 -0.034569 0.001528 -0.003772 0.000139 0.012639 -0.049821 0.050645 -0.026683 0.058047 0.036556 -0.016604 0.039504 0.000344 -0.016178 0.018217 -0.014688 -0.031442 0.033889 -0.044046 -0.065946 0.017627 0.026169 -0.054609 -0.030544 0.008135 -0.011959 -0.000511 0.029882 -0.095944 -0.022410 0.041205 0.027181 0.018967 0.027671 0.022610 -0.002039 0.000753 -0.025812 -0.034191 -0.025001 0.022074 0.036783 -0.033374 0.016105 0.060008 -0.050379 0.040978 -0.004115 0.005640 0.020948 0.047174 0.070318 -0.016420 0.044247 0.017449 -0.011008 -0.022687 0.010033 0.022640 0.013781 0.021076 -0.070892 -0.019876 -0.025356 0.031788 0.024498 -0.012480 0.026460 0.098233 0.055769 -0.001090 -0.012349 -0.034308 -0.016122 0.057869 -0.023787 0.046908 -0.018060 0.011801 -0.010534 -0.003934 -0.016991 -0.042637 0.009954 0.036950 0.003820 -0.027078 0.043190 0.023300 0.012463 0.012675 0.051711 -0.072022 0.027955 -0.008408 -0.029888 0.030027 -0.013268 -0.050923 0.015078 0.004869 -0.059485 0.029257 -0.000516 -0.053468 0.046323 -0.032778 -0.010914 -0.023004 -0.028358 0.024006 -0.007974 -0.070905 -0.036070 -0.039489 -0.002297 0.001915 -0.062554 0.029065 0.009535 0.005152 0.036635 -0.036643 -0.019622 -0.043088 -0.062177 -0.017900 -0.039212 0.007898 -0.034569 -0.015433 0.045204 0.036969 -0.009694 -0.014105 0.050183 0.038473 0.015537 0.023617 -0.004685 0.052422 -0.012544 0.013189 0.085144 0.012037 0.057877 0.016000 0.041334 -0.003480 -0.038369 0.002756 -0.044194 -0.007746 -0.018590 0.028065 0.048717 0.017058 0.030928 -0.013191 0.046166 -0.006743 0.004625 -0.022783 0.001573 0.044134 0.035357 0.042466 -0.061565 -0.015332 0.009745 -0.026067 -0.032105 -0.021628 -0.029859 0.045719 0.003721 0.001080 -0.054671 -0.004996 0.043322 -0.019325 -0.018247 -0.019967 0.009428 -0.055876 -0.017374 -0.034736 -0.013346 -0.047447 -0.050666 0.029823 -0.022938 -0.019236 -0.018794 0.017010 0.066883 -0.047866 -0.049573 -0.034072 -0.025077 0.007450 -0.029786 0.006890 0.015810 -0.021340 0.011874 0.018725 -0.009985 -0.016321 -0.029557 0.056542 0.052452 -0.045274 -0.010114 0.018140 0.040128 -0.049444 -0.032619 0.003216 0.041537 0.048414 0.020647 0.027354 0.000077 0.043331 -0.030233 -0.030092 -0.065321 0.009328 0.039710 -0.062570 0.019798 -0.003102 0.075032 0.040429 -0.022878 0.003322 0.003949 -0.012201 -0.030638 -0.004733 -0.015508 0.005497 -0.069029 0.026855 0.018909 -0.010829 -0.063746 -0.020840 0.009995 -0.010348 0.025650 -0.049254 -0.054387 0.031583 0.009868 0.006539 -0.038179 0.069352 -0.065808 0.003803 0.024217 0.053336 -0.037316 -0.013589 0.024302 -0.010971 0.029888 -0.027155 -0.007613 -0.025173 -0.034359 -0.031499 0.028741 -0.005311 -0.023665 0.035094 -0.033066 0.043439 0.025655 0.030971 0.031831 0.011019 0.042564 0.024405 -0.087018 0.026297 -0.001650 -0.029935 -0.026726 0.026697 -0.031442 0.002409 -0.004128 0.014445 0.023368 -0.059615 -0.054799 -0.081299 0.059416 0.010956 -0.056560 0.107575 -0.039254 0.020205 -0.040410 -0.021825 0.001562 0.019960 -0.070539 0.090465 0.061431 0.036778 -0.022294 0.017297 0.016159 0.061797 -0.077869 0.019658 -0.007975 -0.007400 -0.002894 -0.016369 0.021248 -0.034731 -0.011210 0.069330 0.028663 -0.009163 -0.062177 -0.028208 -0.015891 0.012899 0.051812 -0.059197 0.066415 -0.001482 0.063170 0.021309 0.069321 -0.002051 0.014050 -0.029506
